{"learner":{"attributes":{"best_iteration":"99","best_ntree_limit":"100","scikit_learn":"{\"use_label_encoder\": null, \"n_estimators\": 100, \"objective\": \"binary:logistic\", \"max_depth\": 8, \"max_leaves\": null, \"max_bin\": null, \"grow_policy\": null, \"learning_rate\": null, \"verbosity\": null, \"booster\": null, \"tree_method\": \"hist\", \"gamma\": null, \"min_child_weight\": null, \"max_delta_step\": null, \"subsample\": null, \"sampling_method\": null, \"colsample_bytree\": null, \"colsample_bylevel\": null, \"colsample_bynode\": null, \"reg_alpha\": null, \"reg_lambda\": null, \"scale_pos_weight\": null, \"base_score\": null, \"missing\": NaN, \"num_parallel_tree\": null, \"random_state\": null, \"n_jobs\": null, \"monotone_constraints\": null, \"interaction_constraints\": null, \"importance_type\": null, \"gpu_id\": null, \"validate_parameters\": null, \"predictor\": null, \"enable_categorical\": false, \"feature_types\": null, \"max_cat_to_onehot\": null, \"max_cat_threshold\": null, \"eval_metric\": \"error\", \"early_stopping_rounds\": null, \"callbacks\": null, \"kwargs\": {\"eta\": 0.2}, \"classes_\": [0, 1], \"n_classes_\": 2, \"_estimator_type\": \"classifier\"}"},"feature_names":["Pulse Width","ec_0","ec_1","ec_2","ec_3","ec_4","ec_5","ec_6","ec_7","ec_8","ec_9","ec_10","fsd_0","fsd_1","fsd_2","fsd_3","fsd_4","fsd_5","fsd_6","fsd_7","fsd_8","fsd_9","fsd_10","ssd_0","ssd_1","ssd_2","ssd_3","ssd_4","ssd_5","ssd_6","ssd_7","ssd_8","ssd_9","ssd_10"],"feature_types":["float","float","float","float","float","float","float","float","float","float","float","float","float","float","float","float","float","float","float","float","float","float","float","float","float","float","float","float","float","float","float","float","float","float"],"gradient_booster":{"model":{"gbtree_model_param":{"num_parallel_tree":"1","num_trees":"100","size_leaf_vector":"0"},"tree_info":[0,0,0,0,0,0,0,0,0,0,0,0,0,0,0,0,0,0,0,0,0,0,0,0,0,0,0,0,0,0,0,0,0,0,0,0,0,0,0,0,0,0,0,0,0,0,0,0,0,0,0,0,0,0,0,0,0,0,0,0,0,0,0,0,0,0,0,0,0,0,0,0,0,0,0,0,0,0,0,0,0,0,0,0,0,0,0,0,0,0,0,0,0,0,0,0,0,0,0,0],"trees":[{"base_weights":[1.2036786E-2,-1.022657E-1,1.5230769E0,-2.1672426E-1,5.19142E-1,9.261662E-1,1.9017103E0,-3.9989254E-1,2.5720245E-1,2.1702127E-1,1.1030345E0,-3.030303E-1,9.5055115E-1,1.5574651E0,3.9538464E-1,2.3845623E-1,-4.773861E-1,1.20845616E-1,7.20326E-1,-6.6816396E-1,6.252266E-1,-5.072046E-1,1.3194634E0,-3.2727274E-1,3.3333334E-1,-6.666667E-1,9.678651E-1,1.5878525E0,-2.1538463E-1,-1.824292E-1,8.0504364E-1,-2.9612815E-1,-6.650765E-1,-6.877931E-2,5.7012963E-1,1.1281908E0,9.450172E-2,1.6363636E0,-8.1888825E-1,2.702927E-1,1.2121004E0,9.6585363E-1,-1.1156187E0,1.5628006E0,6.6761565E-1,-1.04E0,3.1111112E-1,2.2222224E-1,-1.0967742E0,9.2859536E-1,1.6585366E0,-1.5384616E-1,1.6311111E0,-6.8821293E-1,3.3301064E-1,4.5016077E-1,1.3403736E0,-5.341877E-1,-1.5339296E-1,-8.270517E-1,-1.2463083E-1,4.121212E-1,-2.3583461E-1,2.1252154E-1,1.0751727E0,7.2820514E-1,1.5126792E0,-4.4867855E-1,1.3475177E0,1.78E0,1.6666667E-1,-1.3424104E0,-5.7059254E-2,-5.4188114E-1,9.165425E-1,-1.735849E0,1.3216958E0,4.1860464E-1,3.5999998E-1,4.516129E-1,-1.6246649E0,1.7E0,1.1501057E0,-1.1309524E-1,1.375848E0,-2.857143E-1,1E-1,-3.2727274E-1,1.5384616E-1,1.0490196E0,6.652587E-1,-2.1538463E-1,1.8451613E0,-2.4000001E-1,4E-1,1.2711111E0,1.7407953E0,-1.0302179E0,2.6277373E-2,1.2623377E0,1.198813E-1,-1.6255708E-1,1.3135484E0,1.8579439E0,9.3714285E-1,-1.2976521E-1,-7.493276E-1,-4.580078E-1,-6.971444E-2,-7.0371084E-2,-1.0532736E0,-1.0435555E0,7.8741544E-1,3.547497E-2,1.2816772E0,-5.400763E-1,2.2382325E-1,-1.5821502E-1,1.1067581E0,1.6367077E0,6.505682E-1,-1.306018E-1,1.4110429E0,6.0724235E-1,1.7313228E0,-6.1588967E-1,3.851852E-1,3.5658914E-1,1.5586207E0,3.636364E-2,1.8341969E0,-5.882353E-1,2.5454545E-1,-1.5315114E0,4.329897E-1,-8.8701516E-1,5.7583547E-1,-1.3052362E0,-1.0014728E-1,-1.0573249E0,1.0375346E0,-3.5999998E-1,-8.0000006E-2,-1.5692308E0,1.388201E0,-1.0877193E0,1.5263158E0,-1.5348837E0,1.4352942E0,-1.8410596E0,-6.666667E-1,1.2207792E0,1.8318099E0,1.814714E0,7.238422E-1,-1.0991957E0,1.1023102E0,3.3962265E-1,1.6494845E0,-2E-1,2.2222224E-1,8.217054E-1,1.2766799E0,2.9213482E-1,1.1366906E0,6.666667E-1,1.8911564E0,-4.6153846E-1,2.5454545E-1,-9.0909094E-1,1.4782609E0,3.7301588E-1,1.3519553E0,-2.9746482E-1,-1.14365414E-1,-1.0186335E-1,2.5631067E-1,1.0642202E-1,3.057143E-1,-1.2830189E-1,1.0415913E-1,-1.9461697E-1,9.4805196E-2,-0E0,3.299838E-1,1.1891892E-1,3.87251E-1,-2.166065E-2,3.2131147E-1,-2.3896103E-1,2.169569E-3,-1.7619632E-1,3.7391305E-2,-3.2592592E-1,-6.390404E-2,1.4284226E-2,-6.492383E-2,-1.0942858E-1,9.696466E-2,-1.5775235E-1,-2.9258987E-1,-2.4189723E-1,8.746356E-2,2.14305E-1,-2.2585034E-1,8.7242804E-2,-2.5393635E-1,3.664671E-1,1.6266666E-1,-2.3334889E-1,-4.3266684E-2,-7.256318E-2,1.7786886E-1,3.229167E-1,-9.688249E-2,3.613941E-1,1.398773E-1,2.1565218E-1,3.566787E-1,4.8163265E-2,3.148148E-1,3.772512E-1,-1.7421603E-1,7.304348E-2,3.4468088E-1,3.529412E-1,-1.9383261E-2,-2.5E-1,3.519005E-1,-3.2829133E-1,-6.0170945E-2,2.5714287E-1,-6.753247E-2,1.6608188E-1,3.6900726E-1,2.0689654E-1,3.857143E-1,-2.769231E-1,2E-1,-1.910828E-1,-3.4630468E-1,-3.4285717E-2,3.724138E-1,3.4117648E-1,-2.4272211E-1,1.8075803E-1,-3.5833332E-1,3.6595747E-1,-2.9945946E-1,-1.8589744E-1,1.2032521E-1,-3.8139534E-1,-5.3333337E-3,3.7966102E-1,1.6771692E-1,-3.6923078E-1,-7.058824E-2,3.8704452E-1,2.367347E-1,-3.483871E-1,-5.333334E-2,1.4285715E-1,3.6923078E-1,-3.5555556E-1,-3.636364E-2,1.0909092E-1,3.7142858E-1,-3.936759E-1,-2.1886793E-1,-3.6521742E-1,2.060606E-1,5.6E-2,3.314286E-1,3.7881356E-1,2.8421053E-1,2.054054E-1,3.760479E-1,-4.2424243E-2,2.9597524E-1,-2.7672955E-1,1.0169492E-1,-0E0,3.390863E-1,-2.9152545E-1,2.6923078E-1,2.2264151E-1,3.8716578E-1,9.766454E-2,2.1876107E-1,2.3823205E-1,3.855856E-1,-5.30504E-3,2.062112E-1,5.591398E-2,2.7317074E-1,-0E0,2E-1,3.832168E-1,1E-1,-1.3333334E-1,-0E0,-0E0,-2.5E-1,3.0541873E-1,-1E-1,-3.636364E-2,3.3066666E-1],"categories":[],"categories_nodes":[],"categories_segments":[],"categories_sizes":[],"default_left":[0,0,0,0,0,0,0,0,0,0,0,0,0,0,0,0,0,0,0,0,0,0,0,0,0,0,0,0,0,0,0,0,0,0,0,0,0,0,0,0,0,0,0,0,0,0,0,0,0,0,0,0,0,0,0,0,0,0,0,0,0,0,0,0,0,0,0,0,0,0,0,0,0,0,0,0,0,0,0,0,0,0,0,0,0,0,0,0,0,0,0,0,0,0,0,0,0,0,0,0,0,0,0,0,0,0,0,0,0,0,0,0,0,0,0,0,0,0,0,0,0,0,0,0,0,0,0,0,0,0,0,0,0,0,0,0,0,0,0,0,0,0,0,0,0,0,0,0,0,0,0,0,0,0,0,0,0,0,0,0,0,0,0,0,0,0,0,0,0,0,0,0,0,0,0,0,0,0,0,0,0,0,0,0,0,0,0,0,0,0,0,0,0,0,0,0,0,0,0,0,0,0,0,0,0,0,0,0,0,0,0,0,0,0,0,0,0,0,0,0,0,0,0,0,0,0,0,0,0,0,0,0,0,0,0,0,0,0,0,0,0,0,0,0,0,0,0,0,0,0,0,0,0,0,0,0,0,0,0,0,0,0,0,0,0,0,0,0,0,0,0,0,0,0,0,0,0,0,0,0,0,0,0,0,0,0,0,0,0,0,0,0,0,0,0,0,0,0,0,0,0,0,0,0,0,0,0],"id":0,"left_children":[1,3,5,7,9,11,13,15,17,19,21,23,25,27,-1,29,31,33,35,37,39,41,43,-1,45,47,49,51,-1,53,55,57,59,61,63,65,67,69,71,73,75,77,79,81,83,85,-1,-1,87,89,91,93,95,97,99,101,103,105,107,109,111,113,115,117,119,121,123,125,127,129,131,133,135,137,139,141,143,145,-1,147,149,151,153,155,157,-1,-1,-1,159,161,163,-1,165,-1,167,169,171,173,175,177,179,181,183,185,187,189,191,193,195,197,199,201,203,205,207,209,211,213,215,217,219,221,223,225,227,229,-1,231,233,-1,235,237,-1,239,241,243,245,247,249,251,253,-1,-1,255,257,259,261,263,265,267,269,271,273,275,277,279,281,283,285,-1,-1,287,289,291,293,295,297,299,-1,301,303,-1,305,-1,-1,-1,-1,-1,-1,-1,-1,-1,-1,-1,-1,-1,-1,-1,-1,-1,-1,-1,-1,-1,-1,-1,-1,-1,-1,-1,-1,-1,-1,-1,-1,-1,-1,-1,-1,-1,-1,-1,-1,-1,-1,-1,-1,-1,-1,-1,-1,-1,-1,-1,-1,-1,-1,-1,-1,-1,-1,-1,-1,-1,-1,-1,-1,-1,-1,-1,-1,-1,-1,-1,-1,-1,-1,-1,-1,-1,-1,-1,-1,-1,-1,-1,-1,-1,-1,-1,-1,-1,-1,-1,-1,-1,-1,-1,-1,-1,-1,-1,-1,-1,-1,-1,-1,-1,-1,-1,-1,-1,-1,-1,-1,-1,-1,-1,-1,-1,-1,-1,-1,-1,-1,-1,-1,-1,-1,-1,-1,-1,-1,-1,-1,-1,-1],"loss_changes":[5.108394E3,1.9558483E3,4.6833984E2,2.0158575E3,7.5429333E2,2.4544434E1,2.9849121E1,8.28615E2,4.0871484E2,1.01938904E3,5.0887256E2,1.4545454E1,2.2870544E1,2.0342102E1,0E0,4.3266888E2,5.079143E2,4.2620816E2,3.7568762E2,3.1065356E2,4.017981E2,1.5657332E2,2.0290088E2,0E0,2.176E1,8.100358E0,1.9771362E1,1.7617676E1,0E0,2.717494E2,1.4629819E2,2.5815363E2,6.421472E2,2.8276288E2,2.6792847E2,1.3596362E2,3.967217E2,1.131395E1,3.3354846E2,6.3256793E2,2.372555E2,2.2641407E1,9.906175E1,5.1014404E1,1.9437039E2,4.4542856E0,0E0,0E0,5.481616E0,2.2951416E1,2.291777E1,4.246154E0,6.671692E0,1.2856E2,1.0215019E2,2.4699811E2,6.248639E1,2.4772162E2,1.2110795E2,9.6618066E2,1.4197283E3,2.9717444E2,3.654015E2,2.8876862E2,1.456294E2,2.5747864E2,8.872717E1,1.6269044E2,3.63136E1,3.997345E0,5.758467E0,1.6710114E2,1.8002342E2,1.8001826E2,1.6134674E2,1.5509415E0,1.3709814E2,5.5471645E1,0E0,6.277947E1,1.8103897E1,4.197998E1,6.568646E1,2.0256166E2,5.1683716E1,0E0,0E0,0E0,4.700855E0,2.5343689E1,4.1312866E1,0E0,8.396759E-1,0E0,4.3468533E0,2.674797E1,5.681885E0,7.369098E1,1.1578726E2,1.7898712E1,1.289217E2,1.4170758E2,8.560632E1,1.2081146E1,1.2264546E2,1.4831134E2,2.2931543E2,1.6562857E2,1.3419614E2,3.4444275E2,4.697422E2,2.0785712E2,4.64208E2,3.3228387E2,6.923804E1,3.1867398E2,4.0675058E2,3.5714862E2,7.154544E1,1.972345E1,1.3282063E2,2.9323712E2,7.924274E1,7.3320694E1,3.2843018E1,1.2252248E2,0E0,2.1236887E1,2.8710663E1,0E0,1.6464691E0,6.760181E0,0E0,4.999597E1,4.221165E1,1.276126E2,1.5263554E2,1.2060391E2,1.9815111E2,3.4320396E1,1.06766785E2,0E0,0E0,4.82172E0,7.4515625E1,7.1898117E0,3.6159668E0,3.209774E0,6.963787E0,5.0238953E0,3.877207E1,6.275638E1,1.1296753E1,2.8044739E0,1.0344955E2,4.334726E1,4.952562E1,7.386946E1,2.0187988E1,0E0,0E0,2.2869919E1,1.179422E1,3.1461876E1,2.009497E1,6.666666E-1,3.1637573E-1,3.076923E-1,0E0,1.7045455E0,5.7627945E0,0E0,2.09861E1,0E0,0E0,0E0,0E0,0E0,0E0,0E0,0E0,0E0,0E0,0E0,0E0,0E0,0E0,0E0,0E0,0E0,0E0,0E0,0E0,0E0,0E0,0E0,0E0,0E0,0E0,0E0,0E0,0E0,0E0,0E0,0E0,0E0,0E0,0E0,0E0,0E0,0E0,0E0,0E0,0E0,0E0,0E0,0E0,0E0,0E0,0E0,0E0,0E0,0E0,0E0,0E0,0E0,0E0,0E0,0E0,0E0,0E0,0E0,0E0,0E0,0E0,0E0,0E0,0E0,0E0,0E0,0E0,0E0,0E0,0E0,0E0,0E0,0E0,0E0,0E0,0E0,0E0,0E0,0E0,0E0,0E0,0E0,0E0,0E0,0E0,0E0,0E0,0E0,0E0,0E0,0E0,0E0,0E0,0E0,0E0,0E0,0E0,0E0,0E0,0E0,0E0,0E0,0E0,0E0,0E0,0E0,0E0,0E0,0E0,0E0,0E0,0E0,0E0,0E0,0E0,0E0,0E0,0E0,0E0,0E0,0E0,0E0,0E0,0E0,0E0,0E0,0E0,0E0,0E0,0E0,0E0,0E0,0E0],"parents":[2147483647,0,0,1,1,2,2,3,3,4,4,5,5,6,6,7,7,8,8,9,9,10,10,11,11,12,12,13,13,15,15,16,16,17,17,18,18,19,19,20,20,21,21,22,22,24,24,25,25,26,26,27,27,29,29,30,30,31,31,32,32,33,33,34,34,35,35,36,36,37,37,38,38,39,39,40,40,41,41,42,42,43,43,44,44,45,45,48,48,49,49,50,50,51,51,52,52,53,53,54,54,55,55,56,56,57,57,58,58,59,59,60,60,61,61,62,62,63,63,64,64,65,65,66,66,67,67,68,68,69,69,70,70,71,71,72,72,73,73,74,74,75,75,76,76,77,77,79,79,80,80,81,81,82,82,83,83,84,84,88,88,89,89,90,90,92,92,94,94,95,95,96,96,97,97,98,98,99,99,100,100,101,101,102,102,103,103,104,104,105,105,106,106,107,107,108,108,109,109,110,110,111,111,112,112,113,113,114,114,115,115,116,116,117,117,118,118,119,119,120,120,121,121,122,122,123,123,124,124,125,125,127,127,128,128,130,130,131,131,133,133,134,134,135,135,136,136,137,137,138,138,139,139,140,140,143,143,144,144,145,145,146,146,147,147,148,148,149,149,150,150,151,151,152,152,153,153,154,154,155,155,156,156,157,157,158,158,161,161,162,162,163,163,164,164,165,165,166,166,167,167,169,169,170,170,172,172],"right_children":[2,4,6,8,10,12,14,16,18,20,22,24,26,28,-1,30,32,34,36,38,40,42,44,-1,46,48,50,52,-1,54,56,58,60,62,64,66,68,70,72,74,76,78,80,82,84,86,-1,-1,88,90,92,94,96,98,100,102,104,106,108,110,112,114,116,118,120,122,124,126,128,130,132,134,136,138,140,142,144,146,-1,148,150,152,154,156,158,-1,-1,-1,160,162,164,-1,166,-1,168,170,172,174,176,178,180,182,184,186,188,190,192,194,196,198,200,202,204,206,208,210,212,214,216,218,220,222,224,226,228,230,-1,232,234,-1,236,238,-1,240,242,244,246,248,250,252,254,-1,-1,256,258,260,262,264,266,268,270,272,274,276,278,280,282,284,286,-1,-1,288,290,292,294,296,298,300,-1,302,304,-1,306,-1,-1,-1,-1,-1,-1,-1,-1,-1,-1,-1,-1,-1,-1,-1,-1,-1,-1,-1,-1,-1,-1,-1,-1,-1,-1,-1,-1,-1,-1,-1,-1,-1,-1,-1,-1,-1,-1,-1,-1,-1,-1,-1,-1,-1,-1,-1,-1,-1,-1,-1,-1,-1,-1,-1,-1,-1,-1,-1,-1,-1,-1,-1,-1,-1,-1,-1,-1,-1,-1,-1,-1,-1,-1,-1,-1,-1,-1,-1,-1,-1,-1,-1,-1,-1,-1,-1,-1,-1,-1,-1,-1,-1,-1,-1,-1,-1,-1,-1,-1,-1,-1,-1,-1,-1,-1,-1,-1,-1,-1,-1,-1,-1,-1,-1,-1,-1,-1,-1,-1,-1,-1,-1,-1,-1,-1,-1,-1,-1,-1,-1,-1,-1,-1],"split_conditions":[1.7855622E0,2.8535042E0,2.0850077E0,7.656581E-1,-3.7900123E-1,-2.3938904E-2,2.1924605E0,-1.1991283E0,3.271863E-1,3.8258474E0,-1.136397E0,-6.892313E-2,-3.602633E-1,7.1514916E-1,3.9538464E-1,-2.5907472E-2,2.5012983E-2,1.8228892E0,-2.0131266E-1,-1.4796375E0,-9.4395125E-1,-2.2052464E-1,-3.504701E-2,-3.2727274E-1,1.0333738E0,-1.1558075E0,3.06164E0,-2.3607695E-2,-2.1538463E-1,3.0784225E-1,3.4747496E-1,-5.182174E-1,2.2435548E0,-1.1472864E0,-9.4395125E-1,1.0333738E0,1.5774231E0,-7.2596684E-2,-7.32095E-1,5.1900253E0,-1.1289062E0,-7.058629E-2,-3.1512596E-2,-7.926543E-2,2.9496694E-1,2.021997E0,3.1111112E-1,2.2222224E-1,1.7395613E0,-4.362792E-2,3.1166434E-1,3.271863E-1,-7.0395246E-2,2.900507E-1,-5.0041227E0,-4.059257E-2,-1.486468E0,-2.032392E-2,-2.0304214E-2,-7.7620655E-1,3.271863E-1,-7.32095E-1,2.0404568E0,3.915017E0,-4.2395452E-1,9.8177797E-1,7.438594E-1,1.5848252E0,8.378003E-2,-1.0499911E0,-8.0313843E-1,1.1949372E0,3.268484E0,-1.1558075E0,-1.1034964E0,3.4955723E0,-2.6771182E-2,3.271863E-1,3.5999998E-1,3.271863E-1,2.9244683E0,2.9805408E0,-5.037336E-1,1.0333738E0,3.4277277E0,-2.857143E-1,1E-1,-3.2727274E-1,1.9261936E0,-7.018019E-2,1.3303913E-1,-2.1538463E-1,3.8031754E-1,-2.4000001E-1,-1.5809702E0,-1.2349089E-2,1.8366411E-2,-3.7900123E-1,-3.7900123E-1,8.0897445E-3,-9.4395125E-1,1.3745019E-1,1.8427227E-1,3.3112225E-1,3.271863E-1,-2.7284512E-2,1.7449423E0,-7.6986425E-2,1.6828464E-2,3.271863E-1,-1.3650002E-1,-4.9525682E-2,-4.204983E-2,-1.6407588E0,-1.4327159E0,-3.7900123E-1,-7.32095E-1,-2.511061E0,-7.20697E-1,1.9378046E0,-3.7900123E-1,-8.5874844E-1,-8.945255E-1,-6.1485493E-1,3.5504874E-2,1.0333738E0,3.851852E-1,-4.9805927E-1,1.3574465E-1,3.636364E-2,4.8732215E-1,-1.1558075E0,2.5454545E-1,-2.689904E-1,-9.4395125E-1,-2.731984E-1,-4.006682E-2,-1.9146036E0,4.4343224E0,2.8724566E0,-4.050018E0,-3.5999998E-1,-8.0000006E-2,-1.0836898E0,-2.7358184E0,-1.144755E0,1.0333738E0,-1.1387217E0,1.0333738E0,1.4604062E0,1.0333738E0,-2.5907472E-2,-4.133888E-2,-5.937171E-2,3.271863E-1,1.4003485E0,2.3153348E-1,3.271863E-1,-2.5907472E-2,-2E-1,2.2222224E-1,-3.7900123E-1,1.7395613E0,1.7395613E0,-6.546543E-2,3.639008E0,2.0183163E0,2.1345665E0,2.5454545E-1,2.078831E0,2.1860037E0,3.7301588E-1,7.3376864E-2,-2.9746482E-1,-1.14365414E-1,-1.0186335E-1,2.5631067E-1,1.0642202E-1,3.057143E-1,-1.2830189E-1,1.0415913E-1,-1.9461697E-1,9.4805196E-2,-0E0,3.299838E-1,1.1891892E-1,3.87251E-1,-2.166065E-2,3.2131147E-1,-2.3896103E-1,2.169569E-3,-1.7619632E-1,3.7391305E-2,-3.2592592E-1,-6.390404E-2,1.4284226E-2,-6.492383E-2,-1.0942858E-1,9.696466E-2,-1.5775235E-1,-2.9258987E-1,-2.4189723E-1,8.746356E-2,2.14305E-1,-2.2585034E-1,8.7242804E-2,-2.5393635E-1,3.664671E-1,1.6266666E-1,-2.3334889E-1,-4.3266684E-2,-7.256318E-2,1.7786886E-1,3.229167E-1,-9.688249E-2,3.613941E-1,1.398773E-1,2.1565218E-1,3.566787E-1,4.8163265E-2,3.148148E-1,3.772512E-1,-1.7421603E-1,7.304348E-2,3.4468088E-1,3.529412E-1,-1.9383261E-2,-2.5E-1,3.519005E-1,-3.2829133E-1,-6.0170945E-2,2.5714287E-1,-6.753247E-2,1.6608188E-1,3.6900726E-1,2.0689654E-1,3.857143E-1,-2.769231E-1,2E-1,-1.910828E-1,-3.4630468E-1,-3.4285717E-2,3.724138E-1,3.4117648E-1,-2.4272211E-1,1.8075803E-1,-3.5833332E-1,3.6595747E-1,-2.9945946E-1,-1.8589744E-1,1.2032521E-1,-3.8139534E-1,-5.3333337E-3,3.7966102E-1,1.6771692E-1,-3.6923078E-1,-7.058824E-2,3.8704452E-1,2.367347E-1,-3.483871E-1,-5.333334E-2,1.4285715E-1,3.6923078E-1,-3.5555556E-1,-3.636364E-2,1.0909092E-1,3.7142858E-1,-3.936759E-1,-2.1886793E-1,-3.6521742E-1,2.060606E-1,5.6E-2,3.314286E-1,3.7881356E-1,2.8421053E-1,2.054054E-1,3.760479E-1,-4.2424243E-2,2.9597524E-1,-2.7672955E-1,1.0169492E-1,-0E0,3.390863E-1,-2.9152545E-1,2.6923078E-1,2.2264151E-1,3.8716578E-1,9.766454E-2,2.1876107E-1,2.3823205E-1,3.855856E-1,-5.30504E-3,2.062112E-1,5.591398E-2,2.7317074E-1,-0E0,2E-1,3.832168E-1,1E-1,-1.3333334E-1,-0E0,-0E0,-2.5E-1,3.0541873E-1,-1E-1,-3.636364E-2,3.3066666E-1],"split_indices":[6,28,6,20,0,18,6,13,0,28,5,26,31,25,0,0,28,20,16,15,0,30,24,0,0,0,21,18,0,25,19,2,28,15,0,0,22,31,0,28,6,25,14,16,12,1,0,0,0,32,29,0,29,28,12,23,13,19,18,15,0,0,22,21,16,20,22,18,29,7,1,20,28,0,6,18,18,0,0,0,17,28,21,0,28,0,0,0,11,32,31,0,29,0,12,18,17,0,0,23,0,18,25,20,0,19,22,12,18,0,12,27,26,15,15,0,0,13,16,20,0,13,1,14,30,0,0,3,32,0,27,0,0,14,0,13,26,15,28,18,16,0,0,4,16,1,0,6,0,18,0,0,25,12,0,2,12,0,0,0,0,0,0,0,33,21,11,6,0,5,4,0,27,0,0,0,0,0,0,0,0,0,0,0,0,0,0,0,0,0,0,0,0,0,0,0,0,0,0,0,0,0,0,0,0,0,0,0,0,0,0,0,0,0,0,0,0,0,0,0,0,0,0,0,0,0,0,0,0,0,0,0,0,0,0,0,0,0,0,0,0,0,0,0,0,0,0,0,0,0,0,0,0,0,0,0,0,0,0,0,0,0,0,0,0,0,0,0,0,0,0,0,0,0,0,0,0,0,0,0,0,0,0,0,0,0,0,0,0,0,0,0,0,0,0,0,0,0,0,0,0,0,0,0,0,0,0],"split_type":[0,0,0,0,0,0,0,0,0,0,0,0,0,0,0,0,0,0,0,0,0,0,0,0,0,0,0,0,0,0,0,0,0,0,0,0,0,0,0,0,0,0,0,0,0,0,0,0,0,0,0,0,0,0,0,0,0,0,0,0,0,0,0,0,0,0,0,0,0,0,0,0,0,0,0,0,0,0,0,0,0,0,0,0,0,0,0,0,0,0,0,0,0,0,0,0,0,0,0,0,0,0,0,0,0,0,0,0,0,0,0,0,0,0,0,0,0,0,0,0,0,0,0,0,0,0,0,0,0,0,0,0,0,0,0,0,0,0,0,0,0,0,0,0,0,0,0,0,0,0,0,0,0,0,0,0,0,0,0,0,0,0,0,0,0,0,0,0,0,0,0,0,0,0,0,0,0,0,0,0,0,0,0,0,0,0,0,0,0,0,0,0,0,0,0,0,0,0,0,0,0,0,0,0,0,0,0,0,0,0,0,0,0,0,0,0,0,0,0,0,0,0,0,0,0,0,0,0,0,0,0,0,0,0,0,0,0,0,0,0,0,0,0,0,0,0,0,0,0,0,0,0,0,0,0,0,0,0,0,0,0,0,0,0,0,0,0,0,0,0,0,0,0,0,0,0,0,0,0,0,0,0,0,0,0,0,0,0,0,0,0,0,0,0,0,0,0,0,0,0,0,0,0,0,0,0,0],"sum_hessian":[2.9575E4,2.7496E4,2.079E3,2.321975E4,4.27625E3,8.0825E2,1.27075E3,1.674725E4,6.4725E3,2.819E3,1.45725E3,1.55E1,7.9275E2,2.3175E2,1.039E3,1.81275E3,1.49345E4,5.00125E3,1.47125E3,8.895E2,1.9295E3,1.725E2,1.28475E3,4.5E0,1.1E1,8E0,7.8475E2,2.295E2,2.25E0,1.0405E3,7.7225E2,7.59875E3,7.33575E3,3.5175E3,1.48375E3,8.9025E2,5.81E2,5.4E1,8.355E2,1.20325E3,7.2625E2,5.025E1,1.2225E2,9.345E2,3.5025E2,5.25E0,5.75E0,1.25E0,6.75E0,7.4475E2,4E1,5.5E0,2.24E2,5.25E2,5.155E2,4.655E2,3.0675E2,2.84725E3,4.7515E3,5.64375E3,1.692E3,9.065E2,2.611E3,8.695E2,6.1425E2,4.3775E2,4.525E2,4.0575E2,1.7525E2,4.9E1,5E0,4.9475E2,3.4075E2,5.3325E2,6.7E2,2.55E1,7.0075E2,3.125E1,1.9E1,3E1,9.225E1,6.99E2,2.355E2,1.67E2,1.8325E2,4.25E0,1E0,4.5E0,2.25E0,5.09E2,2.3575E2,2.25E0,3.775E1,1.5E0,4E0,5.525E1,1.6875E2,3.5475E2,1.7025E2,9.525E1,4.2025E2,2.7275E2,1.9275E2,1.3275E2,1.74E2,9.8925E2,1.858E3,1.023E3,3.7285E3,1.29925E3,4.3445E3,8.4275E2,8.4925E2,6.3325E2,2.7325E2,1.571E3,1.04E3,6.1525E2,2.5425E2,2.6325E2,3.51E2,1.9425E2,2.435E2,8.875E1,3.6375E2,3.7975E2,2.6E1,3.125E1,1.44E2,1.75E0,4.725E1,3.25E0,1.75E0,4.4725E2,4.75E1,1.4725E2,1.935E2,1.9475E2,3.385E2,3.825E1,6.3175E2,2.4E1,1.5E0,1.525E1,6.855E2,1.325E1,1.8E1,9.75E0,2.025E1,7.45E1,1.775E1,1.53E2,5.46E2,9.075E1,1.4475E2,9.225E1,7.475E1,3.875E1,1.445E2,1E0,1.25E0,2.57E2,2.52E2,1.325E2,1.0325E2,2E0,3.575E1,2.25E0,1.75E0,4.5E0,5.075E1,1.25E2,4.375E1,1.765E2,1.7825E2,1.1975E2,5.05E1,2.625E1,6.9E1,1.4475E2,2.755E2,1.1975E2,1.53E2,3.95E1,1.5325E2,8.25E0,1.245E2,6.825E1,1.0575E2,1.145E2,8.7475E2,1.629E3,2.29E2,1.07E2,9.16E2,2.40025E3,1.32825E3,6.99E2,6.0025E2,2.64175E3,1.70275E3,7.58E2,8.475E1,7.4E2,1.0925E2,4.85E2,1.4825E2,1.2425E2,1.49E2,5.3425E2,1.03675E3,5.53E2,4.87E2,9.5E1,5.2025E2,9.225E1,1.62E2,5.65E1,2.0675E2,2.44E2,1.07E2,5.175E1,1.425E2,5.65E1,1.87E2,3.3E1,5.575E1,3E0,3.6075E2,8.825E1,2.915E2,1.3E1,1.825E1,4.175E1,1.0225E2,6.25E0,4.1E1,2.25E0,1E0,1.1675E2,3.305E2,3.4E1,1.35E1,1.6E1,1.3125E2,1.705E2,2.3E1,1.075E1,1.84E2,1.55E2,1.835E2,2.05E1,1.775E1,1.17E2,5.1475E2,1.2E1,3.25E0,1.8425E2,5.0125E2,6.75E0,6.5E0,6E0,1.2E1,8E0,1.75E0,7.25E0,1.3E1,6.225E1,1.225E1,1.05E1,7.25E0,4.9E1,1.04E2,4.71E2,7.5E1,8.25E0,8.25E1,6.5E1,7.975E1,7.85E1,1.375E1,2.65E1,4.825E1,1.375E1,2.5E1,5.2E1,9.25E1,1.1675E2,1.4025E2,2.2525E2,2.675E1,9.325E1,3.925E1,2.225E1,8.1E1,1E0,1E0,3.475E1,1E0,1.25E0,1E0,1.5E0,3E0,4.975E1,1E0,7.25E0,3.65E1],"tree_param":{"num_deleted":"0","num_feature":"34","num_nodes":"307","size_leaf_vector":"0"}},{"base_weights":[1.0370333E-2,-8.825769E-2,1.1922088E0,-1.8845117E-1,3.882361E-1,7.2411394E-1,1.5840307E0,-3.414284E-1,2.3047598E-1,1.0645363E-1,8.4164065E-1,6.6402966E-1,1.280062E0,1.2863948E0,1.6497576E0,-7.635726E-1,-2.4860229E-1,5.97739E-2,5.9128916E-1,-6.824115E-1,4.8592305E-1,-3.7729838E-1,9.9187994E-1,1.996014E-1,7.458029E-1,6.816513E-1,1.6386576E0,1.3126347E0,-1.8716815E-1,3.3110195E-1,1.1516776E0,-1.1484449E0,-3.084147E-1,2.0220391E-1,-3.106673E-1,-1.479863E-1,4.8785663E-1,1.3686379E0,2.9947048E-1,4.5396632E-1,-9.303506E-1,1.870992E-1,9.6424997E-1,6.3328373E-1,-9.718551E-1,1.1806762E0,3.8662598E-1,-1.7693344E-1,5.8910346E-1,6.651313E-1,1.2547796E0,7.52497E-2,3.3764E-1,1.7273804E0,4.677128E-1,-1.4249176E-1,1.3495356E0,-2.372444E-1,3.0898654E-1,-1.4175355E0,-3.0958623E-1,-1.0268787E0,7.681383E-1,-8.096443E-2,8.893396E-1,-3.6907E-1,1.7739692E-1,4.1234738E-1,-4.4307566E-1,1.5987082E-1,1.0522485E0,8.6910653E-1,1.6309907E0,7.2023775E-3,1.0951021E0,1.548338E-1,1.6021745E0,5.3738695E-1,-1.0577437E0,-4.174326E-1,8.082937E-1,-7.689109E-1,1.0938163E0,-3.2167134E-1,1.0909207E0,-1.3656781E0,4.676618E-1,7.763222E-1,1.4186203E0,-2.7574787E-1,1.1359068E0,-1.4915113E0,4.1731352E-1,1.3921686E0,-8.8735056E-1,5.4508096E-1,1.0392227E0,-8.818169E-1,1.3884537E0,-8.35088E-1,7.4199027E-1,1.0300707E0,3.5714298E-1,8.9750636E-1,-6.567898E-2,-2.1316162E-1,3.470017E-1,8.363131E-1,1.4048777E0,-1.6211883E0,-1.0687137E0,2.6277998E-1,-1.1881901E0,-1.6032727E0,-6.899985E-1,-1.776476E0,9.961126E-1,-5.8774686E-1,1.7622565E-1,-1.5990337E0,1.0425168E0,-1.3875712E-1,-5.964567E-1,-2.9418233E-1,8.896697E-1,-1.4304258E-1,1.1191516E0,-7.177615E-1,3.470398E-2,-2.2103313E-2,1.5243243E0,6.8104666E-1,1.6163284E0,-2.1075848E-1,1.6930015E0,3.488302E-1,1.6630704E0,-2.7987024E-1,1.0115448E0,-1.261754E-1,1.3217809E0,9.711968E-1,-5.497655E-1,-2.7204752E-1,3.890024E-1,-2.7458975E-1,1.6350337E0,-1.4983816E0,-5.5321187E-1,7.560162E-1,-6.215233E-1,5.522367E-1,1.5644528E0,-1.29701E0,3.0403677E-1,1.36727E0,3.801543E-1,-1.4478136E0,1.2832937E0,-8.251959E-2,1.6754843E0,-1.5317653E0,-5.5621123E-1,-1.256023E0,1.3045088E0,-4.3577877E-1,1.1760404E0,1.564472E0,8.231049E-1,-1.0470995E0,6.061276E-1,4.5416898E-1,1.4706775E0,-3.89935E-1,-6.679093E-1,-5.502911E-2,1.2870611E0,1.706191E0,-6.0850406E-1,-3.406753E-1,-1.5344143E-1,6.644018E-1,-2.6764947E-1,3.8638756E-1,1.2434143E0,-3.4947816E-1,2.2205177E-1,1.7847335E0,8.52348E-1,2.850722E-1,-1.435989E0,2.9943025E-1,-2.3255084E-1,3.1191155E-1,-1.4436726E-1,4.916982E-2,2.2137442E-1,-4.1103277E-1,2.246131E-1,-1.8847764E-1,1.4822378E0,1.5137715E0,1.1867541E0,-3.3110774E-1,2.2696463E-2,-2.928816E-1,-3.3933736E-2,-2.4595475E-2,3.186203E-1,-2.832783E-1,-3.2315415E-3,-1.0508604E-1,-3.4100685E-1,-1.8175146E-1,1.6899821E-1,-3.7697124E-1,-5.667443E-2,2.7616343E-1,-1.9614218E-1,-1.9232371E-1,-5.3811115E-3,-1.7040757E-2,1.3803104E-1,-3.5712492E-1,-6.315789E-2,2.2635198E-1,-2.7582625E-1,-2.2175655E-2,-2.7305013E-1,6.249981E-2,-1.3263749E-1,-1.289211E-1,2.176867E-2,-2.3330329E-2,2.4205557E-1,7.122804E-2,-2.4138808E-1,1.1878927E-1,3.0647382E-1,-1.8376593E-1,4.1227117E-2,-1.6219428E-1,1.071646E-1,1.4851947E-1,-8.687079E-2,-4.9924348E-2,3.3139703E-1,3.0272001E-2,2.931101E-1,-3.7857857E-2,3.3404884E-1,3.1983033E-1,-1.7777313E-1,1.6973037E-1,3.5484633E-1,-1.5909402E-1,2.984321E-1,3.4043175E-1,1.3858211E-1,-1.7828576E-1,5.1689774E-2,-2.4841876E-1,2.4776398E-1,-2.740744E-1,2.3795347E-1,2.8327796E-1,5.0701212E-2,1.2605346E-2,3.369171E-1,-2.5631163E-1,4.68133E-2,-3.4361932E-1,1.8747935E-1,-1.8102173E-2,3.7924835E-1,8.299979E-2,-3.0837172E-1,-2.3870079E-1,6.7282945E-2,-3.552993E-2,3.514162E-1,-2.2976148E-1,-3.0746013E-2,-1.048903E-1,1.5625608E-1,2.2399364E-1,3.4874997E-1,6.1876785E-2,-3.2963076E-1,3.057929E-1,1.5959634E-1,2.680428E-1,-1.8097119E-1,-3.508511E-1,-4.724754E-2,9.259502E-3,3.0320263E-1,3.0471987E-1,-2.2193368E-1,1.9952948E-1,3.5518295E-1,-1.4474459E-1,-3.2985836E-1,-3.0844313E-1,1.7156065E-1,-2.9645362E-1,-3.1742733E-2,1.1084344E-1,3.2680672E-1,-3.2034838E-1,4.312088E-3,2.426071E-1,-2.0094974E-1,3.261286E-1,2.1586637E-1,2.893254E-1,-7.470698E-2,-2.5502917E-1,6.308689E-2,-6.362412E-2,2.3904052E-1,-3.408829E-1,1.9410782E-1,2.501911E-2,3.0889308E-1,-3.5350612E-1,6.322918E-2,-3.3645332E-1,5.0501805E-2,3.1535345E-1,4.254049E-2,6.404386E-2,3.541057E-1,-3.3779612E-1,2.3517983E-1,-2.5982544E-1,1.870513E-1,7.336554E-2,1.8022011E-1,-2.8595147E-1,3.5194553E-2,3.7831024E-3,3.3819768E-1,2.8411207E-1,-6.2724166E-3,3.8821477E-2,3.6317685E-1,3.4486374E-1,2.4511231E-2,-2.5207052E-1,2.775938E-1,-3.2804132E-1,-4.4820663E-2,-3.2861817E-1,2.8270632E-1,-1.1883297E-1,-0E0,-1.6781627E-1,2.0812428E-1,1.4465272E-1,3.1839594E-1,2.305243E-1,3.2055053E-1,1.6104909E-2,2.5664306E-1],"categories":[],"categories_nodes":[],"categories_segments":[],"categories_sizes":[],"default_left":[0,0,0,0,0,0,0,0,0,0,0,0,0,0,0,0,0,0,0,0,0,0,0,0,0,0,0,0,0,0,0,0,0,0,0,0,0,0,0,0,0,0,0,0,0,0,0,0,0,0,0,0,0,0,0,0,0,0,0,0,0,0,0,0,0,0,0,0,0,0,0,0,0,0,0,0,0,0,0,0,0,0,0,0,0,0,0,0,0,0,0,0,0,0,0,0,0,0,0,0,0,0,0,0,0,0,0,0,0,0,0,0,0,0,0,0,0,0,0,0,0,0,0,0,0,0,0,0,0,0,0,0,0,0,0,0,0,0,0,0,0,0,0,0,0,0,0,0,0,0,0,0,0,0,0,0,0,0,0,0,0,0,0,0,0,0,0,0,0,0,0,0,0,0,0,0,0,0,0,0,0,0,0,0,0,0,0,0,0,0,0,0,0,0,0,0,0,0,0,0,0,0,0,0,0,0,0,0,0,0,0,0,0,0,0,0,0,0,0,0,0,0,0,0,0,0,0,0,0,0,0,0,0,0,0,0,0,0,0,0,0,0,0,0,0,0,0,0,0,0,0,0,0,0,0,0,0,0,0,0,0,0,0,0,0,0,0,0,0,0,0,0,0,0,0,0,0,0,0,0,0,0,0,0,0,0,0,0,0,0,0,0,0,0,0,0,0,0,0,0,0,0,0,0,0,0,0,0,0,0,0,0,0,0,0,0,0,0,0,0,0,0,0,0,0,0,0,0,0,0,0,0,0,0,0,0,0,0,0,0,0,0,0,0,0,0,0,0,0,0,0,0,0,0,0,0,0,0,0,0,0,0,0,0,0],"id":1,"left_children":[1,3,5,7,9,11,13,15,17,19,21,23,25,27,29,31,33,35,37,39,41,43,45,47,49,51,53,55,-1,-1,57,59,61,63,65,67,69,71,73,75,77,79,81,83,85,87,89,91,93,95,97,99,-1,101,103,105,107,-1,-1,109,111,113,115,117,119,121,123,125,127,129,131,133,135,137,139,141,143,145,147,149,151,153,155,157,159,161,163,165,167,169,171,173,175,177,179,181,183,185,187,189,191,193,-1,195,-1,-1,197,199,201,203,205,207,209,211,213,215,217,219,221,223,225,227,229,231,233,235,237,239,241,243,245,247,249,251,253,255,257,259,261,263,265,267,269,-1,-1,271,273,275,277,279,281,283,285,287,-1,289,291,293,295,297,299,301,303,305,307,309,311,313,315,317,319,321,323,-1,325,327,329,331,333,-1,335,337,339,341,343,-1,-1,345,347,349,351,-1,353,-1,-1,-1,-1,355,-1,357,359,361,363,-1,-1,-1,-1,-1,-1,-1,-1,-1,-1,-1,-1,-1,-1,-1,-1,-1,-1,-1,-1,-1,-1,-1,-1,-1,-1,-1,-1,-1,-1,-1,-1,-1,-1,-1,-1,-1,-1,-1,-1,-1,-1,-1,-1,-1,-1,-1,-1,-1,-1,-1,-1,-1,-1,-1,-1,-1,-1,-1,-1,-1,-1,-1,-1,-1,-1,-1,-1,-1,-1,-1,-1,-1,-1,-1,-1,-1,-1,-1,-1,-1,-1,-1,-1,-1,-1,-1,-1,-1,-1,-1,-1,-1,-1,-1,-1,-1,-1,-1,-1,-1,-1,-1,-1,-1,-1,-1,-1,-1,-1,-1,-1,-1,-1,-1,-1,-1,-1,-1,-1,-1,-1,-1,-1,-1,-1,-1,-1,-1,-1,-1,-1,-1,-1,-1,-1,-1,-1,-1,-1,-1,-1,-1,-1,-1,-1,-1,-1,-1,-1,-1,-1,-1,-1,-1,-1,-1,-1,-1,-1,-1,-1],"loss_changes":[3.4097507E3,1.2890714E3,4.121084E2,1.4297986E3,5.9926636E2,3.350592E1,2.1855225E1,6.401969E2,3.6754617E2,8.6674347E2,3.2962878E2,3.5180725E1,2.0177948E1,1.4421143E1,9.597168E-1,5.155951E2,3.7492773E2,3.604918E2,4.3435962E2,2.6540305E2,2.7923492E2,1.19587906E2,1.8247717E2,2.073043E1,3.1628693E1,2.3614521E1,5.5646667E0,1.2221252E1,0E0,0E0,1.5354366E1,3.597107E2,1.0455817E3,3.1566403E2,3.357599E2,4.5143414E2,2.4498807E2,6.710187E1,3.2432608E2,5.783768E1,1.4498352E2,4.5263477E2,1.6957874E2,3.2668335E1,7.1536125E1,1.1625745E2,1.8996167E2,5.7085327E1,8.347459E1,3.0178406E1,3.179602E1,1.5987771E1,0E0,4.6488953E-1,2.242214E0,3.282712E0,5.033264E0,0E0,0E0,8.406152E1,1.9582396E2,1.562851E2,3.1574323E2,1.4993253E2,1.8211911E2,5.5078076E2,4.2325876E2,3.6992603E2,2.3469904E2,2.082998E2,1.00782776E2,1.6243939E2,1.3472717E1,2.946738E2,1.0389798E2,7.834284E1,3.8035698E1,5.601608E1,1.5723999E2,1.4681143E2,1.1421655E2,6.586496E1,1.3600238E2,4.65546E1,3.458636E1,1.2383759E1,4.1463272E1,2.2051517E2,6.530481E1,1.3914967E2,4.0297165E1,7.2710953E0,2.0841228E1,2.950698E1,1.4738358E1,5.0641495E1,2.1543457E1,1.3862075E1,1.9962921E1,7.9312897E0,1.1493858E1,7.3744283E0,0E0,2.6871657E-1,0E0,0E0,3.383276E0,1.5998053E1,2.85495E0,4.5509033E1,1.5916922E2,1.2142848E2,4.104399E1,3.1815613E1,1.7313838E2,6.725586E0,3.7960257E2,8.116695E1,1.0261447E2,6.1039734E0,9.8073364E1,1.7857709E2,3.212345E2,1.0718294E2,1.6206842E2,2.8103247E2,8.906616E1,2.1111371E2,2.774664E2,2.3394263E2,2.3645096E1,1.2244185E2,1.9045502E1,9.927605E1,5.5893555E0,1.3753385E1,1.1450439E1,2.6191153E2,1.1790497E2,9.916797E1,3.159137E1,4.0727535E1,4.231285E1,0E0,0E0,6.580496E1,1.2185135E1,3.2164124E1,1.9011847E2,8.534996E1,1.2835109E2,1.1028735E2,9.986023E0,2.5039085E1,0E0,4.530078E1,2.4200381E2,5.155651E0,3.017847E0,3.0811321E1,5.133972E-1,6.5098724E0,2.688057E1,2.1313562E0,3.810772E0,6.047126E1,2.8790253E1,1.797461E1,1.146565E2,3.4266838E1,5.2451927E1,6.9156204E1,1.1714691E1,0E0,1.0992634E1,1.7301388E1,5.215685E0,2.9489517E0,1.5259648E1,0E0,1.9033325E1,3.1650192E1,3.4963196E1,1.9534695E1,2.836293E1,0E0,0E0,2.483307E0,2.8357712E1,9.821666E0,1.4734678E0,0E0,1.9684532E1,0E0,0E0,0E0,0E0,2.4422121E-1,0E0,8.924064E0,7.117462E-2,2.233551E0,7.3490524E0,0E0,0E0,0E0,0E0,0E0,0E0,0E0,0E0,0E0,0E0,0E0,0E0,0E0,0E0,0E0,0E0,0E0,0E0,0E0,0E0,0E0,0E0,0E0,0E0,0E0,0E0,0E0,0E0,0E0,0E0,0E0,0E0,0E0,0E0,0E0,0E0,0E0,0E0,0E0,0E0,0E0,0E0,0E0,0E0,0E0,0E0,0E0,0E0,0E0,0E0,0E0,0E0,0E0,0E0,0E0,0E0,0E0,0E0,0E0,0E0,0E0,0E0,0E0,0E0,0E0,0E0,0E0,0E0,0E0,0E0,0E0,0E0,0E0,0E0,0E0,0E0,0E0,0E0,0E0,0E0,0E0,0E0,0E0,0E0,0E0,0E0,0E0,0E0,0E0,0E0,0E0,0E0,0E0,0E0,0E0,0E0,0E0,0E0,0E0,0E0,0E0,0E0,0E0,0E0,0E0,0E0,0E0,0E0,0E0,0E0,0E0,0E0,0E0,0E0,0E0,0E0,0E0,0E0,0E0,0E0,0E0,0E0,0E0,0E0,0E0,0E0,0E0,0E0,0E0,0E0,0E0,0E0,0E0,0E0,0E0,0E0,0E0,0E0,0E0,0E0,0E0,0E0,0E0,0E0,0E0,0E0,0E0,0E0,0E0,0E0,0E0,0E0,0E0,0E0,0E0,0E0,0E0,0E0,0E0,0E0,0E0,0E0],"parents":[2147483647,0,0,1,1,2,2,3,3,4,4,5,5,6,6,7,7,8,8,9,9,10,10,11,11,12,12,13,13,14,14,15,15,16,16,17,17,18,18,19,19,20,20,21,21,22,22,23,23,24,24,25,25,26,26,27,27,30,30,31,31,32,32,33,33,34,34,35,35,36,36,37,37,38,38,39,39,40,40,41,41,42,42,43,43,44,44,45,45,46,46,47,47,48,48,49,49,50,50,51,51,53,53,54,54,55,55,56,56,59,59,60,60,61,61,62,62,63,63,64,64,65,65,66,66,67,67,68,68,69,69,70,70,71,71,72,72,73,73,74,74,75,75,76,76,77,77,78,78,79,79,80,80,81,81,82,82,83,83,84,84,85,85,86,86,87,87,88,88,89,89,90,90,91,91,92,92,93,93,94,94,95,95,96,96,97,97,98,98,99,99,100,100,101,101,103,103,106,106,107,107,108,108,109,109,110,110,111,111,112,112,113,113,114,114,115,115,116,116,117,117,118,118,119,119,120,120,121,121,122,122,123,123,124,124,125,125,126,126,127,127,128,128,129,129,130,130,131,131,132,132,133,133,134,134,135,135,136,136,137,137,138,138,139,139,140,140,141,141,142,142,145,145,146,146,147,147,148,148,149,149,150,150,151,151,152,152,153,153,155,155,156,156,157,157,158,158,159,159,160,160,161,161,162,162,163,163,164,164,165,165,166,166,167,167,168,168,169,169,170,170,171,171,172,172,174,174,175,175,176,176,177,177,178,178,180,180,181,181,182,182,183,183,184,184,187,187,188,188,189,189,190,190,192,192,197,197,199,199,200,200,201,201,202,202],"right_children":[2,4,6,8,10,12,14,16,18,20,22,24,26,28,30,32,34,36,38,40,42,44,46,48,50,52,54,56,-1,-1,58,60,62,64,66,68,70,72,74,76,78,80,82,84,86,88,90,92,94,96,98,100,-1,102,104,106,108,-1,-1,110,112,114,116,118,120,122,124,126,128,130,132,134,136,138,140,142,144,146,148,150,152,154,156,158,160,162,164,166,168,170,172,174,176,178,180,182,184,186,188,190,192,194,-1,196,-1,-1,198,200,202,204,206,208,210,212,214,216,218,220,222,224,226,228,230,232,234,236,238,240,242,244,246,248,250,252,254,256,258,260,262,264,266,268,270,-1,-1,272,274,276,278,280,282,284,286,288,-1,290,292,294,296,298,300,302,304,306,308,310,312,314,316,318,320,322,324,-1,326,328,330,332,334,-1,336,338,340,342,344,-1,-1,346,348,350,352,-1,354,-1,-1,-1,-1,356,-1,358,360,362,364,-1,-1,-1,-1,-1,-1,-1,-1,-1,-1,-1,-1,-1,-1,-1,-1,-1,-1,-1,-1,-1,-1,-1,-1,-1,-1,-1,-1,-1,-1,-1,-1,-1,-1,-1,-1,-1,-1,-1,-1,-1,-1,-1,-1,-1,-1,-1,-1,-1,-1,-1,-1,-1,-1,-1,-1,-1,-1,-1,-1,-1,-1,-1,-1,-1,-1,-1,-1,-1,-1,-1,-1,-1,-1,-1,-1,-1,-1,-1,-1,-1,-1,-1,-1,-1,-1,-1,-1,-1,-1,-1,-1,-1,-1,-1,-1,-1,-1,-1,-1,-1,-1,-1,-1,-1,-1,-1,-1,-1,-1,-1,-1,-1,-1,-1,-1,-1,-1,-1,-1,-1,-1,-1,-1,-1,-1,-1,-1,-1,-1,-1,-1,-1,-1,-1,-1,-1,-1,-1,-1,-1,-1,-1,-1,-1,-1,-1,-1,-1,-1,-1,-1,-1,-1,-1,-1,-1,-1,-1,-1,-1,-1],"split_conditions":[1.7074053E0,2.6633677E0,2.0850077E0,6.064559E-1,-3.7900123E-1,1.6534178E0,2.1924605E0,-7.040159E-2,-2.5907472E-2,3.7517595E0,-1.136397E0,-1.0657469E-2,-9.0624124E-2,7.1514916E-1,7.1514916E-1,2.104213E0,-1.3210174E0,2.2658849E0,-6.1125565E-1,-1.4064272E-1,-9.4395125E-1,-2.046023E-1,-3.504701E-2,1.0333738E0,1.7395613E0,-7.32095E-1,-3.597174E-2,-2.3607695E-2,-1.8716815E-1,3.3110195E-1,2.233744E0,-6.895813E-2,1.0333738E0,3.271863E-1,1.5458512E0,-1.4327159E0,-9.4395125E-1,6.878359E-1,1.2851894E0,-7.32095E-1,-8.833286E-1,5.3753953E0,-1.1187141E0,-1.1461756E0,1.6203575E0,-2.5907472E-2,2.9496694E-1,-7.099792E-2,-6.8493515E-2,1.4900132E-1,-1.060851E-1,2.46415E0,3.3764E-1,-1.1427163E0,1.775892E0,3.271863E-1,-2.480997E-2,-2.372444E-1,3.0898654E-1,1.8849947E0,-1.21525936E-1,-2.5907472E-2,-1.6185081E-1,2.0445739E-1,-1.1383258E0,1.6828464E-2,-2.5907472E-2,-9.4395125E-1,-3.7900123E-1,5.4755287E0,3.0607483E0,3.271863E-1,6.0826793E-2,1.020277E0,-1.0172924E0,-4.589977E-2,8.219719E-3,-9.4395125E-1,-7.32095E-1,-1.5825164E-1,2.5516805E-1,2.181986E-1,-3.471345E-2,1.0333738E0,-2.5907472E-2,2.9244683E0,3.271863E-1,2.9384968E0,-3.9237075E-2,1.0333738E0,3.6086295E0,1.9386833E0,-1.5734842E-2,-6.6833064E-2,1.7395613E0,-2.5544148E-2,-6.360707E-2,-3.3148202E-1,-4.673469E-2,1.9507627E0,-8.3645195E-2,-3.465076E-1,3.5714298E-1,3.271863E-1,-6.567898E-2,-2.1316162E-1,-1.5809702E0,1.6551625E0,-4.501945E-2,1.4811283E0,1.7395613E0,1.0333738E0,8.3876975E-2,-1.2775287E-1,-6.3577235E-2,2.1172588E0,2.0298831E-1,4.9908683E-1,-3.7900123E-1,-1.1394781E0,-3.2134238E-1,1.5359972E-2,-1.4796375E0,2.3282285E0,8.048941E-2,-2.0743003E0,6.28872E-1,3.3466537E-3,8.128294E-1,-1.8784705E-1,1.0290881E0,3.9953744E-1,-8.4577525E-1,-1.1482326E0,4.8242927E-2,3.271863E-1,-6.238551E-1,1.0333738E0,-4.7243675E-3,1.0333738E0,-7.091171E-2,3.0226202E0,-9.4395125E-1,-2.7204752E-1,3.890024E-1,-8.987923E-1,2.59465E-1,-5.2343225E-1,3.3207943E0,-1.1558075E0,4.537714E0,-1.0826219E0,5.789204E0,-3.2653954E-2,3.0403677E-1,-9.440937E-2,-2.566113E0,2.4973469E0,-1.1509297E0,-1.372666E0,-1.1536636E0,-3.1103611E-2,1.0333738E0,-1.1387217E0,-1.1421678E0,1.8780051E-1,-2.809654E-2,-4.4340115E-2,-4.4448152E-1,1.369423E0,2.9805408E0,-2.5907472E-2,-1.1173651E0,-3.89935E-1,3.271863E-1,-7.32095E-1,2.51016E-1,1.7120101E0,1.1416063E-1,-3.406753E-1,-2.6449258E-2,-3.7900123E-1,7.73212E-3,3.271863E-1,8.396922E-2,-3.4947816E-1,2.2205177E-1,-2.3938904E-2,-5.4899216E-1,-9.4395125E-1,-2.1239637E-1,2.9943025E-1,-1.1558075E0,3.1191155E-1,-1.4436726E-1,4.916982E-2,2.2137442E-1,2.1345665E0,2.246131E-1,-1.7710738E-1,2.0738797E0,-4.37483E-3,-4.5261737E-2,-3.3110774E-1,2.2696463E-2,-2.928816E-1,-3.3933736E-2,-2.4595475E-2,3.186203E-1,-2.832783E-1,-3.2315415E-3,-1.0508604E-1,-3.4100685E-1,-1.8175146E-1,1.6899821E-1,-3.7697124E-1,-5.667443E-2,2.7616343E-1,-1.9614218E-1,-1.9232371E-1,-5.3811115E-3,-1.7040757E-2,1.3803104E-1,-3.5712492E-1,-6.315789E-2,2.2635198E-1,-2.7582625E-1,-2.2175655E-2,-2.7305013E-1,6.249981E-2,-1.3263749E-1,-1.289211E-1,2.176867E-2,-2.3330329E-2,2.4205557E-1,7.122804E-2,-2.4138808E-1,1.1878927E-1,3.0647382E-1,-1.8376593E-1,4.1227117E-2,-1.6219428E-1,1.071646E-1,1.4851947E-1,-8.687079E-2,-4.9924348E-2,3.3139703E-1,3.0272001E-2,2.931101E-1,-3.7857857E-2,3.3404884E-1,3.1983033E-1,-1.7777313E-1,1.6973037E-1,3.5484633E-1,-1.5909402E-1,2.984321E-1,3.4043175E-1,1.3858211E-1,-1.7828576E-1,5.1689774E-2,-2.4841876E-1,2.4776398E-1,-2.740744E-1,2.3795347E-1,2.8327796E-1,5.0701212E-2,1.2605346E-2,3.369171E-1,-2.5631163E-1,4.68133E-2,-3.4361932E-1,1.8747935E-1,-1.8102173E-2,3.7924835E-1,8.299979E-2,-3.0837172E-1,-2.3870079E-1,6.7282945E-2,-3.552993E-2,3.514162E-1,-2.2976148E-1,-3.0746013E-2,-1.048903E-1,1.5625608E-1,2.2399364E-1,3.4874997E-1,6.1876785E-2,-3.2963076E-1,3.057929E-1,1.5959634E-1,2.680428E-1,-1.8097119E-1,-3.508511E-1,-4.724754E-2,9.259502E-3,3.0320263E-1,3.0471987E-1,-2.2193368E-1,1.9952948E-1,3.5518295E-1,-1.4474459E-1,-3.2985836E-1,-3.0844313E-1,1.7156065E-1,-2.9645362E-1,-3.1742733E-2,1.1084344E-1,3.2680672E-1,-3.2034838E-1,4.312088E-3,2.426071E-1,-2.0094974E-1,3.261286E-1,2.1586637E-1,2.893254E-1,-7.470698E-2,-2.5502917E-1,6.308689E-2,-6.362412E-2,2.3904052E-1,-3.408829E-1,1.9410782E-1,2.501911E-2,3.0889308E-1,-3.5350612E-1,6.322918E-2,-3.3645332E-1,5.0501805E-2,3.1535345E-1,4.254049E-2,6.404386E-2,3.541057E-1,-3.3779612E-1,2.3517983E-1,-2.5982544E-1,1.870513E-1,7.336554E-2,1.8022011E-1,-2.8595147E-1,3.5194553E-2,3.7831024E-3,3.3819768E-1,2.8411207E-1,-6.2724166E-3,3.8821477E-2,3.6317685E-1,3.4486374E-1,2.4511231E-2,-2.5207052E-1,2.775938E-1,-3.2804132E-1,-4.4820663E-2,-3.2861817E-1,2.8270632E-1,-1.1883297E-1,-0E0,-1.6781627E-1,2.0812428E-1,1.4465272E-1,3.1839594E-1,2.305243E-1,3.2055053E-1,1.6104909E-2,2.5664306E-1],"split_indices":[3,28,6,19,0,18,6,27,0,28,5,22,25,25,25,28,12,21,12,32,0,30,24,0,0,0,13,18,0,0,1,29,0,0,22,15,0,19,20,0,15,28,6,6,18,0,12,26,29,31,25,17,0,16,9,0,19,0,0,28,13,0,21,25,4,18,0,0,0,22,22,0,29,28,5,15,20,0,0,32,19,33,25,0,0,17,0,28,33,0,28,8,20,23,0,33,33,12,24,18,23,13,0,0,0,0,12,17,24,1,0,0,30,23,30,18,15,20,0,5,14,32,15,22,30,15,27,24,19,23,19,28,5,13,29,0,12,0,20,0,23,28,0,0,0,2,18,12,28,0,28,5,28,13,0,16,16,18,4,16,10,13,0,6,1,18,16,25,21,1,28,0,5,0,0,0,12,7,12,0,17,0,33,0,24,0,0,18,14,0,12,0,0,0,0,0,0,6,0,16,10,21,25,0,0,0,0,0,0,0,0,0,0,0,0,0,0,0,0,0,0,0,0,0,0,0,0,0,0,0,0,0,0,0,0,0,0,0,0,0,0,0,0,0,0,0,0,0,0,0,0,0,0,0,0,0,0,0,0,0,0,0,0,0,0,0,0,0,0,0,0,0,0,0,0,0,0,0,0,0,0,0,0,0,0,0,0,0,0,0,0,0,0,0,0,0,0,0,0,0,0,0,0,0,0,0,0,0,0,0,0,0,0,0,0,0,0,0,0,0,0,0,0,0,0,0,0,0,0,0,0,0,0,0,0,0,0,0,0,0,0,0,0,0,0,0,0,0,0,0,0,0,0,0,0,0,0,0,0,0,0,0,0,0,0],"split_type":[0,0,0,0,0,0,0,0,0,0,0,0,0,0,0,0,0,0,0,0,0,0,0,0,0,0,0,0,0,0,0,0,0,0,0,0,0,0,0,0,0,0,0,0,0,0,0,0,0,0,0,0,0,0,0,0,0,0,0,0,0,0,0,0,0,0,0,0,0,0,0,0,0,0,0,0,0,0,0,0,0,0,0,0,0,0,0,0,0,0,0,0,0,0,0,0,0,0,0,0,0,0,0,0,0,0,0,0,0,0,0,0,0,0,0,0,0,0,0,0,0,0,0,0,0,0,0,0,0,0,0,0,0,0,0,0,0,0,0,0,0,0,0,0,0,0,0,0,0,0,0,0,0,0,0,0,0,0,0,0,0,0,0,0,0,0,0,0,0,0,0,0,0,0,0,0,0,0,0,0,0,0,0,0,0,0,0,0,0,0,0,0,0,0,0,0,0,0,0,0,0,0,0,0,0,0,0,0,0,0,0,0,0,0,0,0,0,0,0,0,0,0,0,0,0,0,0,0,0,0,0,0,0,0,0,0,0,0,0,0,0,0,0,0,0,0,0,0,0,0,0,0,0,0,0,0,0,0,0,0,0,0,0,0,0,0,0,0,0,0,0,0,0,0,0,0,0,0,0,0,0,0,0,0,0,0,0,0,0,0,0,0,0,0,0,0,0,0,0,0,0,0,0,0,0,0,0,0,0,0,0,0,0,0,0,0,0,0,0,0,0,0,0,0,0,0,0,0,0,0,0,0,0,0,0,0,0,0,0,0,0,0,0,0,0,0,0,0,0,0,0,0,0,0,0,0,0,0,0,0,0,0,0,0,0],"sum_hessian":[2.9250676E4,2.6998494E4,2.2521814E3,2.2308283E4,4.690211E3,1.0275066E3,1.2246749E3,1.6341233E4,5.96705E3,2.8933083E3,1.7969025E3,9.292699E2,9.823669E1,2.2524637E2,9.994285E2,2.9442913E3,1.3396942E4,4.0514563E3,1.9155935E3,9.394734E2,1.9538351E3,1.9700742E2,1.599895E3,1.3963852E2,7.896314E2,3.7896816E1,6.033987E1,2.2302226E2,2.2241058E0,9.8572125E2,1.3707273E1,1.5944952E3,1.3497959E3,1.6209551E3,1.1775987E4,2.728093E3,1.3233635E3,5.2183514E2,1.3937584E3,1.6811623E2,7.713571E2,1.2034182E3,7.5041693E2,7.294905E1,1.24058365E2,1.2187736E3,3.8112152E2,7.1278625E1,6.8359886E1,6.835907E2,1.0604072E2,2.43199E1,1.3576917E1,5.5648186E1,4.691683E0,5.445023E0,2.1757724E2,1.6833493E0,1.2023924E1,1.2067135E3,3.8778165E2,8.0956146E2,5.402345E2,1.1485289E3,4.7242612E2,1.0517667E4,1.2583206E3,9.409542E2,1.7871387E3,8.377841E2,4.8557935E2,1.8117764E2,3.4065753E2,1.0200582E3,3.7370016E2,1.3427072E2,3.3845512E1,6.1346443E1,7.100107E2,6.10055E2,5.9336316E2,5.1853767E1,6.985632E2,2.3729534E1,4.921952E1,9.744945E1,2.6608921E1,4.5308298E2,7.656906E2,2.0262787E2,1.7849364E2,2.1720087E1,4.955854E1,4.4313957E1,2.4045929E1,5.1937445E2,1.6421625E2,5.9141674E0,1.0012655E2,1.0174965E1,1.4144935E1,5.7363105E0,4.9911877E1,2.9640937E0,1.7275891E0,1.4786057E0,3.966417E0,2.2746473E1,1.9483078E2,7.5959265E2,4.4712088E2,2.352373E2,1.5254436E2,2.9723694E2,5.123245E2,4.386192E1,4.963726E2,3.8621765E2,7.623113E2,2.6847504E1,4.455786E2,5.2260127E3,5.2916543E3,7.574304E2,5.008901E2,5.2736273E2,4.135915E2,1.1344287E3,6.5270996E2,7.4006683E2,9.771728E1,2.9419016E2,1.9138919E2,7.8730774E1,1.0244687E2,8.605051E0,3.320525E2,7.938674E2,2.2619087E2,5.85725E1,3.1512766E2,6.2026825E1,7.22439E1,3.2028189E0,3.0642694E1,3.5692787E1,2.5653658E1,3.7795236E2,3.3205832E2,8.998263E1,5.200724E2,4.445546E2,1.4880853E2,4.2485638E1,9.368131E0,5.0438303E2,1.9418016E2,1.40024605E1,9.727073E0,1.6651829E1,3.256769E1,8.011836E1,1.7331087E1,8.532766E0,1.8076155E1,1.1233857E2,3.407444E2,6.1374677E2,1.519438E2,1.0798718E2,9.464069E1,5.9560123E1,1.1893351E2,1.3077769E1,8.642318E0,3.2723686E1,1.6834854E1,3.842934E1,5.884615E0,1.076049E1,1.32854395E1,4.5304346E2,6.633097E1,3.981457E1,1.2440168E2,4.208408E0,1.7057598E0,5.623188E1,4.389467E1,3.736053E0,6.4389124E0,7.667338E0,6.477597E0,4.4892864E0,1.247024E0,1.2494377E0,1.7146559E0,2.244461E0,1.7219563E0,9.0679455E0,1.3678528E1,1.25991844E2,6.883893E1,7.448878E2,1.4704832E1,3.100365E2,1.370844E2,1.8306186E2,5.217544E1,1.2750912E2,2.503524E1,2.617359E1,2.7106335E2,4.4877533E2,6.354917E1,4.064895E1,3.2129683E0,4.1576343E2,8.060916E1,2.3130742E2,1.5491025E2,5.0583408E2,2.564772E2,2.3097504E1,3.75E0,4.302554E2,1.5323217E1,5.1109287E3,1.1508375E2,3.616633E2,4.9299907E3,4.0483484E2,3.525956E2,1.2117703E2,3.7971307E2,3.5939786E2,1.6796487E2,1.831908E2,2.304007E2,9.3167365E2,2.0275504E2,2.4263206E2,4.1007788E2,2.589425E2,4.8112436E2,6.7377825E0,9.097949E1,1.7632843E2,1.1786171E2,5.476385E0,1.859128E2,2.108782E1,5.7642952E1,9.995517E0,9.2451355E1,4.4527626E0,4.1522884E0,3.184668E2,1.3585701E1,3.713446E2,4.2252274E2,2.0312164E1,2.0587871E2,3.0085716E1,2.8486782E1,2.8919043E2,2.5937227E1,2.7766893E1,3.425993E1,3.703381E1,3.5210083E1,1.6099857E1,1.9592928E1,3.458728E0,2.219493E1,8.207381E0,3.69745E2,1.928887E2,1.3916962E2,4.6984238E1,4.2998386E1,2.438055E2,2.762669E2,7.7754875E1,3.6679974E2,4.4855762E1,1.0395277E2,7.6424227E0,3.4843216E1,3.914999E2,1.1288312E2,1.1111827E2,8.306188E1,1.0818296E1,3.184164E0,1.73006E0,7.997013E0,6.306786E0,1.0345043E1,5.6135793E0,2.6954113E1,1.1082124E1,6.903624E1,1.0157506E1,7.1735806E0,6.7833447E0,1.7494216E0,6.3346715E0,1.1741484E1,3.0944592E1,8.1393974E1,3.3549677E2,5.247638E0,5.380041E2,7.57427E1,9.975598E1,5.2187824E1,9.255966E1,1.5427518E1,3.7018806E1,5.7621883E1,1.1053284E1,4.850684E1,6.323043E0,1.12610466E2,3.70549E0,4.9368277E0,4.4909873E0,2.8232698E1,1.2891076E1,3.943778E0,1.9699317E0,3.645941E1,3.6985667E0,2.1860483E0,6.37912E0,6.9063196E0,2.0184135E2,2.5120212E2,1.771142E1,4.8619553E1,3.185605E1,7.9585204E0,1.0912329E2,1.5278389E1,1.2189877E0,5.5012894E1,1.9378307E1,2.4516363E1,1.4964288E0,2.239624E0,5.2078867E0,1.2310255E0,3.489358E0,2.988239E0,1.2444609E0,1E0,6.1368327E0,2.931113E0,2.6868536E0,1.0991673E1,2.7664122E1,9.832773E1,5.668347E0,6.3170578E1],"tree_param":{"num_deleted":"0","num_feature":"34","num_nodes":"365","size_leaf_vector":"0"}},{"base_weights":[9.299275E-3,-5.783312E-2,1.2586269E0,-1.3234551E-1,3.891575E-1,8.603223E-1,1.429867E0,-2.3555179E-1,2.679696E-1,9.4091155E-2,7.2517407E-1,5.5881304E-1,9.7186935E-1,1.2369403E0,2.9546973E-1,1.3068171E-1,-3.0310738E-1,8.120168E-2,5.754836E-1,-4.6344736E-1,5.45924E-1,-3.884993E-1,8.599563E-1,3.672357E-1,1.232678E0,1.3360915E0,8.530596E-1,-1.6551678E-1,1.2530923E0,-4.7322776E-2,9.113248E-1,3.7885752E-1,-3.3251008E-1,-1.26266E-1,5.430451E-1,1.4197946E0,4.0243566E-1,6.827724E-1,-6.5586203E-1,1.2444364E-1,9.2001027E-1,4.3544024E-1,-7.5084615E-1,5.6305265E-1,1.0951724E0,-7.688248E-2,9.4037074E-1,9.409294E-2,1.378707E0,1.419321E0,-9.828009E-2,7.095337E-1,1.2987282E0,1.4280633E0,1.0596526E0,2.03737E-1,-4.024241E-1,4.130506E-1,1.6914592E0,-2.3906633E-1,9.545017E-1,-1.691095E-1,-4.8410356E-1,3.295802E-1,-5.9525985E-1,-1.1405934E-2,9.043304E-1,9.9498516E-1,1.6593778E0,1.22633815E-1,1.0014225E0,1.3005643E0,1.9713914E-1,-1.0769926E0,-2.631193E-1,-7.3655826E-1,7.067566E-1,-1.1141773E0,1.0522268E0,-2.1101764E-1,1.0572879E0,-1.3299916E0,-5.167595E-2,-3.646979E-1,8.5299635E-1,1.2677304E0,7.1246326E-1,2.1738765E-1,-3.8252708E-1,1.2968512E0,-2.3998667E-1,-9.648499E-2,1.6724461E-1,6.2063766E-1,2.8691226E-1,3.2068977E-1,1.148225E0,-2.545458E-1,2.4015343E-1,1.7977859E-1,8.776184E-1,1.3949343E0,-1.6488978E-1,2.9440233E-1,7.6022005E-1,8.3429396E-1,1.2153748E0,-1.70812E-1,7.2786045E-1,-9.33457E-1,1.3302766E-1,-8.1262696E-1,8.038822E-1,9.444503E-1,1.793558E0,4.9167022E-1,-7.9607534E-1,1.7916795E0,5.983799E-1,-1.5024056E-1,-1.3233829E0,-6.322079E-1,-8.9892924E-2,-3.561864E-1,6.094028E-1,-7.8854364E-1,2.2651713E-2,-4.2078063E-1,1.2584273E0,6.06302E-1,1.722221E0,6.276115E-1,3.5555282E-1,1.7089714E0,1.0010167E0,-5.44825E-1,6.309775E-1,1.4964542E0,7.430342E-1,1.3887988E0,-1.3622792E-1,-1.5278432E0,8.22617E-1,-1.1837445E0,1.0886426E0,-7.6656675E-1,5.181585E-1,-1.1162566E0,7.239335E-1,-1.305109E0,8.296134E-1,-3.571492E-1,-1.0146408E-1,1.3320181E0,3.965817E-1,-1.1525118E0,1.1212872E0,3.7053475E-1,2.9379785E-1,-2.9413363E-1,-6.896678E-1,-8.4093165E-1,1.2983671E0,-3.225324E-1,5.9037767E-2,1.1101149E0,3.3104653E-3,1.3993971E0,9.468247E-1,1.6789572E-1,1.2284467E0,-2.4096496E-1,9.755648E-1,-1.8704382E-1,1.4776942E0,-9.819376E-1,2.4193506E-1,2.2805749E-2,1.7027543E-1,4.1259983E-1,1.2478383E0,6.088549E-1,-1.2789404E0,3.100532E-1,7.38249E-1,8.759381E-1,1.4473318E0,2.5092724E-1,-4.217132E-1,-3.0800933E-1,9.172491E-1,1.2708338E0,-8.098876E-2,-1.17911816E-1,9.882348E-2,1.6543308E-2,2.722679E-1,-2.2230943E-1,8.782338E-2,-8.750873E-2,2.28737E-1,-2.776072E-1,1.08823635E-1,6.8895305E-3,3.13914E-1,-1.6865787E-1,3.0642602E-1,1.7747965E-1,3.6585793E-1,-1.7811741E-1,1.8663044E-1,-3.3867916E-1,-3.5814695E-2,3.7462273E-1,2.0787005E-1,1.3122988E-2,3.371639E-1,-3.766648E-2,5.919698E-2,-1.4575815E-1,-3.4869865E-1,-1.4733815E-1,6.859853E-2,-2.2035293E-1,6.4991646E-2,1.9393922E-1,-2.1710768E-1,2.9843432E-1,6.150896E-2,-1.8034028E-1,1.545006E-1,-1.3279758E-1,1.1206044E-1,2.4426942E-1,-1.7012012E-1,-2.9936293E-1,2.8097132E-1,8.834305E-3,2.2254907E-1,1.2701952E-1,3.749032E-1,-1.19720995E-1,2.8042027E-1,2.184645E-1,3.5099795E-1,-2.7682257E-1,3.5527727E-1,-1.6508684E-1,2.7987087E-1,-2.962216E-1,1.499836E-1,1.3301215E-1,3.130834E-1,2.3845654E-2,2.2908305E-1,7.190829E-2,2.9374066E-1,-7.6851817E-3,-3.2387E-1,-2.8534147E-1,2.1881592E-1,3.9864432E-2,-2.5105074E-1,1.320919E-1,3.5632628E-1,1.110505E-1,-2.0949328E-1,1.8095589E-1,-3.9035293E-1,3.0114424E-1,-2.7031454E-1,-3.5589537E-1,2.4587111E-1,-3.485373E-1,2.684101E-1,2.2854066E-1,3.1218981E-2,-2.6422986E-1,2.8266367E-1,3.0362076E-1,1.6354452E-1,2.939482E-1,-7.630504E-2,-3.3534607E-1,-6.931081E-2,2.8548358E-2,3.1831625E-1,-2.5163195E-1,1.9091414E-1,-2.5143695E-1,3.340459E-1,-2.773068E-1,-4.128913E-2,4.9430523E-2,3.0435753E-1,3.1219068E-1,-6.782629E-2,2.5182185E-1,-6.8575996E-3,-2.2681247E-1,1.4043495E-1,2.5333408E-1,3.0832592E-1,2.6996562E-1,1.1235263E-1,-2.4724422E-1,1.802269E-1,-1.5847485E-1,2.587761E-1,-1.1617508E-1,1.1145454E-1,-5.9218735E-2,3.0388233E-1,-2.0225577E-1,1.8581943E-1,9.175467E-2,3.0087203E-1,-2.8651068E-1,-3.591047E-2,-9.245686E-2,1.5372527E-1,1.7060481E-1,2.9269052E-1,-2.9259542E-1,1.6310678E-1,-3.5811695E-1,1.9912624E-1,9.4725594E-2,2.0992123E-1,-5.110075E-2,2.2697532E-1,3.0816266E-1,2.0397945E-1,-2.9090786E-1,1.6454825E-1,1.7016093E-1,-2.5588593E-1,1.12733535E-1,2.4293564E-1,2.7768415E-1,1.6851062E-1,-1.8071927E-1,1.6153E-1],"categories":[],"categories_nodes":[],"categories_segments":[],"categories_sizes":[],"default_left":[0,0,0,0,0,0,0,0,0,0,0,0,0,0,0,0,0,0,0,0,0,0,0,0,0,0,0,0,0,0,0,0,0,0,0,0,0,0,0,0,0,0,0,0,0,0,0,0,0,0,0,0,0,0,0,0,0,0,0,0,0,0,0,0,0,0,0,0,0,0,0,0,0,0,0,0,0,0,0,0,0,0,0,0,0,0,0,0,0,0,0,0,0,0,0,0,0,0,0,0,0,0,0,0,0,0,0,0,0,0,0,0,0,0,0,0,0,0,0,0,0,0,0,0,0,0,0,0,0,0,0,0,0,0,0,0,0,0,0,0,0,0,0,0,0,0,0,0,0,0,0,0,0,0,0,0,0,0,0,0,0,0,0,0,0,0,0,0,0,0,0,0,0,0,0,0,0,0,0,0,0,0,0,0,0,0,0,0,0,0,0,0,0,0,0,0,0,0,0,0,0,0,0,0,0,0,0,0,0,0,0,0,0,0,0,0,0,0,0,0,0,0,0,0,0,0,0,0,0,0,0,0,0,0,0,0,0,0,0,0,0,0,0,0,0,0,0,0,0,0,0,0,0,0,0,0,0,0,0,0,0,0,0,0,0,0,0,0,0,0,0,0,0,0,0,0,0,0,0,0,0,0,0,0,0,0,0,0,0,0,0,0,0,0,0,0,0,0,0,0,0,0,0,0,0,0,0,0,0,0,0,0,0,0,0,0,0,0,0,0,0,0,0,0,0,0,0,0,0,0,0,0,0,0,0,0,0,0,0,0,0,0,0],"id":2,"left_children":[1,3,5,7,9,11,13,15,17,19,21,23,25,27,-1,29,31,33,35,37,39,41,43,45,47,49,51,-1,53,55,57,59,61,63,65,67,69,71,73,75,77,79,81,83,85,87,89,91,93,95,97,99,101,103,105,107,109,111,113,115,117,119,121,123,125,127,129,131,133,135,137,139,141,143,145,147,149,151,153,155,157,159,161,163,165,167,169,171,-1,173,175,-1,-1,177,-1,-1,179,-1,-1,181,183,185,-1,-1,187,189,191,193,195,197,199,201,203,205,207,209,211,213,215,217,219,221,223,225,227,229,231,233,235,237,239,241,-1,243,245,247,249,251,253,255,-1,257,259,261,263,265,267,269,271,273,275,-1,277,279,281,283,285,287,-1,-1,289,291,293,-1,295,297,299,301,303,305,307,309,311,313,315,317,-1,-1,-1,319,321,323,325,-1,327,329,331,-1,333,335,337,339,341,-1,-1,-1,-1,-1,-1,-1,-1,-1,-1,-1,-1,-1,-1,-1,-1,-1,-1,-1,-1,-1,-1,-1,-1,-1,-1,-1,-1,-1,-1,-1,-1,-1,-1,-1,-1,-1,-1,-1,-1,-1,-1,-1,-1,-1,-1,-1,-1,-1,-1,-1,-1,-1,-1,-1,-1,-1,-1,-1,-1,-1,-1,-1,-1,-1,-1,-1,-1,-1,-1,-1,-1,-1,-1,-1,-1,-1,-1,-1,-1,-1,-1,-1,-1,-1,-1,-1,-1,-1,-1,-1,-1,-1,-1,-1,-1,-1,-1,-1,-1,-1,-1,-1,-1,-1,-1,-1,-1,-1,-1,-1,-1,-1,-1,-1,-1,-1,-1,-1,-1,-1,-1,-1,-1,-1,-1,-1,-1,-1,-1,-1,-1,-1,-1,-1,-1,-1,-1,-1,-1,-1,-1,-1,-1,-1,-1,-1,-1,-1,-1],"loss_changes":[2.4018557E3,9.052341E2,9.8375244E1,9.6250134E2,3.8495734E2,1.4308594E1,7.5144043E0,4.5826648E2,2.742134E2,5.2142065E2,2.7285358E2,1.5246166E1,1.2750153E1,7.958252E0,0E0,4.009399E2,3.1366992E2,2.8484302E2,2.6303284E2,2.0481497E2,1.8013431E2,5.905018E1,1.1250806E2,2.4536179E1,4.275429E0,9.354004E0,1.4736984E1,0E0,5.470703E0,2.0961276E2,2.0755792E2,2.302904E2,3.7125378E2,4.3880746E2,1.845886E2,2.9542603E1,2.5105667E2,3.9851204E1,1.3103192E2,2.7061285E2,1.6402252E2,2.4629337E1,5.539791E1,1.9347417E2,5.87146E1,3.0167334E1,1.7998867E1,2.151198E0,1.0084534E-1,1.8036041E0,9.413314E0,1.6526352E1,1.30846405E1,1.976471E0,2.56118E0,2.7054144E2,2.7700897E2,1.5789967E2,1.42074585E1,1.27682556E2,9.8817444E1,1.5696751E2,4.5393665E2,1.9998349E2,1.20832855E2,1.9002234E2,1.3495062E2,3.138546E1,4.638794E0,3.4733237E2,5.9906555E1,1.1202446E1,8.328397E1,8.978708E1,1.6250595E2,1.216068E2,8.0640396E1,2.5281597E1,1.0386182E2,3.9676544E1,8.252075E0,5.7308807E0,6.8327034E1,9.088296E1,1.1958823E2,2.491101E1,7.9265564E1,1.7042015E1,0E0,8.982155E0,1.2582906E1,0E0,0E0,2.9673243E-1,0E0,0E0,1.9074173E0,0E0,0E0,2.9813246E1,1.2165794E1,2.62352E-1,0E0,0E0,5.5429144E0,4.529562E0,4.2768936E0,2.2420934E2,2.3459756E2,1.2002704E2,2.806057E2,6.3102036E1,1.4687663E2,2.9849705E1,4.279602E0,8.3756805E1,9.815982E1,4.1483154E0,1.3693906E2,1.207583E2,2.7689651E1,5.76166E2,8.9227795E2,2.9340298E2,1.9665332E2,1.368146E2,8.971203E1,1.961311E2,3.805722E1,1.1680286E2,2.3389008E1,7.535699E1,0E0,3.1748657E0,3.21168E1,2.4265741E2,1.470631E2,8.282532E0,7.903728E1,4.1174545E0,0E0,2.742813E0,3.6026497E1,3.6378906E1,4.3139744E0,9.3791855E1,1.565624E2,1.0894765E2,5.9825596E1,2.42463E1,6.391812E1,0E0,3.1406597E1,3.6889282E1,1.4387772E2,7.202711E0,5.837139E0,1.3564858E1,0E0,0E0,2.268574E1,1.370883E1,5.18375E0,0E0,7.775188E1,7.169751E1,1.0267421E2,6.319397E0,2.7754562E1,1.4397675E2,2.0207596E1,8.719587E0,1.3188957E1,4.9982834E0,9.859085E-2,2.4761248E0,0E0,0E0,0E0,2.0486498E0,1.1879578E0,1.6832085E1,1.4428438E1,0E0,9.350479E0,2.5437212E0,4.0934753E-1,0E0,5.411174E0,5.3471045E0,3.7360458E0,1.6369858E0,3.1580865E0,0E0,0E0,0E0,0E0,0E0,0E0,0E0,0E0,0E0,0E0,0E0,0E0,0E0,0E0,0E0,0E0,0E0,0E0,0E0,0E0,0E0,0E0,0E0,0E0,0E0,0E0,0E0,0E0,0E0,0E0,0E0,0E0,0E0,0E0,0E0,0E0,0E0,0E0,0E0,0E0,0E0,0E0,0E0,0E0,0E0,0E0,0E0,0E0,0E0,0E0,0E0,0E0,0E0,0E0,0E0,0E0,0E0,0E0,0E0,0E0,0E0,0E0,0E0,0E0,0E0,0E0,0E0,0E0,0E0,0E0,0E0,0E0,0E0,0E0,0E0,0E0,0E0,0E0,0E0,0E0,0E0,0E0,0E0,0E0,0E0,0E0,0E0,0E0,0E0,0E0,0E0,0E0,0E0,0E0,0E0,0E0,0E0,0E0,0E0,0E0,0E0,0E0,0E0,0E0,0E0,0E0,0E0,0E0,0E0,0E0,0E0,0E0,0E0,0E0,0E0,0E0,0E0,0E0,0E0,0E0,0E0,0E0,0E0,0E0,0E0,0E0,0E0,0E0,0E0,0E0,0E0,0E0,0E0,0E0,0E0,0E0,0E0,0E0,0E0,0E0,0E0,0E0,0E0,0E0,0E0,0E0,0E0,0E0,0E0,0E0],"parents":[2147483647,0,0,1,1,2,2,3,3,4,4,5,5,6,6,7,7,8,8,9,9,10,10,11,11,12,12,13,13,15,15,16,16,17,17,18,18,19,19,20,20,21,21,22,22,23,23,24,24,25,25,26,26,28,28,29,29,30,30,31,31,32,32,33,33,34,34,35,35,36,36,37,37,38,38,39,39,40,40,41,41,42,42,43,43,44,44,45,45,46,46,47,47,48,48,49,49,50,50,51,51,52,52,53,53,54,54,55,55,56,56,57,57,58,58,59,59,60,60,61,61,62,62,63,63,64,64,65,65,66,66,67,67,68,68,69,69,70,70,71,71,72,72,73,73,74,74,75,75,76,76,77,77,78,78,79,79,80,80,81,81,82,82,83,83,84,84,85,85,86,86,87,87,89,89,90,90,93,93,96,96,99,99,100,100,101,101,104,104,105,105,106,106,107,107,108,108,109,109,110,110,111,111,112,112,113,113,114,114,115,115,116,116,117,117,118,118,119,119,120,120,121,121,122,122,123,123,124,124,125,125,126,126,127,127,128,128,129,129,130,130,131,131,133,133,134,134,135,135,136,136,137,137,138,138,139,139,141,141,142,142,143,143,144,144,145,145,146,146,147,147,148,148,149,149,150,150,152,152,153,153,154,154,155,155,156,156,157,157,160,160,161,161,162,162,164,164,165,165,166,166,167,167,168,168,169,169,170,170,171,171,172,172,173,173,174,174,175,175,179,179,180,180,181,181,182,182,184,184,185,185,186,186,188,188,189,189,190,190,191,191,192,192],"right_children":[2,4,6,8,10,12,14,16,18,20,22,24,26,28,-1,30,32,34,36,38,40,42,44,46,48,50,52,-1,54,56,58,60,62,64,66,68,70,72,74,76,78,80,82,84,86,88,90,92,94,96,98,100,102,104,106,108,110,112,114,116,118,120,122,124,126,128,130,132,134,136,138,140,142,144,146,148,150,152,154,156,158,160,162,164,166,168,170,172,-1,174,176,-1,-1,178,-1,-1,180,-1,-1,182,184,186,-1,-1,188,190,192,194,196,198,200,202,204,206,208,210,212,214,216,218,220,222,224,226,228,230,232,234,236,238,240,242,-1,244,246,248,250,252,254,256,-1,258,260,262,264,266,268,270,272,274,276,-1,278,280,282,284,286,288,-1,-1,290,292,294,-1,296,298,300,302,304,306,308,310,312,314,316,318,-1,-1,-1,320,322,324,326,-1,328,330,332,-1,334,336,338,340,342,-1,-1,-1,-1,-1,-1,-1,-1,-1,-1,-1,-1,-1,-1,-1,-1,-1,-1,-1,-1,-1,-1,-1,-1,-1,-1,-1,-1,-1,-1,-1,-1,-1,-1,-1,-1,-1,-1,-1,-1,-1,-1,-1,-1,-1,-1,-1,-1,-1,-1,-1,-1,-1,-1,-1,-1,-1,-1,-1,-1,-1,-1,-1,-1,-1,-1,-1,-1,-1,-1,-1,-1,-1,-1,-1,-1,-1,-1,-1,-1,-1,-1,-1,-1,-1,-1,-1,-1,-1,-1,-1,-1,-1,-1,-1,-1,-1,-1,-1,-1,-1,-1,-1,-1,-1,-1,-1,-1,-1,-1,-1,-1,-1,-1,-1,-1,-1,-1,-1,-1,-1,-1,-1,-1,-1,-1,-1,-1,-1,-1,-1,-1,-1,-1,-1,-1,-1,-1,-1,-1,-1,-1,-1,-1,-1,-1,-1,-1,-1,-1],"split_conditions":[1.9272581E0,2.9384968E0,2.1195388E0,9.6653384E-1,-7.32095E-1,4.5895395E-3,2.2319894E0,-9.627279E-1,-3.7900123E-1,4.537714E0,-1.133362E0,1.7828571E0,1.5649967E-1,-3.760339E0,2.9546973E-1,1.0333738E0,-1.7015104E0,2.9448423E0,-8.144347E-1,-1.5494512E-1,-1.1558075E0,-2.2052464E-1,3.4277277E0,1.0333738E0,-2.6327136E-1,3.446003E-1,1.0088129E0,-1.6551678E-1,-2.5907472E-2,-1.5809702E0,3.623124E-1,-3.7900123E-1,1.2633069E-2,-9.962291E-1,-1.1558075E0,1.8521442E-1,1.6833785E0,-4.589977E-2,-9.4395125E-1,5.789204E0,-1.1150607E0,-2.5907472E-2,-4.0932633E-3,-3.7900123E-1,-3.1149656E-2,-6.773505E-2,-6.1045878E-2,-7.32095E-1,1.9261936E0,3.2810453E-2,-1.1558075E0,-3.7900123E-1,7.1514916E-1,4.0414825E-1,1.0333738E0,-3.7900123E-1,2.4192126E-1,1.00669324E-1,6.72252E-2,-2.8605509E0,-2.257464E0,-2.8980628E-2,2.1395981E0,-1.1558075E0,1.82692E0,5.4755287E0,3.9936945E0,1.2851894E0,-5.5405116E-1,3.271863E-1,-3.8878128E-1,4.4343224E0,-1.1558075E0,2.4410464E-1,3.9025486E0,-5.5314198E-2,-1.0946668E0,3.488781E-2,-2.6606461E-2,-1.1412421E0,-1.144755E0,1.4604062E0,1.0333738E0,2.2092177E-1,-3.820846E-2,-3.283066E-2,-2.5907472E-2,-6.973858E-2,-3.8252708E-1,-6.354418E-1,-1.8358346E-2,-9.648499E-2,1.6724461E-1,-9.590774E-2,2.8691226E-1,3.2068977E-1,2.9768708E-1,-2.545458E-1,2.4015343E-1,1.673319E-1,-9.9917984E-1,4.9634677E-1,-1.6488978E-1,2.9440233E-1,-9.4395125E-1,-8.410254E-2,6.1803542E-2,4.1721565E-1,6.548849E-2,1.6776334E-1,-2.5907472E-2,3.3809623E-1,-5.9679236E-2,4.783835E-1,9.842322E-2,-1.1558075E0,2.8856292E-1,-7.580696E-1,1.0333738E0,1.3337662E0,-2.8785493E-2,1.2906544E-1,-2.5907472E-2,-2.8605509E0,-1.992254E0,3.0784225E-1,-9.4395125E-1,-2.3504394E-1,1.0290881E0,-9.4395125E-1,7.8697395E-1,-2.5907472E-2,3.5555282E-1,7.616098E-1,-2.5907472E-2,1.234792E0,-1.0582014E0,-9.767937E-1,-2.5907472E-2,3.0226202E0,-1.3622792E-1,-2.545622E0,-1.009384E0,-3.9258632E-1,-1.1558075E0,-1.2988593E-1,-4.133888E-2,-8.552094E-1,-3.9696193E-1,-1.1520499E0,-1.4879669E-2,-3.571492E-1,-9.4395125E-1,-1.0684126E-1,-3.1593833E0,-1.1467806E0,3.213378E0,3.271863E-1,2.9379785E-1,-2.9413363E-1,1.7395613E0,1.6930608E0,1.0289111E0,-3.225324E-1,-1.1031941E-1,-4.5092978E-2,3.271863E-1,3.8258474E0,-5.732542E-1,3.5287556E-1,-1.099016E0,3.271863E-1,-7.32095E-1,1.7395613E0,1.9375037E0,-6.892313E-2,2.4193506E-1,2.2805749E-2,1.7027543E-1,1.7395613E0,4.7315583E-2,1.8406327E-1,3.7672454E-1,3.100532E-1,-3.873377E-1,-1.2980428E-1,6.2640524E-1,2.5092724E-1,-3.7900123E-1,-1.2340615E-1,1.1357524E-1,1.1402519E0,1.1416063E-1,-1.17911816E-1,9.882348E-2,1.6543308E-2,2.722679E-1,-2.2230943E-1,8.782338E-2,-8.750873E-2,2.28737E-1,-2.776072E-1,1.08823635E-1,6.8895305E-3,3.13914E-1,-1.6865787E-1,3.0642602E-1,1.7747965E-1,3.6585793E-1,-1.7811741E-1,1.8663044E-1,-3.3867916E-1,-3.5814695E-2,3.7462273E-1,2.0787005E-1,1.3122988E-2,3.371639E-1,-3.766648E-2,5.919698E-2,-1.4575815E-1,-3.4869865E-1,-1.4733815E-1,6.859853E-2,-2.2035293E-1,6.4991646E-2,1.9393922E-1,-2.1710768E-1,2.9843432E-1,6.150896E-2,-1.8034028E-1,1.545006E-1,-1.3279758E-1,1.1206044E-1,2.4426942E-1,-1.7012012E-1,-2.9936293E-1,2.8097132E-1,8.834305E-3,2.2254907E-1,1.2701952E-1,3.749032E-1,-1.19720995E-1,2.8042027E-1,2.184645E-1,3.5099795E-1,-2.7682257E-1,3.5527727E-1,-1.6508684E-1,2.7987087E-1,-2.962216E-1,1.499836E-1,1.3301215E-1,3.130834E-1,2.3845654E-2,2.2908305E-1,7.190829E-2,2.9374066E-1,-7.6851817E-3,-3.2387E-1,-2.8534147E-1,2.1881592E-1,3.9864432E-2,-2.5105074E-1,1.320919E-1,3.5632628E-1,1.110505E-1,-2.0949328E-1,1.8095589E-1,-3.9035293E-1,3.0114424E-1,-2.7031454E-1,-3.5589537E-1,2.4587111E-1,-3.485373E-1,2.684101E-1,2.2854066E-1,3.1218981E-2,-2.6422986E-1,2.8266367E-1,3.0362076E-1,1.6354452E-1,2.939482E-1,-7.630504E-2,-3.3534607E-1,-6.931081E-2,2.8548358E-2,3.1831625E-1,-2.5163195E-1,1.9091414E-1,-2.5143695E-1,3.340459E-1,-2.773068E-1,-4.128913E-2,4.9430523E-2,3.0435753E-1,3.1219068E-1,-6.782629E-2,2.5182185E-1,-6.8575996E-3,-2.2681247E-1,1.4043495E-1,2.5333408E-1,3.0832592E-1,2.6996562E-1,1.1235263E-1,-2.4724422E-1,1.802269E-1,-1.5847485E-1,2.587761E-1,-1.1617508E-1,1.1145454E-1,-5.9218735E-2,3.0388233E-1,-2.0225577E-1,1.8581943E-1,9.175467E-2,3.0087203E-1,-2.8651068E-1,-3.591047E-2,-9.245686E-2,1.5372527E-1,1.7060481E-1,2.9269052E-1,-2.9259542E-1,1.6310678E-1,-3.5811695E-1,1.9912624E-1,9.4725594E-2,2.0992123E-1,-5.110075E-2,2.2697532E-1,3.0816266E-1,2.0397945E-1,-2.9090786E-1,1.6454825E-1,1.7016093E-1,-2.5588593E-1,1.12733535E-1,2.4293564E-1,2.7768415E-1,1.6851062E-1,-1.8071927E-1,1.6153E-1],"split_indices":[1,28,1,20,0,22,11,13,0,28,5,17,22,13,0,0,15,22,14,32,0,30,28,0,13,13,19,0,0,12,20,0,28,15,0,27,21,15,0,28,6,0,33,0,24,31,23,0,11,18,0,0,25,33,0,0,28,25,26,15,15,13,28,0,19,22,22,20,12,0,15,28,0,27,28,30,6,33,25,11,1,18,0,18,26,33,0,31,0,12,19,0,0,27,0,0,28,0,0,28,13,18,0,0,0,26,12,25,28,29,0,20,30,22,27,0,18,16,0,6,12,33,0,15,15,25,0,23,19,0,19,0,0,22,0,28,6,4,0,28,0,17,10,13,0,24,25,14,19,7,25,0,0,16,16,11,28,0,0,0,0,18,18,0,24,33,0,28,21,12,6,0,0,0,4,26,0,0,0,0,18,22,28,0,14,23,30,0,0,12,28,22,12,0,0,0,0,0,0,0,0,0,0,0,0,0,0,0,0,0,0,0,0,0,0,0,0,0,0,0,0,0,0,0,0,0,0,0,0,0,0,0,0,0,0,0,0,0,0,0,0,0,0,0,0,0,0,0,0,0,0,0,0,0,0,0,0,0,0,0,0,0,0,0,0,0,0,0,0,0,0,0,0,0,0,0,0,0,0,0,0,0,0,0,0,0,0,0,0,0,0,0,0,0,0,0,0,0,0,0,0,0,0,0,0,0,0,0,0,0,0,0,0,0,0,0,0,0,0,0,0,0,0,0,0,0,0,0,0,0,0,0,0,0,0,0,0,0,0,0,0,0,0],"split_type":[0,0,0,0,0,0,0,0,0,0,0,0,0,0,0,0,0,0,0,0,0,0,0,0,0,0,0,0,0,0,0,0,0,0,0,0,0,0,0,0,0,0,0,0,0,0,0,0,0,0,0,0,0,0,0,0,0,0,0,0,0,0,0,0,0,0,0,0,0,0,0,0,0,0,0,0,0,0,0,0,0,0,0,0,0,0,0,0,0,0,0,0,0,0,0,0,0,0,0,0,0,0,0,0,0,0,0,0,0,0,0,0,0,0,0,0,0,0,0,0,0,0,0,0,0,0,0,0,0,0,0,0,0,0,0,0,0,0,0,0,0,0,0,0,0,0,0,0,0,0,0,0,0,0,0,0,0,0,0,0,0,0,0,0,0,0,0,0,0,0,0,0,0,0,0,0,0,0,0,0,0,0,0,0,0,0,0,0,0,0,0,0,0,0,0,0,0,0,0,0,0,0,0,0,0,0,0,0,0,0,0,0,0,0,0,0,0,0,0,0,0,0,0,0,0,0,0,0,0,0,0,0,0,0,0,0,0,0,0,0,0,0,0,0,0,0,0,0,0,0,0,0,0,0,0,0,0,0,0,0,0,0,0,0,0,0,0,0,0,0,0,0,0,0,0,0,0,0,0,0,0,0,0,0,0,0,0,0,0,0,0,0,0,0,0,0,0,0,0,0,0,0,0,0,0,0,0,0,0,0,0,0,0,0,0,0,0,0,0,0,0,0,0,0,0,0,0,0,0,0,0,0,0,0,0,0,0,0,0,0,0,0,0],"sum_hessian":[2.8635852E4,2.7176482E4,1.4593698E3,2.3294107E4,3.8823745E3,4.4058743E2,1.0187823E3,1.8519865E4,4.7742427E3,2.06783E3,1.8145446E3,1.20604805E2,3.1998264E2,2.065559E2,8.122264E2,2.8840217E3,1.5635844E4,2.9710479E3,1.803195E3,9.256275E2,1.1422025E3,1.9569354E2,1.618851E3,9.511027E1,2.5494535E1,7.618497E1,2.4379767E2,1.2134862E0,2.053424E2,2.3492732E3,5.347486E2,6.457795E2,1.4990063E4,2.0506077E3,9.204401E2,3.0548953E2,1.4977054E3,1.3268292E2,7.929446E2,5.377058E2,6.044967E2,5.9712265E1,1.3598128E2,7.170905E2,9.017605E2,5.407433E1,4.1035942E1,3.085024E0,2.240951E1,7.2016685E1,4.1682806E0,1.8636998E2,5.742769E1,1.0446699E2,1.0087541E2,1.3765011E3,9.7277216E2,3.2725763E2,2.07491E2,3.1173404E2,3.3404547E2,7.21511E3,7.774954E3,1.0400304E3,1.0105772E3,3.6352313E2,5.56917E2,1.120192E2,1.9347032E2,1.0216648E3,4.7604065E2,5.7657112E1,7.502581E1,3.8180258E2,4.11142E2,2.1683337E2,3.2087247E2,3.6439404E1,5.680573E2,2.9600725E1,3.011154E1,7.3881E1,6.2100285E1,1.7068416E2,5.464064E2,6.199304E2,2.8183008E2,4.736356E1,6.71077E0,3.1441565E1,9.594378E0,1.9331881E0,1.1518362E0,2.3689635E0,2.0040546E1,3.996074E1,3.2055946E1,2.1997654E0,1.968515E0,4.5388355E1,1.4098161E2,5.5266438E1,2.1612542E0,9.688708E1,7.579914E0,4.3818954E1,5.7056458E1,8.031956E2,5.733054E2,4.8802817E2,4.84744E2,7.88618E1,2.4839583E2,2.618178E1,1.8130922E2,1.3489001E2,1.7684404E2,9.8487686E1,2.3555777E2,7.1001733E3,1.1493663E2,5.651203E3,2.123751E3,3.0131616E2,7.3871423E2,7.695763E2,2.410009E2,2.7540533E2,8.8117805E1,4.0945752E2,1.474595E2,7.746508E1,3.455412E1,1.7843335E2,1.5036969E1,4.4167313E2,5.799917E2,1.616167E2,3.1442395E2,5.548582E1,2.1712942E0,1.9581108E1,5.5444702E1,3.6429843E2,1.7504168E1,2.5003854E2,1.6110345E2,1.722798E2,4.4553577E1,1.7912914E1,3.0295953E2,2.145106E1,1.4988345E1,3.9742688E2,1.706304E2,1.7423256E1,1.2177469E1,1.1997945E1,1.8113594E1,5.951011E1,1.4370891E1,3.9427486E1,2.26728E1,4.2553123E1,1.2813104E2,4.1923697E2,1.27169395E2,4.371911E2,1.8273929E2,1.3776192E2,1.4406818E2,2.9943516E1,1.7420042E1,3.4118187E0,2.8029745E1,6.5597034E0,3.0346751E0,1.2089015E0,1.160062E0,4.436353E0,2.7619593E1,3.552224E1,9.866114E0,2.2459652E1,1.18521965E2,6.692682E0,4.8573753E1,5.3009534E0,2.2789607E0,2.783048E0,4.1035908E1,5.4734577E1,2.3218794E0,4.9289966E2,3.1029596E2,2.8459772E2,2.8870767E2,4.321476E2,5.5880535E1,3.101912E2,1.7455281E2,5.5360012E1,2.3501791E1,1.24416E2,1.2397983E2,6.3697762E0,1.9812004E1,7.8582063E0,1.73451E2,3.2407265E1,1.0248274E2,7.134327E1,1.0550076E2,8.7524086E1,1.0963601E1,1.5881198E2,7.674579E1,6.542273E3,5.5790045E2,4.871869E1,6.621795E1,5.1045464E3,5.466563E2,6.17046E2,1.5067051E3,1.0681274E2,1.9450343E2,1.87229E2,5.514852E2,7.1795526E2,5.1621033E1,1.0573304E2,1.3526787E2,5.6750072E1,2.1865524E2,3.9813726E0,8.413643E1,1.9457489E2,2.1488263E2,1.8754559E1,1.2870494E2,3.0075281E1,4.73898E1,1.410899E1,1.6432436E2,3.49643E0,1.1540539E1,3.864684E2,5.5204693E1,3.0309969E1,5.496817E2,1.3194295E1,1.4842241E2,1.2379795E2,1.9062599E2,4.393417E0,5.1092403E1,1.2155775E0,1.836553E1,5.512533E0,4.9932167E1,1.7821608E1,3.464768E2,1.202638E1,5.4777875E0,4.3651684E1,2.0638686E2,1.3984671E2,2.1256742E1,1.3743707E1,1.5853609E2,7.060649E0,3.7492928E1,1.5665133E1,2.247781E0,2.0634293E2,9.661661E1,8.373737E0,6.614608E0,2.9040057E2,1.0702631E2,7.134418E1,9.928623E1,9.902174E0,7.521082E0,4.375934E0,7.801535E0,2.8621235E0,9.135821E0,1.1961594E1,2.4092972E0,2.056129E1,1.8866194E1,4.3433146E0,1.8329485E1,2.623833E1,1.0189271E2,3.7085382E2,4.8383152E1,4.8163147E1,7.9006256E1,2.3127675E2,2.0591435E2,8.806523E1,9.4674065E1,4.7025116E1,9.07368E1,4.1701427E0,1.3989803E2,2.11918E1,8.751718E0,5.3547554E0,1.2065286E1,2.0165849E0,1.3952339E0,1.179127E0,2.6850618E1,3.6977148E0,2.8619883E0,1.1968387E0,3.2395146E0,1.1506371E1,1.6113222E1,2.670781E0,3.285146E1,8.228066E0,1.6380473E0,6.543241E1,5.3089558E1,1.2488871E0,5.4437947E0,3.771956E1,1.0854197E1,1.15312E0,1.1258407E0,1.3257344E0,1.4573135E0,2.0070902E1,2.0965004E1,4.118513E1,1.3549449E1,1.1969957E0,1.1248838E0],"tree_param":{"num_deleted":"0","num_feature":"34","num_nodes":"343","size_leaf_vector":"0"}},{"base_weights":[9.038986E-3,-4.6596285E-2,1.1248845E0,-1.18438475E-1,2.901454E-1,7.9307956E-1,1.3342222E0,-2.4841584E-1,1.5281862E-1,1.0748523E-1,7.524713E-1,7.20674E-1,1.1332957E0,1.1734508E0,2.705858E-1,-6.263523E-1,-1.7043112E-1,4.871228E-2,7.314418E-1,-2.2221756E-1,4.6508318E-1,-6.093296E-1,8.4962004E-1,8.23044E-1,4.43745E-1,1.204937E0,-1.8181127E-1,1.2092156E0,-1.6548152E-1,-9.749556E-1,-2.983765E-1,-1.2480849E0,-1.5094233E-1,3.2664594E-1,-1.0747905E-1,1.2647206E0,1.3004401E-1,-4.7018418E-1,1.6624887E-1,5.6131314E-3,7.102124E-1,-9.8845077E-1,5.922228E-1,-2.5671225E-2,1.0111698E0,5.850117E-1,1.019086E0,7.6700366E-1,-6.166131E-2,2.3261139E-1,1.2668674E0,3.0647201E-2,1.2284644E0,3.162381E-1,-1.1222491E0,-9.0179265E-1,4.3703896E-1,-1.5019894E0,2.3915213E-2,-1.8844195E-1,2.657291E-1,1.3681675E-1,1.0735184E0,-3.770857E-1,1.9067355E-1,-1.3853222E0,1.3172897E0,-2.1534055E-1,1.1949357E0,-6.680942E-2,-9.976914E-1,-2.4640001E-1,6.91026E-1,-7.1003675E-1,5.9437335E-1,-5.1311016E-1,8.4914714E-1,-1.1286993E-1,-1.2490528E0,-4.350909E-2,2.6130757E-1,4.5662066E-1,-1.1273409E0,1.477053E0,8.843568E-1,4.113364E-1,1.1651299E0,1.1129345E0,5.605903E-1,-5.7577705E-1,9.2120665E-1,-3.404074E-1,6.64089E-2,1.9344759E-1,-1.5764807E-1,1.0027052E0,1.3435317E0,1.3032203E0,7.9022956E-1,6.8294996E-1,-5.2548844E-1,-1.248527E0,-4.4032863E-1,-1.1788946E0,-1.7951475E-2,6.571461E-1,-1.3944874E0,-3.3220127E-1,-9.1451436E-1,-1.1861746E0,1.8291881E0,-5.6424215E-2,-3.8408747E-1,-1.5811104E-1,7.5940776E-1,-2.3775609E-1,4.7734857E-1,1.373349E0,5.911423E-1,-8.9878154E-1,-1.1754115E-1,-1.7584161E-1,6.401394E-1,-3.0395314E-1,-1.882174E-2,1.0006046E0,1.7740445E0,-1.0383873E0,9.253753E-1,-1.3193318E0,1.5099924E0,-5.361461E-1,3.4341893E-1,-4.4344136E-1,-1.334669E0,-6.486762E-1,4.3766078E-1,2.42531E-1,1.2698166E0,-8.7122834E-1,1.3896143E0,1.4395989E0,2.5679943E-1,4.110939E-1,-9.1292465E-1,5.489677E-1,1.0666422E0,-2.8362656E-1,9.972109E-1,-2.9389086E-1,-7.797026E-1,-2.704321E-1,6.586596E-1,-2.5661024E-1,1.1241623E0,-1.4615307E0,-4.3453056E-2,8.7205946E-1,1.5478686E0,1.4139407E0,6.9715965E-1,5.7038374E-2,9.340763E-1,5.5892485E-1,1.2624271E0,1.148564E0,8.47461E-2,-1.9762626E-2,1.3085994E0,-2.655253E-1,1.258922E-1,3.549489E-1,2.9144835E-1,-3.270396E-1,2.8946227E-1,1.2059693E0,-7.4792296E-2,6.371783E-1,1.3666022E0,2.7051356E-1,2.6667556E-1,-1.9626242E-1,1.07445E0,-7.351392E-2,2.6254106E-1,-1.8361531E-1,1.1081918E-1,2.279724E-2,-2.646837E-1,-1.701953E-2,-3.163506E-1,-2.61642E-1,1.331311E-3,9.786794E-2,-2.523714E-1,1.7059433E-1,-2.5656018E-1,-3.2414716E-2,-3.297478E-1,-3.0787298E-1,1.21073306E-1,-3.0666003E-1,-9.3288E-2,4.568212E-1,7.159761E-2,-4.3496754E-2,1.2424432E-2,1.5858226E-2,-1.1318155E-1,-8.2951665E-2,1.4537911E-1,4.7645878E-2,2.5663587E-1,7.2442E-2,-1.1843802E-1,3.520977E-2,2.3737827E-1,2.145211E-1,3.2598314E-1,-2.6743818E-2,2.2807215E-1,1.1765782E-1,-2.0134068E-1,-7.903338E-2,4.9794756E-2,-1.4134793E-1,7.970176E-2,2.1930873E-1,6.466746E-2,-6.777542E-2,2.533939E-1,3.2735953E-1,3.9910397E-1,-2.3283587E-1,2.817263E-1,2.338711E-1,-1.4579675E-1,-2.757895E-1,-6.361015E-2,3.3791354E-1,1.8996798E-1,-1.4670579E-1,1.7277285E-1,-3.466128E-2,2.0591047E-1,-2.0481601E-1,1.9074179E-1,-3.068097E-1,-1.990966E-1,-2.2001027E-1,-4.0861037E-2,1.8780515E-1,-1.01991706E-1,-2.1410381E-2,2.9637668E-1,2.7204373E-1,5.9642393E-2,5.904286E-2,-2.1623039E-1,3.6914286E-1,-2.1886578E-1,2.9695183E-1,-9.854802E-2,-2.8414848E-1,1.4376956E-1,-1.6782156E-1,2.0215319E-1,-3.037927E-1,-8.482797E-2,-7.7513023E-3,1.786605E-1,-5.4653008E-3,2.2815862E-1,-1.6088076E-2,2.543384E-1,-2.643143E-1,1.820557E-1,1.1241536E-2,2.4812582E-1,-2.6955524E-1,1.0788598E-1,5.9132674E-3,2.5607184E-1,-3.2664555E-1,-2.1698502E-1,-2.8709453E-1,2.4404489E-1,3.0293236E-2,2.5916603E-1,3.3215016E-1,2.8123873E-1,2.5719953E-1,3.1283352E-1,2.698528E-1,8.455725E-2,5.6381416E-2,-2.6883587E-1,2.7005082E-1,-4.097363E-2,2.1764825E-1,-4.7513213E-2,1.4100754E-1,2.660474E-1,2.400128E-1,1.0038068E-1,-2.167634E-1,2.2697596E-1,-5.6838162E-2,2.1454816E-1,6.545096E-2,2.7396175E-1,-1.4213382E-1,1.9403061E-1,1.1964541E-1,-3.5660827E-1,1.8899925E-2,-3.4795758E-1,5.5082124E-2,2.6939481E-1,-1.6572103E-1,1.8740444E-1,4.358216E-2,1.7038122E-1,1.0570147E-1,2.7791473E-1,6.9586965E-3,7.438379E-2,2.514813E-1,6.429189E-2],"categories":[],"categories_nodes":[],"categories_segments":[],"categories_sizes":[],"default_left":[0,0,0,0,0,0,0,0,0,0,0,0,0,0,0,0,0,0,0,0,0,0,0,0,0,0,0,0,0,0,0,0,0,0,0,0,0,0,0,0,0,0,0,0,0,0,0,0,0,0,0,0,0,0,0,0,0,0,0,0,0,0,0,0,0,0,0,0,0,0,0,0,0,0,0,0,0,0,0,0,0,0,0,0,0,0,0,0,0,0,0,0,0,0,0,0,0,0,0,0,0,0,0,0,0,0,0,0,0,0,0,0,0,0,0,0,0,0,0,0,0,0,0,0,0,0,0,0,0,0,0,0,0,0,0,0,0,0,0,0,0,0,0,0,0,0,0,0,0,0,0,0,0,0,0,0,0,0,0,0,0,0,0,0,0,0,0,0,0,0,0,0,0,0,0,0,0,0,0,0,0,0,0,0,0,0,0,0,0,0,0,0,0,0,0,0,0,0,0,0,0,0,0,0,0,0,0,0,0,0,0,0,0,0,0,0,0,0,0,0,0,0,0,0,0,0,0,0,0,0,0,0,0,0,0,0,0,0,0,0,0,0,0,0,0,0,0,0,0,0,0,0,0,0,0,0,0,0,0,0,0,0,0,0,0,0,0,0,0,0,0,0,0,0,0,0,0,0,0,0,0,0,0,0,0,0,0,0,0,0,0,0,0,0,0,0,0,0,0,0,0,0,0,0,0,0,0,0,0,0,0,0,0,0,0,0,0,0,0,0,0,0,0,0,0,0,0,0,0],"id":3,"left_children":[1,3,5,7,9,11,13,15,17,19,21,23,25,27,-1,29,31,33,35,37,39,41,43,45,47,49,-1,51,-1,53,55,57,59,61,63,65,67,69,71,73,75,77,79,81,83,85,87,89,91,93,95,-1,97,99,101,103,105,107,109,111,113,115,117,119,121,123,125,127,129,131,133,135,137,139,141,143,145,147,149,151,-1,153,155,157,159,161,163,165,167,169,171,-1,173,-1,-1,175,177,179,181,183,185,187,189,191,193,195,197,-1,199,201,203,205,207,209,211,213,215,217,219,221,223,225,227,-1,-1,229,231,233,235,237,239,241,243,245,247,249,251,253,255,257,259,261,263,265,267,269,271,-1,273,-1,275,-1,277,279,281,283,285,287,289,291,293,295,297,299,301,303,305,307,309,-1,311,313,-1,315,-1,317,319,321,323,325,-1,-1,327,-1,-1,-1,-1,-1,-1,-1,-1,-1,-1,-1,-1,-1,-1,-1,-1,-1,-1,-1,-1,-1,-1,-1,-1,-1,-1,-1,-1,-1,-1,-1,-1,-1,-1,-1,-1,-1,-1,-1,-1,-1,-1,-1,-1,-1,-1,-1,-1,-1,-1,-1,-1,-1,-1,-1,-1,-1,-1,-1,-1,-1,-1,-1,-1,-1,-1,-1,-1,-1,-1,-1,-1,-1,-1,-1,-1,-1,-1,-1,-1,-1,-1,-1,-1,-1,-1,-1,-1,-1,-1,-1,-1,-1,-1,-1,-1,-1,-1,-1,-1,-1,-1,-1,-1,-1,-1,-1,-1,-1,-1,-1,-1,-1,-1,-1,-1,-1,-1,-1,-1,-1,-1,-1,-1,-1,-1,-1,-1,-1,-1,-1,-1,-1,-1,-1,-1,-1,-1,-1,-1,-1,-1,-1,-1,-1,-1],"loss_changes":[1.734639E3,6.439111E2,9.111401E1,7.734391E2,3.9514343E2,1.1889374E1,8.5510254E-1,4.3699084E2,4.280556E2,3.9575958E2,1.7584149E2,1.1769394E1,1.4083237E1,7.5977707E0,0E0,2.8969647E2,2.5803268E2,2.6154358E2,3.4735516E2,1.6833148E2,1.8134528E2,4.1048985E1,1.7499811E2,1.3932556E1,1.9275932E1,4.8952255E0,0E0,1.6610107E0,0E0,2.3410315E2,5.8095404E2,7.0526794E1,1.8876456E2,3.0717172E2,3.1014777E2,8.1817505E1,1.8797417E2,2.2684726E2,1.4770157E2,2.3687035E2,1.7888995E2,1.5351509E1,1.0015649E1,1.0347201E2,6.04104E1,1.3924431E1,6.664551E0,1.54091835E1,9.952885E0,5.551362E0,2.892151E-1,0E0,1.8926544E0,3.9445732E1,9.446838E1,1.7606085E2,2.3889145E2,1.547934E1,8.365765E1,2.8618787E2,2.0886652E2,2.2071396E2,6.270056E1,2.742251E2,3.019765E2,1.8804722E0,7.974066E1,3.6358102E2,1.0112651E2,1.167409E2,8.570157E1,1.05437485E2,7.760895E1,8.709058E1,8.763226E1,4.017445E1,6.0997375E1,2.557177E1,4.256592E0,1.2442164E1,0E0,6.4794174E1,2.1412575E1,8.161957E0,8.0664185E1,2.060986E1,1.204998E0,5.016342E0,1.3394208E1,4.3966656E0,1.9163815E1,0E0,2.4601E1,0E0,0E0,4.9342384E0,1.0183716E-1,1.9647522E0,8.879038E0,5.912239E1,1.7034777E1,9.509741E1,7.039746E1,8.392053E1,1.0954485E2,2.0154903E2,1.967759E1,0E0,3.985597E1,5.0158615E0,9.46439E0,1.2636366E2,3.7618347E2,1.22412384E2,1.2554358E2,1.7548729E2,1.9352948E2,1.9089172E1,6.786324E1,1.08590454E2,1.3788226E2,3.0829156E2,1.1868353E2,0E0,0E0,1.1998883E2,3.708374E0,7.084535E1,6.640445E1,4.2513466E-1,9.62886E0,7.8765114E1,1.14922714E2,1.439119E2,1.7870758E1,4.8119522E1,6.799094E1,7.3964485E1,1.1083939E1,5.817337E1,2.295271E1,8.394165E0,1.727982E2,2.5749123E1,2.1718697E1,8.065217E1,4.4313843E1,0E0,2.9410486E0,0E0,1.843549E1,0E0,3.034488E0,5.8328903E1,1.19592285E1,1.156395E0,2.8142895E1,7.607237E0,8.225708E-1,2.104126E0,1.0865784E2,2.1667406E1,2.160936E1,2.9038563E0,8.710861E-2,3.8880768E0,8.291985E0,5.599014E0,3.6076927E-1,0E0,4.2635193E0,1.8154366E1,0E0,2.1232328E1,0E0,2.078188E0,4.1718426E0,1.5297961E-1,3.6149597E-1,6.768812E-2,0E0,0E0,1.506464E0,0E0,0E0,0E0,0E0,0E0,0E0,0E0,0E0,0E0,0E0,0E0,0E0,0E0,0E0,0E0,0E0,0E0,0E0,0E0,0E0,0E0,0E0,0E0,0E0,0E0,0E0,0E0,0E0,0E0,0E0,0E0,0E0,0E0,0E0,0E0,0E0,0E0,0E0,0E0,0E0,0E0,0E0,0E0,0E0,0E0,0E0,0E0,0E0,0E0,0E0,0E0,0E0,0E0,0E0,0E0,0E0,0E0,0E0,0E0,0E0,0E0,0E0,0E0,0E0,0E0,0E0,0E0,0E0,0E0,0E0,0E0,0E0,0E0,0E0,0E0,0E0,0E0,0E0,0E0,0E0,0E0,0E0,0E0,0E0,0E0,0E0,0E0,0E0,0E0,0E0,0E0,0E0,0E0,0E0,0E0,0E0,0E0,0E0,0E0,0E0,0E0,0E0,0E0,0E0,0E0,0E0,0E0,0E0,0E0,0E0,0E0,0E0,0E0,0E0,0E0,0E0,0E0,0E0,0E0,0E0,0E0,0E0,0E0,0E0,0E0,0E0,0E0,0E0,0E0,0E0,0E0,0E0,0E0,0E0,0E0,0E0,0E0,0E0,0E0,0E0,0E0,0E0,0E0,0E0,0E0,0E0],"parents":[2147483647,0,0,1,1,2,2,3,3,4,4,5,5,6,6,7,7,8,8,9,9,10,10,11,11,12,12,13,13,15,15,16,16,17,17,18,18,19,19,20,20,21,21,22,22,23,23,24,24,25,25,27,27,29,29,30,30,31,31,32,32,33,33,34,34,35,35,36,36,37,37,38,38,39,39,40,40,41,41,42,42,43,43,44,44,45,45,46,46,47,47,48,48,49,49,50,50,52,52,53,53,54,54,55,55,56,56,57,57,58,58,59,59,60,60,61,61,62,62,63,63,64,64,65,65,66,66,67,67,68,68,69,69,70,70,71,71,72,72,73,73,74,74,75,75,76,76,77,77,78,78,79,79,81,81,82,82,83,83,84,84,85,85,86,86,87,87,88,88,89,89,90,90,92,92,95,95,96,96,97,97,98,98,99,99,100,100,101,101,102,102,103,103,104,104,105,105,106,106,108,108,109,109,110,110,111,111,112,112,113,113,114,114,115,115,116,116,117,117,118,118,119,119,120,120,121,121,122,122,125,125,126,126,127,127,128,128,129,129,130,130,131,131,132,132,133,133,134,134,135,135,136,136,137,137,138,138,139,139,140,140,141,141,142,142,143,143,144,144,145,145,146,146,148,148,150,150,152,152,153,153,154,154,155,155,156,156,157,157,158,158,159,159,160,160,161,161,162,162,163,163,164,164,165,165,166,166,167,167,168,168,170,170,171,171,173,173,175,175,176,176,177,177,178,178,179,179,182,182],"right_children":[2,4,6,8,10,12,14,16,18,20,22,24,26,28,-1,30,32,34,36,38,40,42,44,46,48,50,-1,52,-1,54,56,58,60,62,64,66,68,70,72,74,76,78,80,82,84,86,88,90,92,94,96,-1,98,100,102,104,106,108,110,112,114,116,118,120,122,124,126,128,130,132,134,136,138,140,142,144,146,148,150,152,-1,154,156,158,160,162,164,166,168,170,172,-1,174,-1,-1,176,178,180,182,184,186,188,190,192,194,196,198,-1,200,202,204,206,208,210,212,214,216,218,220,222,224,226,228,-1,-1,230,232,234,236,238,240,242,244,246,248,250,252,254,256,258,260,262,264,266,268,270,272,-1,274,-1,276,-1,278,280,282,284,286,288,290,292,294,296,298,300,302,304,306,308,310,-1,312,314,-1,316,-1,318,320,322,324,326,-1,-1,328,-1,-1,-1,-1,-1,-1,-1,-1,-1,-1,-1,-1,-1,-1,-1,-1,-1,-1,-1,-1,-1,-1,-1,-1,-1,-1,-1,-1,-1,-1,-1,-1,-1,-1,-1,-1,-1,-1,-1,-1,-1,-1,-1,-1,-1,-1,-1,-1,-1,-1,-1,-1,-1,-1,-1,-1,-1,-1,-1,-1,-1,-1,-1,-1,-1,-1,-1,-1,-1,-1,-1,-1,-1,-1,-1,-1,-1,-1,-1,-1,-1,-1,-1,-1,-1,-1,-1,-1,-1,-1,-1,-1,-1,-1,-1,-1,-1,-1,-1,-1,-1,-1,-1,-1,-1,-1,-1,-1,-1,-1,-1,-1,-1,-1,-1,-1,-1,-1,-1,-1,-1,-1,-1,-1,-1,-1,-1,-1,-1,-1,-1,-1,-1,-1,-1,-1,-1,-1,-1,-1,-1,-1,-1,-1,-1,-1],"split_conditions":[1.9272581E0,2.5507407E0,2.1754942E0,5.105039E-1,-2.5907472E-2,1.437613E0,2.2367337E0,-7.040159E-2,1.0333738E0,4.1410666E0,-1.1421009E0,4.893583E-1,7.1514916E-1,7.1514916E-1,2.705858E-1,1.0333738E0,-1.1353998E0,-9.962291E-1,-3.873377E-1,1.6932091E-1,-1.1558075E0,2.3124158E0,-1.9005083E-2,4.5895395E-3,-5.52268E-2,1.8364458E-1,-1.8181127E-1,-4.202139E-1,-1.6548152E-1,-1.7042719E-1,1.9950849E0,1.0048548E0,1.8795262E-1,-3.7900123E-1,1.6518575E0,-2.010481E-1,8.8369536E-1,-1.2414812E-1,-7.32095E-1,5.789204E0,-1.1173651E0,-3.1103611E-2,1.0333738E0,-7.0607245E-2,-8.029976E-2,1.7828571E0,7.739547E-2,6.4195883E-1,8.880614E-2,2.3091918E-2,-1.0096334E-1,3.0647201E-2,6.910651E-2,-7.1665406E-2,-6.0905393E-2,-7.004656E-2,2.0298831E-1,-1.1394781E0,1.0333738E0,1.444124E-1,-2.5907472E-2,1.1721509E0,-1.1472864E0,-6.6376054E-1,-7.32095E-1,1.8886378E0,3.5670675E-2,1.2274177E0,-5.7876594E-3,-7.32095E-1,-2.1386392E0,1.1894299E0,3.213378E0,1.82692E0,-4.050018E0,-2.6536286E-1,4.769101E0,1.0333738E0,1.7395613E0,2.4973469E0,2.6130757E-1,-1.9291166E-2,1.1270406E0,-1.8097095E-1,-1.1675222E-1,1.0333738E0,-2.6327136E-1,4.1289705E-1,1.246665E-1,-1.6969629E-2,3.271863E-1,-3.404074E-1,1.7395613E0,1.9344759E-1,-1.5764807E-1,-8.972138E-2,1.1740592E0,-2.3607695E-2,7.473176E-2,-7.32095E-1,-1.7415829E-1,-2.2770809E-1,-5.2399036E-2,-6.267027E-2,-3.225248E-2,-4.0774826E-2,-1.5429405E0,-3.3220127E-1,1.7395613E0,3.271863E-1,-2.197774E-1,-1.7563904E-2,-1.0343808E0,2.764563E-1,8.048941E-2,-2.0339947E0,-9.4395125E-1,-2.445681E-1,-2.5907472E-2,-1.7234752E0,-2.3524698E-2,3.366114E0,-2.9725397E-1,-3.0395314E-1,-1.882174E-2,6.0206884E-1,1.7395613E0,-1.2268099E-2,6.936982E-3,-1.073274E0,-3.5890423E-2,-5.4473426E-2,3.268484E0,-3.7900123E-1,9.051783E-3,-9.4395125E-1,-4.589977E-2,-9.785309E-2,6.250119E-1,-6.2233055E-1,-3.4887806E-2,-7.0627175E-2,3.077018E-1,-9.4395125E-1,5.1900253E0,-9.4395125E-1,-2.653111E-2,-2.8362656E-1,3.9025486E0,-2.9389086E-1,1.4604062E0,-2.704321E-1,3.271863E-1,1.0333738E0,-1.0988388E0,1.7395613E0,1.0333738E0,3.271863E-1,2.8535042E0,-5.908634E-2,-1.8938687E0,-6.867466E-2,-6.007885E-2,-2.3729259E-1,1.9403695E0,1.7479329E-1,-1.1558075E0,1.7395613E0,3.076041E-1,-2.655253E-1,1.7395613E0,-3.6623192E-1,2.9144835E-1,-5.9584993E-1,2.8946227E-1,2.1965437E0,-9.4395125E-1,1.4405511E-1,1.8832117E-1,3.271863E-1,2.6667556E-1,-1.9626242E-1,2.3091918E-2,-7.351392E-2,2.6254106E-1,-1.8361531E-1,1.1081918E-1,2.279724E-2,-2.646837E-1,-1.701953E-2,-3.163506E-1,-2.61642E-1,1.331311E-3,9.786794E-2,-2.523714E-1,1.7059433E-1,-2.5656018E-1,-3.2414716E-2,-3.297478E-1,-3.0787298E-1,1.21073306E-1,-3.0666003E-1,-9.3288E-2,4.568212E-1,7.159761E-2,-4.3496754E-2,1.2424432E-2,1.5858226E-2,-1.1318155E-1,-8.2951665E-2,1.4537911E-1,4.7645878E-2,2.5663587E-1,7.2442E-2,-1.1843802E-1,3.520977E-2,2.3737827E-1,2.145211E-1,3.2598314E-1,-2.6743818E-2,2.2807215E-1,1.1765782E-1,-2.0134068E-1,-7.903338E-2,4.9794756E-2,-1.4134793E-1,7.970176E-2,2.1930873E-1,6.466746E-2,-6.777542E-2,2.533939E-1,3.2735953E-1,3.9910397E-1,-2.3283587E-1,2.817263E-1,2.338711E-1,-1.4579675E-1,-2.757895E-1,-6.361015E-2,3.3791354E-1,1.8996798E-1,-1.4670579E-1,1.7277285E-1,-3.466128E-2,2.0591047E-1,-2.0481601E-1,1.9074179E-1,-3.068097E-1,-1.990966E-1,-2.2001027E-1,-4.0861037E-2,1.8780515E-1,-1.01991706E-1,-2.1410381E-2,2.9637668E-1,2.7204373E-1,5.9642393E-2,5.904286E-2,-2.1623039E-1,3.6914286E-1,-2.1886578E-1,2.9695183E-1,-9.854802E-2,-2.8414848E-1,1.4376956E-1,-1.6782156E-1,2.0215319E-1,-3.037927E-1,-8.482797E-2,-7.7513023E-3,1.786605E-1,-5.4653008E-3,2.2815862E-1,-1.6088076E-2,2.543384E-1,-2.643143E-1,1.820557E-1,1.1241536E-2,2.4812582E-1,-2.6955524E-1,1.0788598E-1,5.9132674E-3,2.5607184E-1,-3.2664555E-1,-2.1698502E-1,-2.8709453E-1,2.4404489E-1,3.0293236E-2,2.5916603E-1,3.3215016E-1,2.8123873E-1,2.5719953E-1,3.1283352E-1,2.698528E-1,8.455725E-2,5.6381416E-2,-2.6883587E-1,2.7005082E-1,-4.097363E-2,2.1764825E-1,-4.7513213E-2,1.4100754E-1,2.660474E-1,2.400128E-1,1.0038068E-1,-2.167634E-1,2.2697596E-1,-5.6838162E-2,2.1454816E-1,6.545096E-2,2.7396175E-1,-1.4213382E-1,1.9403061E-1,1.1964541E-1,-3.5660827E-1,1.8899925E-2,-3.4795758E-1,5.5082124E-2,2.6939481E-1,-1.6572103E-1,1.8740444E-1,4.358216E-2,1.7038122E-1,1.0570147E-1,2.7791473E-1,6.9586965E-3,7.438379E-2,2.514813E-1,6.429189E-2],"split_indices":[1,28,11,19,0,21,2,27,0,28,6,20,25,25,0,0,6,15,14,19,0,18,18,22,24,29,0,32,0,12,28,18,33,0,21,22,28,15,0,28,5,13,0,32,33,17,25,20,28,17,25,0,32,17,31,29,15,5,0,20,0,19,15,1,0,1,26,21,20,0,16,18,28,19,16,30,28,0,0,18,0,23,6,12,14,0,13,15,28,26,0,0,0,0,0,24,20,18,32,0,12,13,12,31,13,16,16,0,0,0,13,18,12,1,30,14,0,24,0,27,25,22,16,0,0,22,0,33,25,4,16,31,28,0,11,0,15,30,1,15,16,30,18,0,28,0,18,0,28,0,18,0,0,0,1,0,0,0,28,19,16,32,23,12,7,33,0,0,19,0,0,12,0,14,0,21,0,32,29,0,0,0,17,0,0,0,0,0,0,0,0,0,0,0,0,0,0,0,0,0,0,0,0,0,0,0,0,0,0,0,0,0,0,0,0,0,0,0,0,0,0,0,0,0,0,0,0,0,0,0,0,0,0,0,0,0,0,0,0,0,0,0,0,0,0,0,0,0,0,0,0,0,0,0,0,0,0,0,0,0,0,0,0,0,0,0,0,0,0,0,0,0,0,0,0,0,0,0,0,0,0,0,0,0,0,0,0,0,0,0,0,0,0,0,0,0,0,0,0,0,0,0,0,0,0,0,0,0,0,0,0,0,0,0,0,0,0,0,0,0,0,0,0,0,0,0,0,0,0],"split_type":[0,0,0,0,0,0,0,0,0,0,0,0,0,0,0,0,0,0,0,0,0,0,0,0,0,0,0,0,0,0,0,0,0,0,0,0,0,0,0,0,0,0,0,0,0,0,0,0,0,0,0,0,0,0,0,0,0,0,0,0,0,0,0,0,0,0,0,0,0,0,0,0,0,0,0,0,0,0,0,0,0,0,0,0,0,0,0,0,0,0,0,0,0,0,0,0,0,0,0,0,0,0,0,0,0,0,0,0,0,0,0,0,0,0,0,0,0,0,0,0,0,0,0,0,0,0,0,0,0,0,0,0,0,0,0,0,0,0,0,0,0,0,0,0,0,0,0,0,0,0,0,0,0,0,0,0,0,0,0,0,0,0,0,0,0,0,0,0,0,0,0,0,0,0,0,0,0,0,0,0,0,0,0,0,0,0,0,0,0,0,0,0,0,0,0,0,0,0,0,0,0,0,0,0,0,0,0,0,0,0,0,0,0,0,0,0,0,0,0,0,0,0,0,0,0,0,0,0,0,0,0,0,0,0,0,0,0,0,0,0,0,0,0,0,0,0,0,0,0,0,0,0,0,0,0,0,0,0,0,0,0,0,0,0,0,0,0,0,0,0,0,0,0,0,0,0,0,0,0,0,0,0,0,0,0,0,0,0,0,0,0,0,0,0,0,0,0,0,0,0,0,0,0,0,0,0,0,0,0,0,0,0,0,0,0,0,0,0,0,0,0,0,0,0,0,0,0,0,0],"sum_hessian":[2.7939982E4,2.6613986E4,1.3259965E3,2.1934926E4,4.6790605E3,5.14806E2,8.111904E2,1.4829303E4,7.1056235E3,3.3548333E3,1.3242273E3,4.270405E2,8.776552E1,9.119161E1,7.199988E2,2.53533E3,1.2293973E4,6.023038E3,1.0825856E3,1.7456942E3,1.6091392E3,8.782675E1,1.2364006E3,3.103456E2,1.1669491E2,8.5187355E1,2.5781677E0,8.997891E1,1.2126983E0,1.2280603E3,1.3072698E3,2.1726079E2,1.2076712E4,2.1666016E3,3.8564365E3,5.7320416E2,5.0938147E2,1.0654095E3,6.802846E2,5.6017346E2,1.0489657E3,6.689651E1,2.093024E1,1.9277402E2,1.0436266E3,1.4196149E2,1.6838412E2,7.085703E1,4.5837875E1,5.385731E0,7.980162E1,1.7712126E0,8.82077E1,1.2562946E2,1.1024309E3,7.179544E2,5.893154E2,1.8095874E2,3.6302055E1,1.1080074E4,9.966374E2,1.7284678E3,4.3813364E2,2.0250266E3,1.8314098E3,1.0656401E1,5.625477E2,3.852335E2,1.2414798E2,6.04379E2,4.6103055E2,3.8112463E2,2.9915994E2,2.5274765E2,3.0742584E2,1.0670786E2,9.422578E2,1.5672512E1,5.1224E1,1.1571146E1,9.359094E0,1.3448453E2,5.828948E1,2.210156E2,8.2261096E2,1.10568596E2,3.1392887E1,1.3858923E2,2.9794888E1,7.017305E0,6.383973E1,2.429534E0,4.340834E1,3.1624699E0,2.2232616E0,2.1117233E1,5.8684387E1,7.366741E1,1.4540294E1,8.763742E1,3.799204E1,9.294792E2,1.7295169E2,5.463339E2,1.716205E2,5.266638E2,6.265162E1,1.4097299E2,3.9985737E1,2.1939058E1,1.4362998E1,6.6166074E3,4.4634673E3,5.366148E2,4.6002258E2,8.232376E2,9.052302E2,2.6905194E2,1.6908171E2,6.7193835E2,1.3530883E3,1.00912866E3,8.222812E2,9.4911585E0,1.1652426E0,3.3409674E2,2.28451E2,2.238276E2,1.6140588E2,1.3469429E1,1.1067855E2,2.8173868E2,3.2264035E2,1.7519362E2,2.858369E2,2.400248E2,1.4109985E2,1.6935146E2,1.298085E2,2.3527081E2,1.7476835E1,8.680839E1,2.2061745E2,3.2214104E1,7.449376E1,3.9735956E2,5.448983E2,7.0754747E0,8.597036E0,3.3406063E1,1.7817936E1,3.7173412E0,7.853805E0,6.531485E1,6.9169685E1,4.428644E1,1.4003036E1,2.4554596E1,1.96461E2,2.1312463E2,6.094863E2,6.656313E1,4.4005455E1,5.274559E0,2.6118328E1,1.3383444E2,4.7547946E0,1.7325918E1,1.246897E1,2.9568725E0,4.0604324E0,3.185299E1,3.198674E1,3.4376823E1,9.03152E0,1.7665499E1,3.4517343E0,2.7612495E0,5.5923138E1,2.3731127E0,7.12943E1,1.6711842E0,1.286911E1,3.300193E1,5.463549E1,2.7970306E1,1.002173E1,4.8400364E1,8.810788E2,1.3272113E2,4.0230556E1,4.9250943E2,5.382447E1,1.2233591E2,4.9284584E1,4.788838E2,4.778003E1,1.0994807E1,5.165681E1,2.8327126E1,1.1658612E1,1.403814E1,7.900917E0,1.0548647E1,3.814351E0,2.8049329E3,3.8116743E3,1.2579862E3,3.205481E3,4.1639404E2,1.2022075E2,2.3131136E2,2.2871123E2,3.0571625E2,5.1752136E2,6.362862E2,2.68944E2,1.2624732E2,1.4280461E2,7.321229E1,9.586943E1,4.516416E1,6.267742E2,7.698604E2,5.832279E2,5.2428125E2,4.8484738E2,3.3590082E2,4.8638037E2,5.5372124E1,2.787246E2,1.4622597E2,8.222503E1,2.1338264E2,1.0444956E1,1.40917E2,2.0488874E1,1.23565445E1,1.1128848E0,8.2283585E1,2.8394964E1,2.4734271E2,3.4395977E1,1.844665E2,1.3817383E2,1.2394896E2,5.1244656E1,1.7780019E2,1.0803673E2,1.18341995E2,1.216828E2,9.228364E1,4.881621E1,1.3280492E2,3.6546535E1,1.1839279E2,1.1415712E1,3.5821583E1,1.9944923E2,1.498267E1,2.4941654E0,8.5052284E1,1.7561055E0,4.7194664E1,1.7342279E2,1.0313387E1,2.1900717E1,3.2316845E1,4.2176914E1,1.4712617E2,2.5023338E2,3.4629574E1,5.102687E2,1.8886943E0,6.7083426E0,1.3657005E1,4.1609316E0,4.3978033E0,3.456002E0,2.7258024E1,3.8056828E1,8.786306E0,6.0383377E1,2.8126623E1,1.6159819E1,6.598466E0,7.4045696E0,9.595509E0,1.4959087E1,1.03373856E2,9.308714E1,1.2026207E2,9.2862564E1,1.7933722E2,4.301491E2,5.804658E1,8.516556E0,3.2092953E1,1.1912505E1,2.9486854E0,2.3258739E0,4.0689826E0,2.2049345E1,1.2316945E2,1.066499E1,2.2353153E0,2.5194793E0,1.4545271E1,2.780647E0,1.1046739E0,1.1364296E1,2.1189964E0,1.941436E0,2.92454E1,2.6075904E0,2.7195326E1,7.1814966E0,2.713169E0,1.495233E1,2.0818233E0,1.369911E0,1.6176076E0,1.1436421E0,2.1323705E0,5.3790768E1,1.1178192E0,1.2552936E0,9.814554E0,3.054556E0],"tree_param":{"num_deleted":"0","num_feature":"34","num_nodes":"329","size_leaf_vector":"0"}},{"base_weights":[8.189525E-3,-5.5078372E-2,7.827167E-1,-1.0371133E-1,3.2663742E-1,4.8381767E-1,1.1750538E0,-1.8602933E-1,1.753281E-1,1.0101251E-1,6.623098E-1,4.194184E-1,8.84468E-1,9.5207983E-1,2.533654E-1,3.5606772E-1,-2.2145215E-1,5.9329785E-2,6.238069E-1,-2.6420864E-1,4.0547237E-1,-2.1044569E-1,8.1294906E-1,3.8659093E-1,1.3579152E0,-6.203375E-1,9.8760575E-1,9.771581E-1,-1.8760125E-1,-6.05287E-1,5.440925E-1,-2.8641847E-1,6.612189E-2,-7.573275E-2,4.1349602E-1,1.228897E0,3.2623768E-1,-1.1690792E-1,-1.2167314E0,-9.637965E-1,4.7820067E-1,6.565194E-1,-4.624977E-1,9.660537E-1,5.11214E-1,4.053082E-1,-8.9409685E-1,3.213922E-1,8.6893475E-1,2.107188E-1,-1.1613477E0,1.1935707E0,5.0166005E-1,1.1499438E0,7.8905845E-1,9.476829E-1,-1.3366363E0,1.2909467E0,3.9657348E-1,-4.0851885E-1,-1.06965885E-1,-1.352004E0,1.029752E-1,2.5661522E-1,-3.3384982E-1,9.8926075E-2,9.782645E-1,9.8820055E-1,1.4932562E0,-5.0527237E-2,9.3738556E-1,-1.4719528E0,-1.3519919E-3,-1.5337946E0,-5.761739E-1,-2.0024106E-1,-1.3827647E0,1.7600797E-1,7.955533E-1,2.6034674E-1,2.7224103E-1,3.1007835E-1,-7.832203E-1,7.422894E-1,1.175941E0,2.2209755E-1,1.1500967E0,3.650165E-1,9.3896216E-1,4.154304E-2,-3.0159473E-1,-3.7306678E-1,3.3525977E-1,-2.8757823E-1,7.913523E-2,1.3276498E0,-3.7562692E-1,-2.587802E-1,8.540812E-1,1.2115566E0,8.2132286E-1,4.8616388E-1,1.0211303E0,-3.795109E-1,1.354557E0,-1.7072892E0,2.1409218E-1,3.694885E-1,1.4508065E0,-2.1310234E-1,7.4623066E-1,-5.457528E-1,-1.5888277E-1,-2.3367767E-1,6.601167E-1,-1.4741477E0,-4.832635E-1,-1.4045953E0,1.288198E-1,-6.031477E-2,8.1181926E-1,-4.8730662E-1,2.4125221E-1,-4.2459562E-1,4.8537913E-1,6.7865604E-1,1.3435507E0,5.8783823E-1,1.4177799E0,1.507916E0,-4.6749536E-2,-4.0427408E-1,8.6950433E-1,5.4910976E-1,1.3302487E0,-1.7258564E0,-1.7612344E-1,-3.9232886E-1,5.2892864E-1,3.925954E-1,-3.22795E-1,-1.23002E0,3.465795E-2,-6.997574E-1,2.2219895E-1,-6.000499E-1,-3.086319E-1,1.2543674E0,-6.51041E-2,1.0666724E0,2.7139828E-1,-2.735699E-1,9.0798736E-1,-8.527179E-1,9.1881484E-1,-2.579425E-1,-2.5585878E-1,-8.2467427E-4,9.3588513E-1,9.16051E-1,1.2879423E0,1.02718E0,-3.5560858E-1,1.5295732E-2,1.241878E0,2.8022465E-1,6.965931E-1,3.901017E-1,1.308531E0,-2.7045688E-1,2.3602791E-1,7.3381233E-1,1.5226607E0,-2.893748E-1,2.6369044E-1,1.3332847E0,-7.828731E-1,6.215404E-1,1.2432756E0,2.4252434E-1,-8.6312495E-2,-4.6876782E-1,6.1543757E-1,1.081085E0,-1.1136379E-1,3.2626975E-1,-2.8578937E-2,-3.59977E-1,2.0751934E-1,1.48215E-1,-2.9937416E-1,-3.32891E-1,2.2950974E-1,2.4075447E-2,3.0156422E-1,-1.3224569E-1,2.5684127E-1,2.6048824E-1,8.7888345E-2,-1.789292E-1,-8.6474404E-2,-2.4468534E-1,-1.6038178E-2,-6.7304045E-2,1.2484548E-1,1.7139612E-1,-1.0264305E-1,-3.0326423E-1,1.7956963E-2,-2.78886E-1,2.5804612E-1,-2.9235158E-2,-2.8784212E-1,-1.5199877E-2,6.85118E-2,-1.0097171E-1,7.877918E-2,1.034385E-1,3.374878E-1,-1.7892626E-1,-4.8950773E-2,-8.295639E-2,1.4782299E-1,1.5956907E-1,-1.4830647E-1,1.8876547E-2,2.3675978E-1,-1.3560353E-1,1.7600863E-1,4.3942593E-2,2.962534E-1,-3.2164773E-1,1.8407254E-1,2.0818944E-1,3.0089742E-1,3.3033416E-1,2.4332671E-1,-1.665097E-1,1.2763245E-1,2.1310239E-1,-3.3132398E-1,-1.570011E-1,1.6828781E-1,2.9168817E-1,9.965237E-2,-4.136909E-1,-2.6406845E-1,-2.4821873E-1,2.31068E-1,-1.11887716E-1,2.522399E-1,-6.505918E-2,2.0688196E-1,1.026953E-1,2.3133568E-2,-2.6944277E-1,5.001971E-2,-2.0126553E-1,2.532462E-1,-2.8742072E-1,1.0234014E-1,-2.5920692E-1,1.8505871E-1,2.593955E-1,-8.411416E-2,-2.4500059E-1,6.2392592E-2,1.4186062E-1,2.7087295E-1,2.3478334E-1,-7.193885E-2,3.1979892E-2,2.5594908E-1,-2.639556E-3,-2.7266362E-1,7.92588E-2,2.6578897E-1,-1.4904402E-1,2.0089062E-1,1.9369476E-1,-1.9147043E-1,2.5507933E-1,1.0170578E-1,2.6603803E-1,6.809739E-2,2.195982E-1,2.6601478E-1,-1.6603619E-1,2.272204E-1,-2.4210916E-1,1.0849984E-2,-2.3182392E-1,1.7897235E-1,1.9146498E-1,2.705956E-1,7.050767E-2,-6.273566E-2,1.7113326E-2,1.7191632E-1,-7.732077E-2,1.7490174E-1,2.6965234E-1,6.181381E-2,2.4317423E-1,-2.918826E-1,3.241336E-1,1.3448094E-1,-1.6917266E-1,3.2498345E-1,-3.079688E-1,1.3277738E-1,-5.313013E-2,1.6740026E-1,2.5177795E-1,1.2631002E-1,-1.8398848E-1,2.1589589E-1,-2.6291147E-1,1.856591E-1,2.8958568E-2,1.6922037E-1,1.6801018E-2,2.2696085E-1,-1.9731577E-1,1.6815548E-1],"categories":[],"categories_nodes":[],"categories_segments":[],"categories_sizes":[],"default_left":[0,0,0,0,0,0,0,0,0,0,0,0,0,0,0,0,0,0,0,0,0,0,0,0,0,0,0,0,0,0,0,0,0,0,0,0,0,0,0,0,0,0,0,0,0,0,0,0,0,0,0,0,0,0,0,0,0,0,0,0,0,0,0,0,0,0,0,0,0,0,0,0,0,0,0,0,0,0,0,0,0,0,0,0,0,0,0,0,0,0,0,0,0,0,0,0,0,0,0,0,0,0,0,0,0,0,0,0,0,0,0,0,0,0,0,0,0,0,0,0,0,0,0,0,0,0,0,0,0,0,0,0,0,0,0,0,0,0,0,0,0,0,0,0,0,0,0,0,0,0,0,0,0,0,0,0,0,0,0,0,0,0,0,0,0,0,0,0,0,0,0,0,0,0,0,0,0,0,0,0,0,0,0,0,0,0,0,0,0,0,0,0,0,0,0,0,0,0,0,0,0,0,0,0,0,0,0,0,0,0,0,0,0,0,0,0,0,0,0,0,0,0,0,0,0,0,0,0,0,0,0,0,0,0,0,0,0,0,0,0,0,0,0,0,0,0,0,0,0,0,0,0,0,0,0,0,0,0,0,0,0,0,0,0,0,0,0,0,0,0,0,0,0,0,0,0,0,0,0,0,0,0,0,0,0,0,0,0,0,0,0,0,0,0,0,0,0,0,0,0,0,0,0,0,0,0,0,0,0,0,0,0,0,0,0,0,0,0,0,0,0,0,0,0,0],"id":4,"left_children":[1,3,5,7,9,11,13,15,17,19,21,23,25,27,-1,29,31,33,35,37,39,41,43,45,47,49,51,53,-1,55,57,59,61,63,65,67,69,71,73,75,77,79,81,83,85,87,89,-1,91,-1,93,95,97,99,101,103,105,107,109,111,113,115,117,119,121,123,125,127,129,131,133,135,137,139,141,143,145,147,149,151,-1,153,155,157,159,161,163,165,167,169,-1,-1,-1,-1,-1,171,173,-1,175,177,179,181,183,-1,185,187,189,191,193,195,197,199,201,203,205,207,209,211,213,215,217,219,221,223,225,227,229,231,233,235,-1,237,239,241,243,245,247,249,251,253,-1,255,257,259,-1,261,-1,263,265,267,269,-1,271,273,275,-1,277,279,281,283,285,287,289,291,293,295,297,299,301,-1,-1,303,305,-1,-1,307,309,311,313,-1,315,317,319,321,323,-1,-1,-1,-1,-1,-1,-1,-1,-1,-1,-1,-1,-1,-1,-1,-1,-1,-1,-1,-1,-1,-1,-1,-1,-1,-1,-1,-1,-1,-1,-1,-1,-1,-1,-1,-1,-1,-1,-1,-1,-1,-1,-1,-1,-1,-1,-1,-1,-1,-1,-1,-1,-1,-1,-1,-1,-1,-1,-1,-1,-1,-1,-1,-1,-1,-1,-1,-1,-1,-1,-1,-1,-1,-1,-1,-1,-1,-1,-1,-1,-1,-1,-1,-1,-1,-1,-1,-1,-1,-1,-1,-1,-1,-1,-1,-1,-1,-1,-1,-1,-1,-1,-1,-1,-1,-1,-1,-1,-1,-1,-1,-1,-1,-1,-1,-1,-1,-1,-1,-1,-1,-1,-1,-1,-1,-1,-1,-1,-1,-1,-1,-1,-1,-1,-1,-1,-1,-1,-1,-1],"loss_changes":[1.3336306E3,4.6710962E2,2.4044702E2,5.1267114E2,2.1529361E2,2.9771118E1,1.696521E1,3.310207E2,2.6447552E2,1.8932986E2,1.5042297E2,3.0540863E1,2.5580307E1,1.3380325E1,0E0,1.9147485E2,3.0226202E2,1.9332117E2,1.8771356E2,1.08492676E2,9.292052E1,3.7237263E1,4.454059E1,2.3750183E1,2.7052727E0,1.1124622E1,1.4508377E1,7.5427094E0,0E0,1.9827826E2,9.6993256E1,2.891123E2,1.5598947E2,2.5109933E2,1.981188E2,2.0416443E1,1.6162106E2,1.0517079E2,2.0155487E1,1.4809505E1,8.447342E1,1.0389296E1,3.283458E1,2.944635E1,6.074823E1,2.0348602E1,8.313995E0,0E0,3.3023605E1,0E0,4.3314734E0,2.2649918E1,3.062865E1,1.7044373E0,8.477737E0,6.753877E1,6.838577E1,2.0901077E1,1.58011E2,2.6894324E2,5.196571E2,7.3099823E0,1.13462814E2,2.2522284E2,1.4550673E2,1.4540712E2,4.2757507E1,3.064743E1,4.454193E0,1.419391E2,4.0098694E1,1.70606E1,1.2872878E2,1.1243637E1,1.4380893E1,1.2487053E1,2.8756294E0,1.1792284E2,6.0826874E1,2.8522196E1,0E0,2.860299E1,2.4572533E1,4.5341797E1,8.466644E0,1.0669231E2,1.0672791E1,2.5006699E1,1.306353E1,1.2172654E1,0E0,0E0,0E0,0E0,0E0,1.0140701E1,1.836254E1,0E0,3.2110054E1,1.289093E0,8.683582E0,7.361021E0,4.9666824E0,0E0,2.0825813E1,2.6171661E1,2.2494299E1,3.8081184E1,9.199585E0,1.8246053E2,7.976584E1,2.00047E2,2.3337756E2,4.049867E2,1.7552325E2,4.4758453E0,1.9262955E1,1.9278793E0,1.2520312E2,1.6487827E2,1.1911432E2,1.2829156E2,1.13858604E2,1.1888638E2,1.12769936E2,6.104178E1,2.734439E1,7.191345E1,1.2958527E0,4.72287E0,0E0,1.4112077E2,6.1743652E1,5.3825672E1,1.3388199E1,3.3841095E0,1.5274006E1,9.945952E1,1.1411688E2,5.9417367E-2,0E0,3.3494396E0,2.6316927E1,1.2847593E1,0E0,8.403517E0,0E0,6.459793E0,1.6279861E2,2.8146698E1,8.469454E1,0E0,5.109891E0,5.9934025E0,5.1048546E0,0E0,2.9687695E1,6.2246418E1,3.562889E1,2.4163002E1,3.7332153E-1,2.031752E1,4.696495E1,1.0017692E1,1.7068329E0,3.0839985E1,1.80392E1,1.1005469E1,1.1544418E0,0E0,0E0,2.9224112E1,4.9312134E0,0E0,0E0,2.1078556E1,1.1533834E1,1.6790128E0,1.940155E-1,0E0,8.9720955E0,9.962803E0,5.402481E0,3.540512E0,4.575542E0,0E0,0E0,0E0,0E0,0E0,0E0,0E0,0E0,0E0,0E0,0E0,0E0,0E0,0E0,0E0,0E0,0E0,0E0,0E0,0E0,0E0,0E0,0E0,0E0,0E0,0E0,0E0,0E0,0E0,0E0,0E0,0E0,0E0,0E0,0E0,0E0,0E0,0E0,0E0,0E0,0E0,0E0,0E0,0E0,0E0,0E0,0E0,0E0,0E0,0E0,0E0,0E0,0E0,0E0,0E0,0E0,0E0,0E0,0E0,0E0,0E0,0E0,0E0,0E0,0E0,0E0,0E0,0E0,0E0,0E0,0E0,0E0,0E0,0E0,0E0,0E0,0E0,0E0,0E0,0E0,0E0,0E0,0E0,0E0,0E0,0E0,0E0,0E0,0E0,0E0,0E0,0E0,0E0,0E0,0E0,0E0,0E0,0E0,0E0,0E0,0E0,0E0,0E0,0E0,0E0,0E0,0E0,0E0,0E0,0E0,0E0,0E0,0E0,0E0,0E0,0E0,0E0,0E0,0E0,0E0,0E0,0E0,0E0,0E0,0E0,0E0,0E0,0E0,0E0,0E0,0E0,0E0,0E0,0E0,0E0,0E0,0E0,0E0,0E0,0E0],"parents":[2147483647,0,0,1,1,2,2,3,3,4,4,5,5,6,6,7,7,8,8,9,9,10,10,11,11,12,12,13,13,15,15,16,16,17,17,18,18,19,19,20,20,21,21,22,22,23,23,24,24,25,25,26,26,27,27,29,29,30,30,31,31,32,32,33,33,34,34,35,35,36,36,37,37,38,38,39,39,40,40,41,41,42,42,43,43,44,44,45,45,46,46,48,48,50,50,51,51,52,52,53,53,54,54,55,55,56,56,57,57,58,58,59,59,60,60,61,61,62,62,63,63,64,64,65,65,66,66,67,67,68,68,69,69,70,70,71,71,72,72,73,73,74,74,75,75,76,76,77,77,78,78,79,79,81,81,82,82,83,83,84,84,85,85,86,86,87,87,88,88,89,89,95,95,96,96,98,98,99,99,100,100,101,101,102,102,104,104,105,105,106,106,107,107,108,108,109,109,110,110,111,111,112,112,113,113,114,114,115,115,116,116,117,117,118,118,119,119,120,120,121,121,122,122,123,123,124,124,125,125,126,126,127,127,128,128,129,129,131,131,132,132,133,133,134,134,135,135,136,136,137,137,138,138,139,139,141,141,142,142,143,143,145,145,147,147,148,148,149,149,150,150,152,152,153,153,154,154,156,156,157,157,158,158,159,159,160,160,161,161,162,162,163,163,164,164,165,165,166,166,167,167,168,168,171,171,172,172,175,175,176,176,177,177,178,178,180,180,181,181,182,182,183,183,184,184],"right_children":[2,4,6,8,10,12,14,16,18,20,22,24,26,28,-1,30,32,34,36,38,40,42,44,46,48,50,52,54,-1,56,58,60,62,64,66,68,70,72,74,76,78,80,82,84,86,88,90,-1,92,-1,94,96,98,100,102,104,106,108,110,112,114,116,118,120,122,124,126,128,130,132,134,136,138,140,142,144,146,148,150,152,-1,154,156,158,160,162,164,166,168,170,-1,-1,-1,-1,-1,172,174,-1,176,178,180,182,184,-1,186,188,190,192,194,196,198,200,202,204,206,208,210,212,214,216,218,220,222,224,226,228,230,232,234,236,-1,238,240,242,244,246,248,250,252,254,-1,256,258,260,-1,262,-1,264,266,268,270,-1,272,274,276,-1,278,280,282,284,286,288,290,292,294,296,298,300,302,-1,-1,304,306,-1,-1,308,310,312,314,-1,316,318,320,322,324,-1,-1,-1,-1,-1,-1,-1,-1,-1,-1,-1,-1,-1,-1,-1,-1,-1,-1,-1,-1,-1,-1,-1,-1,-1,-1,-1,-1,-1,-1,-1,-1,-1,-1,-1,-1,-1,-1,-1,-1,-1,-1,-1,-1,-1,-1,-1,-1,-1,-1,-1,-1,-1,-1,-1,-1,-1,-1,-1,-1,-1,-1,-1,-1,-1,-1,-1,-1,-1,-1,-1,-1,-1,-1,-1,-1,-1,-1,-1,-1,-1,-1,-1,-1,-1,-1,-1,-1,-1,-1,-1,-1,-1,-1,-1,-1,-1,-1,-1,-1,-1,-1,-1,-1,-1,-1,-1,-1,-1,-1,-1,-1,-1,-1,-1,-1,-1,-1,-1,-1,-1,-1,-1,-1,-1,-1,-1,-1,-1,-1,-1,-1,-1,-1,-1,-1,-1,-1,-1,-1],"split_conditions":[1.6472268E0,3.213378E0,2.0850077E0,1.0579844E0,-7.32095E-1,1.7395613E0,2.2319894E0,-1.7015104E0,3.271863E-1,4.6445007E0,-1.130468E0,5.683771E-1,-1.0096334E-1,7.1514916E-1,2.533654E-1,-1.1558075E0,-9.009115E-3,2.7288604E0,-2.289405E-1,1.0187293E-1,-1.1138254E0,-2.403975E-1,-3.6166888E-2,1.8827198E0,-2.4910797E-1,-8.281524E-1,-6.007885E-2,-2.5907472E-2,-1.8760125E-1,-4.231167E0,-2.9073126E0,1.0333738E0,-2.132801E-2,-7.6103574E-1,-9.4395125E-1,1.2655399E0,1.6436827E0,-2.6308724E-1,3.088824E-1,-2.992908E-1,-1.1558075E0,-1.1412421E0,-4.4448152E-1,-3.7900123E-1,3.271863E-1,2.1172588E0,-1.6749201E0,3.213922E-1,-2.5907472E-2,2.107188E-1,1.5970066E-1,-2.9244017E-2,-1.8837078E-2,3.854378E-2,1.0333738E0,-9.267376E-1,8.1351286E-1,-9.947544E-1,-7.32095E-1,-5.4712225E-2,2.104213E0,-1.7312674E-2,-1.138898E0,-7.32095E-1,2.9893148E-1,3.754619E0,-7.32095E-1,1.0333738E0,-1.93671E-1,-4.0932633E-3,1.0333738E0,4.9791905E-1,-9.4395125E-1,-8.115541E-2,1.0853958E-2,-9.4395125E-1,-7.083657E-2,-4.050018E0,-2.6606461E-2,-3.7900123E-1,2.7224103E-1,-2.5907472E-2,1.0333738E0,3.4277277E0,-7.9199696E-1,-2.358729E0,-5.086454E-2,1.4387211E-1,-9.0624124E-2,1.0333738E0,-3.0159473E-1,-3.7306678E-1,3.3525977E-1,-2.8757823E-1,7.913523E-2,-7.096455E-2,8.5583043E-1,-2.587802E-1,4.4248015E-1,-2.1401007E-1,-3.862177E-2,-7.756915E-2,6.1803542E-2,-3.795109E-1,3.8031754E-1,3.0667932E0,-2.3746448E0,-9.4395125E-1,-2.4265002E-2,2.1395981E0,-2.257464E0,-3.7900123E-1,-2.7284512E-2,2.29185E-1,-4.501945E-2,-6.878916E-2,1.0333738E0,-1.2786208E0,-2.5907472E-2,1.509699E0,1.59021E0,-3.7900123E-1,-7.32095E-1,-1.4682821E0,-1.1558075E0,1.7704245E-1,1.9235988E0,1.5545434E-1,1.36729255E-2,-6.51892E-2,-4.6749536E-2,1.5921508E-1,-5.198167E-3,8.048941E-2,-2.8383663E-2,-4.073699E-2,-9.4395125E-1,2.508527E-1,3.6815012E0,-6.731619E-1,-3.22795E-1,1.575323E0,-9.4395125E-1,-1.1173981E0,2.2219895E-1,-9.4395125E-1,-3.086319E-1,-7.0627175E-2,5.708607E-1,-9.6598715E-2,-3.1593833E0,-2.735699E-1,-2.5907472E-2,-1.4477507E0,-1.1400585E0,-2.579425E-1,-4.0932633E-3,-2.8284368E-1,-7.0630915E-2,-8.52745E-1,3.3207943E0,-4.8072804E-2,-3.7900123E-1,1.0333738E0,2.7199352E-1,-2.9270854E-2,-6.546543E-2,-1.1558075E0,-3.597174E-2,-2.7045688E-1,2.3602791E-1,-7.1003474E-2,4.8366627E-1,-2.893748E-1,2.6369044E-1,-1.0085492E-1,-8.54177E-3,2.1230984E0,4.0581393E-1,2.4252434E-1,-3.7900123E-1,2.6235874E0,-5.669937E-1,-2.3607695E-2,1.1416063E-1,3.2626975E-1,-2.8578937E-2,-3.59977E-1,2.0751934E-1,1.48215E-1,-2.9937416E-1,-3.32891E-1,2.2950974E-1,2.4075447E-2,3.0156422E-1,-1.3224569E-1,2.5684127E-1,2.6048824E-1,8.7888345E-2,-1.789292E-1,-8.6474404E-2,-2.4468534E-1,-1.6038178E-2,-6.7304045E-2,1.2484548E-1,1.7139612E-1,-1.0264305E-1,-3.0326423E-1,1.7956963E-2,-2.78886E-1,2.5804612E-1,-2.9235158E-2,-2.8784212E-1,-1.5199877E-2,6.85118E-2,-1.0097171E-1,7.877918E-2,1.034385E-1,3.374878E-1,-1.7892626E-1,-4.8950773E-2,-8.295639E-2,1.4782299E-1,1.5956907E-1,-1.4830647E-1,1.8876547E-2,2.3675978E-1,-1.3560353E-1,1.7600863E-1,4.3942593E-2,2.962534E-1,-3.2164773E-1,1.8407254E-1,2.0818944E-1,3.0089742E-1,3.3033416E-1,2.4332671E-1,-1.665097E-1,1.2763245E-1,2.1310239E-1,-3.3132398E-1,-1.570011E-1,1.6828781E-1,2.9168817E-1,9.965237E-2,-4.136909E-1,-2.6406845E-1,-2.4821873E-1,2.31068E-1,-1.11887716E-1,2.522399E-1,-6.505918E-2,2.0688196E-1,1.026953E-1,2.3133568E-2,-2.6944277E-1,5.001971E-2,-2.0126553E-1,2.532462E-1,-2.8742072E-1,1.0234014E-1,-2.5920692E-1,1.8505871E-1,2.593955E-1,-8.411416E-2,-2.4500059E-1,6.2392592E-2,1.4186062E-1,2.7087295E-1,2.3478334E-1,-7.193885E-2,3.1979892E-2,2.5594908E-1,-2.639556E-3,-2.7266362E-1,7.92588E-2,2.6578897E-1,-1.4904402E-1,2.0089062E-1,1.9369476E-1,-1.9147043E-1,2.5507933E-1,1.0170578E-1,2.6603803E-1,6.809739E-2,2.195982E-1,2.6601478E-1,-1.6603619E-1,2.272204E-1,-2.4210916E-1,1.0849984E-2,-2.3182392E-1,1.7897235E-1,1.9146498E-1,2.705956E-1,7.050767E-2,-6.273566E-2,1.7113326E-2,1.7191632E-1,-7.732077E-2,1.7490174E-1,2.6965234E-1,6.181381E-2,2.4317423E-1,-2.918826E-1,3.241336E-1,1.3448094E-1,-1.6917266E-1,3.2498345E-1,-3.079688E-1,1.3277738E-1,-5.313013E-2,1.6740026E-1,2.5177795E-1,1.2631002E-1,-1.8398848E-1,2.1589589E-1,