{"learner":{"attributes":{"best_iteration":"99","best_ntree_limit":"100","scikit_learn":"{\"use_label_encoder\": null, \"n_estimators\": 100, \"objective\": \"binary:logistic\", \"max_depth\": 8, \"max_leaves\": null, \"max_bin\": null, \"grow_policy\": null, \"learning_rate\": null, \"verbosity\": null, \"booster\": null, \"tree_method\": \"hist\", \"gamma\": null, \"min_child_weight\": null, \"max_delta_step\": null, \"subsample\": null, \"sampling_method\": null, \"colsample_bytree\": null, \"colsample_bylevel\": null, \"colsample_bynode\": null, \"reg_alpha\": null, \"reg_lambda\": null, \"scale_pos_weight\": null, \"base_score\": null, \"missing\": NaN, \"num_parallel_tree\": null, \"random_state\": null, \"n_jobs\": null, \"monotone_constraints\": null, \"interaction_constraints\": null, \"importance_type\": null, \"gpu_id\": null, \"validate_parameters\": null, \"predictor\": null, \"enable_categorical\": false, \"feature_types\": null, \"max_cat_to_onehot\": null, \"max_cat_threshold\": null, \"eval_metric\": \"error\", \"early_stopping_rounds\": null, \"callbacks\": null, \"kwargs\": {\"eta\": 0.2}, \"classes_\": [0, 1], \"n_classes_\": 2, \"_estimator_type\": \"classifier\"}"},"feature_names":["Pulse Width","fsd_0","fsd_1","fsd_2","fsd_3","fsd_4","fsd_5","fsd_6","fsd_7","fsd_8","fsd_9","fsd_10","ssd_0","ssd_1","ssd_2","ssd_3","ssd_4","ssd_5","ssd_6","ssd_7","ssd_8","ssd_9","ssd_10"],"feature_types":["float","float","float","float","float","float","float","float","float","float","float","float","float","float","float","float","float","float","float","float","float","float","float"],"gradient_booster":{"model":{"gbtree_model_param":{"num_parallel_tree":"1","num_trees":"100","size_leaf_vector":"0"},"tree_info":[0,0,0,0,0,0,0,0,0,0,0,0,0,0,0,0,0,0,0,0,0,0,0,0,0,0,0,0,0,0,0,0,0,0,0,0,0,0,0,0,0,0,0,0,0,0,0,0,0,0,0,0,0,0,0,0,0,0,0,0,0,0,0,0,0,0,0,0,0,0,0,0,0,0,0,0,0,0,0,0,0,0,0,0,0,0,0,0,0,0,0,0,0,0,0,0,0,0,0,0],"trees":[{"base_weights":[1.2036786E-2,-9.6957244E-2,6.17952E-1,-2.8374317E-1,3.7626413E-1,3.270598E-1,1.1889583E0,2.8671175E-1,-3.6707368E-1,2.7957863E-1,1.0021075E0,-5.8810264E-1,7.1279126E-1,1.3564669E0,-1.05563484E-1,-9.6365176E-2,6.949076E-1,-1.6468002E-1,-5.422428E-1,5.958075E-1,5.6826055E-2,1.7219893E0,4.3641484E-1,-7.843994E-1,1.2369943E0,3.8819525E-1,1.2600639E0,1.6390117E0,6.511628E-1,1.2E0,-1.2533333E0,-6.2000823E-1,4.5513654E-1,7.447974E-2,1.1269113E0,-7.968373E-2,-4.6929133E-1,-7.066017E-1,3.3380408E-3,3.8616154E-1,1.4744376E0,-3.9562985E-1,3.8246158E-1,6.229508E-1,1.8039974E0,-4.3028623E-1,1.3269962E0,-1.3113554E0,-6.1633284E-3,1.8918918E0,6.25E-2,-3.971061E-1,1.0849394E0,1.4594169E0,4.0268457E-1,1.7582625E0,1.0654762E0,-3.4554973E-1,1.2318692E0,5.1968503E-1,1.5942029E0,-1.7310925E0,-4.113475E-1,4.5659164E-1,-7.766258E-1,1.4608234E-1,1.0310559E0,-1.557789E0,2.7345186E-1,7.9257643E-1,1.8984772E0,-2.5771135E-1,1.02309056E-1,-5.7715213E-1,2.6814267E-1,-2.9670171E-2,-9.5508647E-1,-8.8033086E-1,8.7461776E-1,-2.0749666E-1,7.2535884E-1,9.672346E-1,1.7928153E0,-6.8554395E-1,1.8325904E-1,4.45269E-2,9.876954E-1,3.6981133E-1,-3.0136988E-1,1.8672316E0,1.1079136E0,-8.893805E-1,1.8469945E0,1.4775339E0,-1.8181819E-1,-1.5241983E0,5.4E-1,-8.8307154E-1,6.831276E-1,3.8165137E-1,1E-1,-1.2727273E0,1.012987E0,-1.2180451E0,9.352979E-2,1.9036144E0,8.6921346E-1,1.7498719E0,4.9069375E-1,1.408805E0,-7.3758864E-1,1.5111431E0,1.9463687E0,1.7604791E0,3.74269E-1,-7.6082003E-1,9.8550725E-1,1.6865418E0,5.4545456E-1,-6.885246E-1,1.5428572E0,-1.5384616E-1,1.8054054E0,-8.333333E-1,-3.8350517E-1,-1.6744186E0,1.4576272E0,-5.151515E-1,1.1475409E0,-5.517654E-1,-1.5956044E0,6.842684E-1,-6.688852E-1,1.7948718E0,7.1304345E-1,-5.263158E-1,-1.7575758E0,-1.669627E-1,1.2455796E0,1.2752293E0,-4.090909E-1,1.9223803E0,5.263158E-1,-7.0211947E-1,-1.2827988E-1,-3.2920355E-1,1.7870206E-1,-7.585492E-1,-1.6023739E-1,-3.7535015E-1,7.6521736E-1,-3.977759E-1,7.283135E-1,-1.0730232E0,2.3550087E-1,4E-1,-1.1398385E0,1.1219792E0,-1.0353982E0,5.247019E-1,-6.79868E-1,4.471233E-1,1.3666878E0,1.7948718E0,2.596154E-1,3.8610423E-1,1.493671E0,-1.5749406E0,-2.7952328E-1,-9.353612E-1,3.5E-1,-5.9385663E-1,5.35082E-1,5.792107E-1,1.590759E0,-3.5897437E-1,1.2631578E0,1.4507042E0,3.9295775E-1,3.0136988E-1,3.7714288E-1,-1.2332913E0,1.5130435E0,8.8E-1,3.9012346E-1,1.2090032E0,3.9056048E-1,-1.1764706E0,3.5428572E-1,-4.46281E-1,-1.6966825E0,4.0268455E-2,3.709091E-1,1.7288135E0,-1.1737452E0,1.0844156E0,-1.4529915E0,2.4000001E-1,-1.6734694E0,-5.4054055E-2,3.6363637E-1,3.6981133E-1,-1.3968254E0,-7.313237E-1,8.778055E-1,8.5714287E-1,3.9127275E-1,1.1167338E0,-1.632653E-2,1.4159292E0,3.843383E-1,-1.480226E0,1.3205742E0,-1.3170732E0,1.7864769E0,-1.3043479E0,1.6428572E0,8.5087717E-1,1.8253461E0,3.9643538E-1,1.6591928E0,1.4160584E0,3.920398E-1,-1.5555556E0,1.3537118E0,-1.6412556E0,1.4545454E-1,-1.125E0,1.5636364E0,1.82643E0,7.619048E-1,-9.461078E-1,1.6051502E0,2.5454545E-1,-1.037037E0,8.5714287E-1,3.6521742E-1,-3E-1,2.857143E-1,1.2E0,3.7922078E-1,-1.4E0,2.6666668E-1,-3.768116E-1,-6.666667E-1,5.4545456E-1,3.609756E-1,2.2222224E-1,-3.780822E-1,3.8446602E-1,2.857143E-2,-1.9103138E-1,-1.787995E-2,-3.5844156E-1,-9.72973E-2,1.1560693E-2,2.1234567E-1,3.5675678E-1,-1.6478874E-1,-1.0909092E-1,3.7533042E-1,-7.213115E-2,2.9731342E-1,-3.3846155E-1,3E-1,-3.7777779E-1,-1.4400001E-1,-2.701031E-1,9.056604E-2,3.4242424E-1,1.4618474E-1,1.6050157E-1,3.4302673E-1,-2.729412E-1,2.5833333E-1,3.9534208E-1,2.8444445E-1,-2.2222224E-1,2.857143E-1,-3.104623E-1,-6.145189E-2,-2.71875E-1,-1.0653983E-2,-3.480769E-1,2.587685E-2,1.0480594E-2,1.0968801E-1,-5.986755E-2,-2.1036534E-1,-3.314286E-1,-4.9063913E-3,-2.559242E-1,1.8133335E-1,-1.3445379E-2,3.2566372E-1,8.089887E-2,-1.6296296E-1,1.5667466E-2,3.0390626E-1,-1.621853E-1,-2.9243892E-1,-3.7460318E-1,6.31068E-2,-5.138539E-2,2.778626E-1,-3.2101375E-1,-9.457832E-2,2.6040766E-1,-2.6115704E-1,3.314917E-2,-3.621818E-1,1.6991964E-2,3.5309446E-1,5.373135E-2,-2.1461897E-1,-2.763466E-2,1.9198357E-1,3.811895E-1,1.8139535E-1,3.672515E-1,3.0769233E-2,-2.8732395E-1,2.2446044E-1,1.9695431E-1,3.920792E-1,-3.3400676E-1,-5.194805E-3,-1.8716745E-1,5.645485E-2,-2.769231E-1,6.666667E-2,9.604863E-2,-2.92437E-1,-1.9843861E-1,1.2779552E-3,1.858407E-2,2.3499198E-1,-7.247387E-2,2.0341742E-1,3.7841728E-1,2.6545456E-1,3.5151514E-1,-2.2222224E-1,3.5833332E-1,1.4166667E-1,-2.7096775E-1,2.782609E-1,1.9354839E-2,-2.9420504E-1,3.827957E-1,-3.0769233E-2,-6.666667E-2,3.0588236E-1,2.7420494E-1,-8.0000006E-2,-3.8709678E-2,-3.609756E-1,-2.769231E-1,1.2413793E-1,-3.4833333E-1,9.756098E-3,3.6734694E-1,-1.6153847E-1,1E-1,3.5636362E-1,3.319149E-1,-2.888421E-1,-3.4385964E-1,2.7211368E-1,-3.6078432E-1,1.4736842E-1,-8.0000006E-2,-3.627907E-1,-3.2380953E-1,3.2000002E-1,-3.532847E-1,-2.1890549E-2,3.5675678E-1,-1.991342E-1,2.5528222E-1,-3.0956522E-1,2.72E-1,-5.714286E-2,2.9659864E-1,6.984127E-2,-2.3139015E-1,1.8450186E-1,3.21202E-1,-4.819277E-3,-3.2426035E-1,2E-1,-5.8333334E-2,3.5582823E-1,-3.3846155E-1,-1.05263166E-1,9.2307694E-2,3.7837836E-1,-3.0476192E-1,1.6666667E-1,1.5E-1,3.6363637E-1,2.303665E-1,-1.3333334E-1,3.8394332E-1,1.8333334E-1,3.862069E-1,1.2830189E-1,-4.4444446E-2,3.508772E-1,9.2307694E-2,-3.4814817E-1,-1.904762E-2,3.2879582E-1,3.2000002E-1,-3.8454106E-1,-1.8536586E-1,2.8910893E-1,2.2222224E-1,-3.4074077E-1,2.0799999E-1,3.75E-1,3.9116022E-1,2.9261744E-1,-1.20000005E-1,3.6666667E-1,6.769231E-2,-3.3962265E-1,1.3333334E-1,3.655914E-1,-3.4285715E-1,-5.333334E-2,-2.4000001E-1,3.2727274E-1,-2.2222224E-1,3.4666666E-1,-3.448276E-1,-8.0000006E-2,-3E-1,2.2222224E-1,-2.4000001E-1,3E-1],"categories":[],"categories_nodes":[],"categories_segments":[],"categories_sizes":[],"default_left":[0,0,0,0,0,0,0,0,0,0,0,0,0,0,0,0,0,0,0,0,0,0,0,0,0,0,0,0,0,0,0,0,0,0,0,0,0,0,0,0,0,0,0,0,0,0,0,0,0,0,0,0,0,0,0,0,0,0,0,0,0,0,0,0,0,0,0,0,0,0,0,0,0,0,0,0,0,0,0,0,0,0,0,0,0,0,0,0,0,0,0,0,0,0,0,0,0,0,0,0,0,0,0,0,0,0,0,0,0,0,0,0,0,0,0,0,0,0,0,0,0,0,0,0,0,0,0,0,0,0,0,0,0,0,0,0,0,0,0,0,0,0,0,0,0,0,0,0,0,0,0,0,0,0,0,0,0,0,0,0,0,0,0,0,0,0,0,0,0,0,0,0,0,0,0,0,0,0,0,0,0,0,0,0,0,0,0,0,0,0,0,0,0,0,0,0,0,0,0,0,0,0,0,0,0,0,0,0,0,0,0,0,0,0,0,0,0,0,0,0,0,0,0,0,0,0,0,0,0,0,0,0,0,0,0,0,0,0,0,0,0,0,0,0,0,0,0,0,0,0,0,0,0,0,0,0,0,0,0,0,0,0,0,0,0,0,0,0,0,0,0,0,0,0,0,0,0,0,0,0,0,0,0,0,0,0,0,0,0,0,0,0,0,0,0,0,0,0,0,0,0,0,0,0,0,0,0,0,0,0,0,0,0,0,0,0,0,0,0,0,0,0,0,0,0,0,0,0,0,0,0,0,0,0,0,0,0,0,0,0,0,0,0,0,0,0,0,0,0,0,0,0,0,0,0,0,0,0,0,0,0,0,0,0,0,0,0,0,0,0,0,0,0,0,0,0,0,0,0,0,0,0,0,0,0,0,0,0,0,0,0,0,0,0,0,0,0,0,0,0,0,0,0,0,0,0,0,0,0,0,0,0,0,0,0,0,0,0,0,0,0,0,0,0,0,0,0,0,0,0,0,0,0,0,0,0,0,0,0,0,0],"id":0,"left_children":[1,3,5,7,9,11,13,15,17,19,21,23,25,27,29,31,33,35,37,39,41,43,45,47,49,51,53,55,57,59,61,63,65,67,69,71,73,75,77,79,81,83,85,87,89,91,93,95,97,99,101,103,105,107,109,111,113,115,117,119,121,123,125,127,129,131,133,135,137,139,141,143,145,147,149,151,153,155,157,159,161,163,165,167,169,171,173,-1,175,177,179,181,183,185,187,189,191,193,195,-1,-1,197,199,201,203,205,207,209,211,213,215,217,219,221,223,225,227,229,231,233,235,237,239,241,-1,243,245,247,249,251,253,255,257,259,261,263,265,267,269,271,273,275,277,279,281,283,285,287,289,291,293,295,297,299,301,303,305,307,309,311,313,315,317,319,321,-1,323,325,327,329,331,333,335,337,339,-1,341,343,-1,345,-1,347,349,351,-1,353,-1,355,-1,357,359,361,-1,363,365,367,369,-1,371,373,-1,-1,375,377,379,381,-1,383,385,387,-1,389,391,393,395,397,399,401,403,-1,405,407,-1,409,411,413,415,417,419,421,423,425,427,-1,429,431,-1,-1,-1,433,-1,435,-1,-1,437,439,-1,-1,-1,-1,-1,-1,-1,-1,-1,-1,-1,-1,-1,-1,-1,-1,-1,-1,-1,-1,-1,-1,-1,-1,-1,-1,-1,-1,-1,-1,-1,-1,-1,-1,-1,-1,-1,-1,-1,-1,-1,-1,-1,-1,-1,-1,-1,-1,-1,-1,-1,-1,-1,-1,-1,-1,-1,-1,-1,-1,-1,-1,-1,-1,-1,-1,-1,-1,-1,-1,-1,-1,-1,-1,-1,-1,-1,-1,-1,-1,-1,-1,-1,-1,-1,-1,-1,-1,-1,-1,-1,-1,-1,-1,-1,-1,-1,-1,-1,-1,-1,-1,-1,-1,-1,-1,-1,-1,-1,-1,-1,-1,-1,-1,-1,-1,-1,-1,-1,-1,-1,-1,-1,-1,-1,-1,-1,-1,-1,-1,-1,-1,-1,-1,-1,-1,-1,-1,-1,-1,-1,-1,-1,-1,-1,-1,-1,-1,-1,-1,-1,-1,-1,-1,-1,-1,-1,-1,-1,-1,-1,-1,-1,-1,-1,-1,-1,-1,-1,-1,-1,-1,-1,-1,-1,-1,-1,-1,-1,-1,-1,-1,-1,-1,-1,-1,-1,-1,-1,-1,-1,-1,-1,-1,-1],"loss_changes":[1.9532926E3,2.2158728E3,7.4860315E2,8.545226E2,4.29023E2,1.0554688E3,3.3007056E2,3.5838977E2,5.559397E2,4.329481E2,3.857115E2,3.1865787E2,3.7309302E2,2.6741284E2,2.6411374E2,3.419208E2,2.9729218E2,1.883896E2,7.5384424E2,4.673479E2,5.316649E2,3.6483032E1,4.1178357E2,3.2858142E2,6.641527E1,7.2349493E2,1.331582E2,6.387085E1,2.2442026E2,2.129654E1,3.7000397E1,1.0274576E2,1.0250528E2,1.4868622E2,1.6720209E2,1.8442142E2,1.26424866E2,1.0866741E3,1.500002E3,4.134065E2,7.723071E1,2.5358797E2,4.2911005E2,3.512336E1,1.4998535E1,2.847082E2,6.000473E1,1.8907947E2,1.967456E2,3.100586E-1,4.1900974E1,2.5064444E2,1.2206024E2,1.776709E2,1.719797E2,3.3979248E1,8.004678E1,7.993101E1,7.546506E1,4.0311848E1,1.9383453E1,8.3607025E0,8.565351E1,5.2794476E1,9.681427E1,1.6559218E2,4.76044E1,9.327171E0,1.7478172E2,2.6615628E2,5.449646E0,1.6541048E2,9.2854004E1,1.0464096E2,6.529958E1,4.8459543E2,6.6381445E2,3.2183008E2,4.646494E2,2.587213E2,2.3247687E2,1.1124715E2,9.443726E0,3.630204E2,9.447325E1,4.2230396E2,1.8426642E2,0E0,4.4910618E1,1.1534546E1,2.1231434E1,1.8859163E2,2.8677216E0,2.8173157E1,5.0168377E1,7.895758E1,3.277131E1,1.1078547E2,1.5780014E2,0E0,0E0,1.5633392E1,1.6637417E1,1.3020831E2,2.530996E2,6.3410034E0,1.219422E2,2.5265137E1,2.4361874E2,8.4197174E1,9.725719E1,7.059027E1,1.3129883E0,2.9680176E0,1.6371384E2,8.781004E1,4.385412E1,1.7589966E1,1.5799826E2,1.1743556E1,1.8335419E0,1.5989011E1,2.6423645E-1,1.6600002E1,0E0,3.286148E0,3.687624E0,7.5906044E1,3.5338013E1,7.783099E1,2.3932037E1,5.3675407E1,5.8610878E1,1.22200775E1,1.1992508E2,2.4983807E1,4.260208E0,2.0710802E2,2.9302353E1,6.662396E1,2.1629831E2,2.4399414E0,8.604846E0,2.1731284E2,2.0580943E2,2.7445517E2,1.1168353E2,1.2964783E2,8.553132E1,1.0462685E2,8.2735085E1,3.914512E2,2.9185925E2,4.374165E2,7.2605545E1,1.0677913E2,2.4886438E2,3.8157556E2,1.0555967E2,1.5998917E2,1.6981017E2,2.7400754E2,9.613129E1,5.677002E0,1.5379756E2,0E0,2.1524185E1,4.6391724E1,2.5550752E2,3.7936825E1,1.0455306E2,1.4011896E2,2.1562451E2,1.8579854E2,2.1545593E1,0E0,1.3104732E1,1.6702469E1,0E0,3.482914E1,0E0,6.2829346E1,1.95085E1,5.4345093E0,0E0,4.108618E1,0E0,1.0151154E1,0E0,6.1430523E1,2.907788E1,5.822767E1,0E0,6.9797516E-2,1.0163452E2,1.21574265E2,2.3807205E1,0E0,1.4659729E0,2.6534878E1,0E0,0E0,1.0472284E2,1.2859845E2,1.9583315E2,5.4171433E0,0E0,1.2169647E2,1.322475E2,4.643448E1,0E0,1.710437E1,7.777789E1,2.1506882E0,8.938522E0,2.8245338E1,8.279228E-1,5.2833153E1,1.8370667E1,0E0,1.4184387E1,1.9373802E1,0E0,1.172934E1,2.4234932E1,5.3934296E1,7.8013374E1,1.2245369E1,2.533638E0,3.0964966E0,3.1742855E1,4.0905376E1,1.0961472E1,0E0,6.5862427E0,1.3184416E1,0E0,0E0,0E0,1.2711111E1,0E0,2.5517235E0,0E0,0E0,9.444445E0,1.0963636E1,0E0,0E0,0E0,0E0,0E0,0E0,0E0,0E0,0E0,0E0,0E0,0E0,0E0,0E0,0E0,0E0,0E0,0E0,0E0,0E0,0E0,0E0,0E0,0E0,0E0,0E0,0E0,0E0,0E0,0E0,0E0,0E0,0E0,0E0,0E0,0E0,0E0,0E0,0E0,0E0,0E0,0E0,0E0,0E0,0E0,0E0,0E0,0E0,0E0,0E0,0E0,0E0,0E0,0E0,0E0,0E0,0E0,0E0,0E0,0E0,0E0,0E0,0E0,0E0,0E0,0E0,0E0,0E0,0E0,0E0,0E0,0E0,0E0,0E0,0E0,0E0,0E0,0E0,0E0,0E0,0E0,0E0,0E0,0E0,0E0,0E0,0E0,0E0,0E0,0E0,0E0,0E0,0E0,0E0,0E0,0E0,0E0,0E0,0E0,0E0,0E0,0E0,0E0,0E0,0E0,0E0,0E0,0E0,0E0,0E0,0E0,0E0,0E0,0E0,0E0,0E0,0E0,0E0,0E0,0E0,0E0,0E0,0E0,0E0,0E0,0E0,0E0,0E0,0E0,0E0,0E0,0E0,0E0,0E0,0E0,0E0,0E0,0E0,0E0,0E0,0E0,0E0,0E0,0E0,0E0,0E0,0E0,0E0,0E0,0E0,0E0,0E0,0E0,0E0,0E0,0E0,0E0,0E0,0E0,0E0,0E0,0E0,0E0,0E0,0E0,0E0,0E0,0E0,0E0,0E0,0E0,0E0,0E0,0E0,0E0,0E0,0E0,0E0,0E0,0E0,0E0,0E0,0E0,0E0,0E0,0E0,0E0,0E0,0E0,0E0,0E0,0E0,0E0,0E0,0E0],"parents":[2147483647,0,0,1,1,2,2,3,3,4,4,5,5,6,6,7,7,8,8,9,9,10,10,11,11,12,12,13,13,14,14,15,15,16,16,17,17,18,18,19,19,20,20,21,21,22,22,23,23,24,24,25,25,26,26,27,27,28,28,29,29,30,30,31,31,32,32,33,33,34,34,35,35,36,36,37,37,38,38,39,39,40,40,41,41,42,42,43,43,44,44,45,45,46,46,47,47,48,48,49,49,50,50,51,51,52,52,53,53,54,54,55,55,56,56,57,57,58,58,59,59,60,60,61,61,62,62,63,63,64,64,65,65,66,66,67,67,68,68,69,69,70,70,71,71,72,72,73,73,74,74,75,75,76,76,77,77,78,78,79,79,80,80,81,81,82,82,83,83,84,84,85,85,86,86,88,88,89,89,90,90,91,91,92,92,93,93,94,94,95,95,96,96,97,97,98,98,101,101,102,102,103,103,104,104,105,105,106,106,107,107,108,108,109,109,110,110,111,111,112,112,113,113,114,114,115,115,116,116,117,117,118,118,119,119,120,120,121,121,122,122,123,123,125,125,126,126,127,127,128,128,129,129,130,130,131,131,132,132,133,133,134,134,135,135,136,136,137,137,138,138,139,139,140,140,141,141,142,142,143,143,144,144,145,145,146,146,147,147,148,148,149,149,150,150,151,151,152,152,153,153,154,154,155,155,156,156,157,157,158,158,159,159,160,160,161,161,162,162,163,163,164,164,166,166,167,167,168,168,169,169,170,170,171,171,172,172,173,173,174,174,176,176,177,177,179,179,181,181,182,182,183,183,185,185,187,187,189,189,190,190,191,191,193,193,194,194,195,195,196,196,198,198,199,199,202,202,203,203,204,204,205,205,207,207,208,208,209,209,211,211,212,212,213,213,214,214,215,215,216,216,217,217,218,218,220,220,221,221,223,223,224,224,225,225,226,226,227,227,228,228,229,229,230,230,231,231,232,232,234,234,235,235,239,239,241,241,244,244,245,245],"right_children":[2,4,6,8,10,12,14,16,18,20,22,24,26,28,30,32,34,36,38,40,42,44,46,48,50,52,54,56,58,60,62,64,66,68,70,72,74,76,78,80,82,84,86,88,90,92,94,96,98,100,102,104,106,108,110,112,114,116,118,120,122,124,126,128,130,132,134,136,138,140,142,144,146,148,150,152,154,156,158,160,162,164,166,168,170,172,174,-1,176,178,180,182,184,186,188,190,192,194,196,-1,-1,198,200,202,204,206,208,210,212,214,216,218,220,222,224,226,228,230,232,234,236,238,240,242,-1,244,246,248,250,252,254,256,258,260,262,264,266,268,270,272,274,276,278,280,282,284,286,288,290,292,294,296,298,300,302,304,306,308,310,312,314,316,318,320,322,-1,324,326,328,330,332,334,336,338,340,-1,342,344,-1,346,-1,348,350,352,-1,354,-1,356,-1,358,360,362,-1,364,366,368,370,-1,372,374,-1,-1,376,378,380,382,-1,384,386,388,-1,390,392,394,396,398,400,402,404,-1,406,408,-1,410,412,414,416,418,420,422,424,426,428,-1,430,432,-1,-1,-1,434,-1,436,-1,-1,438,440,-1,-1,-1,-1,-1,-1,-1,-1,-1,-1,-1,-1,-1,-1,-1,-1,-1,-1,-1,-1,-1,-1,-1,-1,-1,-1,-1,-1,-1,-1,-1,-1,-1,-1,-1,-1,-1,-1,-1,-1,-1,-1,-1,-1,-1,-1,-1,-1,-1,-1,-1,-1,-1,-1,-1,-1,-1,-1,-1,-1,-1,-1,-1,-1,-1,-1,-1,-1,-1,-1,-1,-1,-1,-1,-1,-1,-1,-1,-1,-1,-1,-1,-1,-1,-1,-1,-1,-1,-1,-1,-1,-1,-1,-1,-1,-1,-1,-1,-1,-1,-1,-1,-1,-1,-1,-1,-1,-1,-1,-1,-1,-1,-1,-1,-1,-1,-1,-1,-1,-1,-1,-1,-1,-1,-1,-1,-1,-1,-1,-1,-1,-1,-1,-1,-1,-1,-1,-1,-1,-1,-1,-1,-1,-1,-1,-1,-1,-1,-1,-1,-1,-1,-1,-1,-1,-1,-1,-1,-1,-1,-1,-1,-1,-1,-1,-1,-1,-1,-1,-1,-1,-1,-1,-1,-1,-1,-1,-1,-1,-1,-1,-1,-1,-1,-1,-1,-1,-1,-1,-1,-1,-1,-1,-1,-1],"split_conditions":[2.894423E0,7.656581E-1,-3.7900123E-1,-1.2044638E0,1.0333738E0,3.8258474E0,-3.2163978E-2,-2.5907472E-2,7.830725E-3,-7.632881E-1,-4.0017644E-1,-4.3405365E-2,-9.4395125E-1,-3.504701E-2,-2.744138E-1,2.8771147E-1,3.3083975E-2,7.315634E-2,2.2435548E0,-3.7900123E-1,1.6436827E0,7.8570014E-1,1.2655399E0,-7.32095E-1,-7.2596684E-2,5.3753953E0,-2.5544148E-2,-3.9237075E-2,2.7199352E-1,-7.058629E-2,-4.0932633E-3,6.6259243E-3,-7.32095E-1,7.440628E-2,1.0333738E0,-1.7563904E-2,1.6436827E0,-7.361318E-1,3.271863E-1,1.1721509E0,8.408104E-1,-7.39504E-2,-3.7900123E-1,-6.6014194E-1,-3.9258632E-1,9.260708E-1,6.936982E-3,1.1949372E0,3.3207943E0,-3.7024227E-1,-9.4395125E-1,-1.1558075E0,-4.050018E0,-2.53696E-2,-6.514783E-1,-2.5907472E-2,-5.037336E-1,-6.921287E-2,-2.545622E0,3.271863E-1,1.2189099E0,-3.1103611E-2,1.0333738E0,-9.4395125E-1,-3.8878128E-1,-3.1799335E0,-1.0057934E-1,-2.1802046E0,1.8427227E-1,-1.4253758E0,-3.3761132E-1,-9.9821664E-2,-7.256646E-2,-6.7608394E-2,-3.7900123E-1,1.0333738E0,1.19868815E-1,-2.9482636E-1,2.3124145E-1,-1.8905698E0,-9.4395125E-1,-1.124824E0,-9.51505E-1,1.1655279E0,-9.4395125E-1,2.8386364E0,2.1427493E0,3.6981133E-1,1.7395613E0,8.226556E-1,1.7395613E0,3.6727932E-1,9.7563106E-1,1.437613E0,1.6761043E0,-4.3527517E-1,-9.4395125E-1,-1.4064272E-1,-4.9023256E-2,3.8165137E-1,1E-1,-2.7658327E-3,3.213378E0,-1.9146036E0,4.537714E0,5.789204E0,-1.9891499E-2,4.1410666E0,3.8938722E-1,4.4343224E0,6.749167E0,3.1658804E0,-4.2357273E-2,-2.5907472E-2,3.271863E-1,1.0333738E0,-2.5907472E-2,-1.7592875E0,3.271863E-1,-3.0682905E-2,1.0333738E0,3.271863E-1,1.3074492E0,1.7395613E0,-3.8350517E-1,3.3514419E0,1.0289111E0,-2.780777E-1,-2.3040341E-1,-3.7900123E-1,2.5470397E-1,-1.1558075E0,3.5793216E-3,2.6254982E-1,2.4001606E-1,1.7395613E0,3.3112225E-1,-6.6539206E-2,-1.8345207E0,3.6617324E-1,3.200083E-1,-1.2351079E0,1.7395613E0,-2.099068E-2,-7.0395246E-2,-6.2224865E-2,-1.9163357E-2,-7.699556E-2,-1.392467E-1,-6.606006E-2,-1.12966515E-1,-1.992254E0,3.8808164E-1,-1.3974176E-1,-1.1558075E0,-3.7900123E-1,-2.5907472E-2,-5.0058465E-2,-1.6051668E0,-7.32095E-1,-9.174328E-1,2.354508E0,-1.3152231E0,-3.4282836E-1,-2.5907472E-2,3.8610423E-1,1.4620385E0,2.0242433E-1,-2.5907472E-2,1.912711E-1,-3.782461E-2,2.9893148E-1,-9.4395125E-1,-2.5907472E-2,-8.3645195E-2,-3.5897437E-1,-3.3832133E-1,-4.843923E-1,3.9295775E-1,1.0579844E0,3.7714288E-1,-3.531153E-1,-3.0004826E-1,1.7395613E0,3.9012346E-1,1.7362358E-2,3.9056048E-1,-4.4726023E-1,3.5428572E-1,-9.4395125E-1,1.4142758E0,-4.9817808E-2,3.709091E-1,4.7675034E-1,-2.731984E-1,-2.6308724E-1,-7.022536E-2,2.4000001E-1,-1.7449019E-3,-7.32095E-1,3.6363637E-1,3.6981133E-1,-5.5314198E-2,-1.6558425E-1,-3.5876017E-2,3.854378E-2,3.9127275E-1,-4.0932633E-3,-1.1558075E0,-4.7048435E-2,3.843383E-1,2.1287216E-2,4.6445007E0,2.0413879E-1,2.0314684E-2,-6.986098E-2,1.2822092E-1,2.1950519E-2,-4.0256325E-2,3.9643538E-1,-1.9996794E0,2.1172588E0,3.920398E-1,-1.0519454E-1,2.0612297E0,-5.661133E-1,2.3153348E-1,-2.7358184E0,-2.3759894E-2,-2.779196E0,3.271863E-1,-2.009033E0,-2.699233E-2,2.5454545E-1,-2.5907472E-2,2.4973469E0,3.6521742E-1,-3E-1,2.857143E-1,-2.5907472E-2,3.7922078E-1,1.0333738E0,2.6666668E-1,-3.768116E-1,3.271863E-1,1.7395613E0,3.609756E-1,2.2222224E-1,-3.780822E-1,3.8446602E-1,2.857143E-2,-1.9103138E-1,-1.787995E-2,-3.5844156E-1,-9.72973E-2,1.1560693E-2,2.1234567E-1,3.5675678E-1,-1.6478874E-1,-1.0909092E-1,3.7533042E-1,-7.213115E-2,2.9731342E-1,-3.3846155E-1,3E-1,-3.7777779E-1,-1.4400001E-1,-2.701031E-1,9.056604E-2,3.4242424E-1,1.4618474E-1,1.6050157E-1,3.4302673E-1,-2.729412E-1,2.5833333E-1,3.9534208E-1,2.8444445E-1,-2.2222224E-1,2.857143E-1,-3.104623E-1,-6.145189E-2,-2.71875E-1,-1.0653983E-2,-3.480769E-1,2.587685E-2,1.0480594E-2,1.0968801E-1,-5.986755E-2,-2.1036534E-1,-3.314286E-1,-4.9063913E-3,-2.559242E-1,1.8133335E-1,-1.3445379E-2,3.2566372E-1,8.089887E-2,-1.6296296E-1,1.5667466E-2,3.0390626E-1,-1.621853E-1,-2.9243892E-1,-3.7460318E-1,6.31068E-2,-5.138539E-2,2.778626E-1,-3.2101375E-1,-9.457832E-2,2.6040766E-1,-2.6115704E-1,3.314917E-2,-3.621818E-1,1.6991964E-2,3.5309446E-1,5.373135E-2,-2.1461897E-1,-2.763466E-2,1.9198357E-1,3.811895E-1,1.8139535E-1,3.672515E-1,3.0769233E-2,-2.8732395E-1,2.2446044E-1,1.9695431E-1,3.920792E-1,-3.3400676E-1,-5.194805E-3,-1.8716745E-1,5.645485E-2,-2.769231E-1,6.666667E-2,9.604863E-2,-2.92437E-1,-1.9843861E-1,1.2779552E-3,1.858407E-2,2.3499198E-1,-7.247387E-2,2.0341742E-1,3.7841728E-1,2.6545456E-1,3.5151514E-1,-2.2222224E-1,3.5833332E-1,1.4166667E-1,-2.7096775E-1,2.782609E-1,1.9354839E-2,-2.9420504E-1,3.827957E-1,-3.0769233E-2,-6.666667E-2,3.0588236E-1,2.7420494E-1,-8.0000006E-2,-3.8709678E-2,-3.609756E-1,-2.769231E-1,1.2413793E-1,-3.4833333E-1,9.756098E-3,3.6734694E-1,-1.6153847E-1,1E-1,3.5636362E-1,3.319149E-1,-2.888421E-1,-3.4385964E-1,2.7211368E-1,-3.6078432E-1,1.4736842E-1,-8.0000006E-2,-3.627907E-1,-3.2380953E-1,3.2000002E-1,-3.532847E-1,-2.1890549E-2,3.5675678E-1,-1.991342E-1,2.5528222E-1,-3.0956522E-1,2.72E-1,-5.714286E-2,2.9659864E-1,6.984127E-2,-2.3139015E-1,1.8450186E-1,3.21202E-1,-4.819277E-3,-3.2426035E-1,2E-1,-5.8333334E-2,3.5582823E-1,-3.3846155E-1,-1.05263166E-1,9.2307694E-2,3.7837836E-1,-3.0476192E-1,1.6666667E-1,1.5E-1,3.6363637E-1,2.303665E-1,-1.3333334E-1,3.8394332E-1,1.8333334E-1,3.862069E-1,1.2830189E-1,-4.4444446E-2,3.508772E-1,9.2307694E-2,-3.4814817E-1,-1.904762E-2,3.2879582E-1,3.2000002E-1,-3.8454106E-1,-1.8536586E-1,2.8910893E-1,2.2222224E-1,-3.4074077E-1,2.0799999E-1,3.75E-1,3.9116022E-1,2.9261744E-1,-1.20000005E-1,3.6666667E-1,6.769231E-2,-3.3962265E-1,1.3333334E-1,3.655914E-1,-3.4285715E-1,-5.333334E-2,-2.4000001E-1,3.2727274E-1,-2.2222224E-1,3.4666666E-1,-3.448276E-1,-8.0000006E-2,-3E-1,2.2222224E-1,-2.4000001E-1,3E-1],"split_indices":[17,9,0,1,0,17,5,0,17,4,3,16,0,13,11,14,17,8,17,0,11,10,11,0,20,17,22,22,1,14,22,8,0,12,0,7,11,4,0,8,8,13,0,1,2,17,14,9,17,4,0,0,5,13,10,0,10,21,6,0,7,2,0,0,4,1,22,1,14,1,3,1,21,12,0,0,22,3,3,1,0,2,3,10,0,11,11,0,0,9,0,18,17,10,11,4,0,21,14,0,0,7,17,4,17,17,15,17,1,17,17,17,14,0,0,0,0,5,0,1,0,0,7,0,0,6,7,4,4,0,14,0,7,10,12,0,9,19,1,8,16,1,0,7,18,19,13,13,5,12,1,4,9,1,0,0,0,22,5,0,5,9,4,5,0,0,11,6,0,16,5,22,0,0,12,0,1,1,0,10,0,2,4,0,0,13,0,1,0,0,8,3,0,8,2,9,20,0,7,0,0,0,19,21,14,12,0,22,0,14,0,10,17,20,22,12,21,3,14,0,6,7,0,21,6,1,1,5,15,6,0,5,11,0,0,7,0,0,0,0,0,0,0,0,0,0,0,0,0,0,0,0,0,0,0,0,0,0,0,0,0,0,0,0,0,0,0,0,0,0,0,0,0,0,0,0,0,0,0,0,0,0,0,0,0,0,0,0,0,0,0,0,0,0,0,0,0,0,0,0,0,0,0,0,0,0,0,0,0,0,0,0,0,0,0,0,0,0,0,0,0,0,0,0,0,0,0,0,0,0,0,0,0,0,0,0,0,0,0,0,0,0,0,0,0,0,0,0,0,0,0,0,0,0,0,0,0,0,0,0,0,0,0,0,0,0,0,0,0,0,0,0,0,0,0,0,0,0,0,0,0,0,0,0,0,0,0,0,0,0,0,0,0,0,0,0,0,0,0,0,0,0,0,0,0,0,0,0,0,0,0,0,0,0,0,0,0,0,0,0,0,0,0,0,0,0,0,0,0,0,0,0,0,0,0,0,0,0,0,0,0],"split_type":[0,0,0,0,0,0,0,0,0,0,0,0,0,0,0,0,0,0,0,0,0,0,0,0,0,0,0,0,0,0,0,0,0,0,0,0,0,0,0,0,0,0,0,0,0,0,0,0,0,0,0,0,0,0,0,0,0,0,0,0,0,0,0,0,0,0,0,0,0,0,0,0,0,0,0,0,0,0,0,0,0,0,0,0,0,0,0,0,0,0,0,0,0,0,0,0,0,0,0,0,0,0,0,0,0,0,0,0,0,0,0,0,0,0,0,0,0,0,0,0,0,0,0,0,0,0,0,0,0,0,0,0,0,0,0,0,0,0,0,0,0,0,0,0,0,0,0,0,0,0,0,0,0,0,0,0,0,0,0,0,0,0,0,0,0,0,0,0,0,0,0,0,0,0,0,0,0,0,0,0,0,0,0,0,0,0,0,0,0,0,0,0,0,0,0,0,0,0,0,0,0,0,0,0,0,0,0,0,0,0,0,0,0,0,0,0,0,0,0,0,0,0,0,0,0,0,0,0,0,0,0,0,0,0,0,0,0,0,0,0,0,0,0,0,0,0,0,0,0,0,0,0,0,0,0,0,0,0,0,0,0,0,0,0,0,0,0,0,0,0,0,0,0,0,0,0,0,0,0,0,0,0,0,0,0,0,0,0,0,0,0,0,0,0,0,0,0,0,0,0,0,0,0,0,0,0,0,0,0,0,0,0,0,0,0,0,0,0,0,0,0,0,0,0,0,0,0,0,0,0,0,0,0,0,0,0,0,0,0,0,0,0,0,0,0,0,0,0,0,0,0,0,0,0,0,0,0,0,0,0,0,0,0,0,0,0,0,0,0,0,0,0,0,0,0,0,0,0,0,0,0,0,0,0,0,0,0,0,0,0,0,0,0,0,0,0,0,0,0,0,0,0,0,0,0,0,0,0,0,0,0,0,0,0,0,0,0,0,0,0,0,0,0,0,0,0,0,0,0,0,0,0,0,0,0,0,0,0,0,0,0],"sum_hessian":[2.9575E4,2.506675E4,4.50825E3,1.7973E4,7.09375E3,2.98775E3,1.5205E3,2.2905E3,1.56825E4,6.14575E3,9.48E2,8.8575E2,2.102E3,1.34625E3,1.7425E2,1.182E3,1.1085E3,7.27675E3,8.40575E3,2.53925E3,3.6065E3,4.1625E2,5.3175E2,8.0025E2,8.55E1,1.3205E3,7.815E2,9.6025E2,3.86E2,8.15E1,9.275E1,6.0625E2,5.7575E2,4.555E2,6.53E2,5.69025E3,1.5865E3,6.4595E3,1.94625E3,2.05125E3,4.88E2,1.50925E3,2.09725E3,2.95E1,3.8675E2,2.6975E2,2.62E2,4.7675E2,3.235E2,5.45E1,3.1E1,6.21E2,6.995E2,6.335E2,1.48E2,7.9325E2,1.67E2,1.4225E2,2.4375E2,3.075E1,5.075E1,5.85E1,3.425E1,7.675E1,5.295E2,3.755E2,2.0025E2,4.875E1,4.0675E2,4.57E2,1.96E2,2.87625E3,2.814E3,1.38425E3,2.0225E2,1.73475E3,4.72475E3,9.6625E2,9.8E2,7.46E2,1.30525E3,1.8975E2,2.9825E2,1.0055E3,5.0375E2,1.3465E3,7.5075E2,1.225E1,1.725E1,3.53E2,3.375E1,2.25E2,4.475E1,2.3825E2,2.375E1,4.2775E2,4.9E1,1.4225E2,1.8125E2,5.35E1,1E0,1.275E1,1.825E1,2.3175E2,3.8925E2,1.4425E2,5.5525E2,4.8675E2,1.4675E2,7.85E1,6.95E1,3.4675E2,4.465E2,8.25E1,8.45E1,1.0875E2,3.35E1,1.4575E2,9.8E1,1.425E1,1.65E1,5.5E0,4.525E1,1.1E1,4.75E1,2.05E1,1.375E1,3.2E1,4.475E1,4.1675E2,1.1275E2,2.2625E2,1.4925E2,5.75E1,1.4275E2,8.5E0,4.025E1,2.805E2,1.2625E2,3.26E2,1.31E2,1.9225E2,3.75E0,6.4775E2,2.2285E3,4.2275E2,2.39125E3,9.64E2,4.2025E2,8.825E1,1.14E2,1.168E3,5.6675E2,4.299E3,4.2575E2,1.6275E2,8.035E2,8.68E2,1.12E2,2.925E2,4.535E2,9.115E2,3.9375E2,8.675E1,1.03E2,2.005E2,9.775E1,3.1425E2,6.9125E2,6.475E1,4.39E2,5.85E2,7.615E2,4.4875E2,3.02E2,8.75E0,8.5E0,7E1,2.83E2,1.725E1,1.65E1,1.9725E2,2.775E1,5.25E0,3.95E1,1.545E2,8.375E1,1.6E1,7.75E0,5.95E1,3.6825E2,3.625E1,1.275E1,1.375E1,1.285E2,1.53E2,2.825E1,1.5E0,1.125E1,8.25E0,1E1,1.225E1,2.195E2,1.8975E2,1.995E2,7.75E0,1.365E2,4.3375E2,1.215E2,1.685E2,3.1825E2,4.325E1,1.035E2,9.25E0,6.925E1,5.65E1,1.3E1,1.13E2,2.3375E2,3.9175E2,5.475E1,3.325E1,4.925E1,2.825E1,5.625E1,5.475E1,5.4E1,7E0,2.65E1,1.2575E2,2E1,4.075E1,5.725E1,1.75E0,1.25E1,6E0,1.05E1,3E0,2.5E0,7.75E0,3.75E1,9E0,2E0,1.625E1,4.25E0,4.5E0,9.25E0,1.475E1,1.725E1,2.475E1,2E1,2.22E2,1.9475E2,9.525E1,1.75E1,8.55E1,1.4075E2,8.25E0,1.41E2,1.75E0,5.575E1,6E1,8.275E1,5.5E0,3E0,3.5E1,5.25E0,9.6E1,1.845E2,6.5E1,6.125E1,1.585E2,1.675E2,8.4E1,4.7E1,1.7075E2,2.15E1,1.25E0,2.5E0,2.045E2,4.4325E2,1.27E2,2.1015E3,1.03E2,3.1975E2,1.78325E3,6.08E2,3.765E2,5.875E2,3.4E1,3.8625E2,5.175E1,3.65E1,5.85E1,5.55E1,3.995E2,7.685E2,3.1175E2,2.55E2,2.57075E3,1.72825E3,1.475E1,4.11E2,9.825E1,6.45E1,4.725E2,3.31E2,8.085E2,5.95E1,4.425E1,6.775E1,2.1675E2,7.575E1,1.33E2,3.205E2,4.26E2,4.855E2,1.7975E2,2.14E2,8.45E1,2.25E0,3.45E1,6.85E1,4.825E1,4.95E1,2.96E2,1.825E1,3.185E2,3.7275E2,4.775E1,1.7E1,4.1025E2,2.875E1,3.5125E2,2.3375E2,4.51E2,3.105E2,1.425E2,3.0625E2,1.38E2,1.64E2,7.25E0,1.25E0,4.7E1,2.3E1,6.75E0,1.05E1,3E1,1.6725E2,2.225E1,5.5E0,2E0,3.25E0,1.405E2,1.4E1,6.75E0,9.25E0,3.15E1,2.8E1,3.59E2,9.25E0,1.125E1,2.5E1,1E0,1.275E1,1.075E1,1.1775E2,1.325E1,1.3975E2,2.45E1,3.75E0,1.5E0,9.75E0,4.25E0,4E0,1.7025E2,4.925E1,1.75E1,1.7225E2,1.7175E2,2.775E1,5.25E0,2.5E0,2.93E2,1.4075E2,5.475E1,6.675E1,1.4875E2,1.975E1,4.125E1,2E0,2.3E1,8.05E1,5.5E0,3.75E0,5.5E0,6.375E1,5.15E1,5E0,3E0,1E1,9.45E1,1.85E1,2.1075E2,2.3E1,4.25E1,1.225E1,5.75E0,2.75E1,2.25E0,2.6E1,9.5E0,4.675E1,4E0,5.075E1,2.975E1,2.425E1,1.25E0,5.75E0,1.15E1,1.5E1,8.95E1,3.625E1,9E0,1.1E1,1.525E1,2.55E1,1.175E1,4.55E1,6E0,6.5E0,1.5E0,4.5E0,1.25E0,6.5E0,6.25E0,2.75E0,3E0,1.25E0,1.5E0,3E0],"tree_param":{"num_deleted":"0","num_feature":"23","num_nodes":"441","size_leaf_vector":"0"}},{"base_weights":[1.0372334E-2,-8.730953E-2,4.7482345E-1,-2.420556E-1,3.2727227E-1,1.9594233E-1,9.116051E-1,-6.7158294E-1,-1.5043618E-1,2.0590372E-1,7.884227E-1,-5.3266656E-1,6.071887E-1,1.0477184E0,1.4598796E-1,-1.0475892E0,-2.4448705E-1,3.5712573E-1,-2.0249702E-1,1.950991E-2,6.0675824E-1,1.3725297E0,3.1929466E-1,-7.0386434E-1,7.550517E-1,3.4708005E-1,1.0695649E0,1.0145462E-1,1.2271026E0,9.260649E-1,-9.898529E-1,-1.4098595E0,-2.439043E-1,-1.0106915E0,8.5816735E-1,-1.4453843E-1,8.051854E-1,4.4538727E-1,-2.350003E-1,4.2354506E-1,-2.0634265E-1,3.0869213E-1,1.0543851E0,1.6633439E0,1.070293E0,4.0938403E-2,1.2880698E0,-1.071316E0,-1.805666E-1,1.1570425E0,2.4799845E-1,-3.7629867E-1,8.392191E-1,1.2586011E0,3.7935174E-1,5.047177E-1,-9.219638E-1,8.670892E-1,1.4247273E0,1.9037344E-1,1.2674099E0,-1.607928E0,-3.9021477E-1,-1.6367025E0,-1.0538595E0,-6.252392E-1,8.3719456E-1,-1.2928891E0,-4.8976827E-1,1.1474439E0,-9.940453E-1,2.3511362E-1,-1.1147275E0,4.3805405E-1,1.3813139E0,-2.3767038E-1,9.914924E-1,-4.9256346E-1,-1.4394364E-1,1.4085777E-1,1.462234E0,-4.729232E-1,1.6697112E-1,1.2025932E0,6.239936E-3,1.4943933E0,7.13639E-1,6.2048537E-1,1.6976802E0,2.6067665E-1,1.4899062E0,-1.0901448E0,5.1254314E-1,-3.1371042E-1,1.5642921E0,7.3746306E-1,-1.2376455E0,-1.1085572E0,5.062829E-1,4.9032727E-1,1.6192993E0,-8.2913214E-1,1.1815494E0,-1.0949097E0,2.4714753E-2,1.5895737E0,6.6535324E-1,1.5877813E0,5.912318E-1,-3.1258005E-1,1.0632517E0,-1.5098798E-1,1.0042657E0,-1.6374238E0,1.2595387E-1,-1.2620968E-1,1.2360501E0,1.4942024E0,3.714513E-1,-1.1647798E0,1.1772218E0,5.144239E-1,1.5097953E0,-3.4094575E-1,-8.301005E-1,-1.3191428E0,9.007916E-1,-1.6772943E0,2.4502708E-1,-1.4578271E0,-1.3528731E-1,-2.849143E-2,-1.1454191E0,4.4546592E-1,3.8834324E-1,-1.491279E0,-5.444567E-1,-1.0778811E0,2.1884915E-1,1.3569465E0,-1.5088712E0,3.1646585E-1,-3.4650448E-1,-1.5044722E-1,8.855921E-1,6.107989E-1,-1.4615995E0,-4.6982467E-2,8.6288816E-1,1.676621E0,1.0685655E0,4.686993E-1,-1.1833763E0,1.7321402E0,6.00765E-1,-7.7497584E-1,-2.1576999E-1,-1.2278463E-1,-1.3965377E0,5.414032E-1,-4.145147E-1,1.5780481E0,9.828636E-1,4.0507993E-1,-6.7147774E-1,-1.6614892E-1,7.089403E-1,7.4582934E-1,1.5719965E0,-7.1242946E-1,6.9321996E-1,9.3817204E-1,1.6378015E0,-1.6907413E-1,1.1175969E0,-7.6210225E-1,3.6022377E-1,1.7800163E0,1.3473775E0,-9.1374135E-1,8.3392847E-1,1.591689E0,3.0205005E-1,-1.4685671E0,3.2811746E-1,2.1183977E-1,1.5289677E0,1.8417097E0,1.173088E0,1.5846781E-1,3.4148163E-1,3.716303E-1,-1.3409778E0,1.5119905E0,-1.3598329E0,7.4941134E-1,-1.5274416E0,-8.052441E-1,3.8066855E-1,1.17250614E-1,3.2825086E-1,-3.4244078E-1,4.3500087E-1,3.1991535E-1,-2.4316253E-1,3.0496162E-1,-1.240883E0,2.4222727E-1,-1.6698223E0,8.5875666E-1,1.633326E0,4.4549218E-1,1.3101962E0,1.3928398E0,3.2925525E-1,1.3796867E0,-5.7952034E-1,8.117388E-1,-1.2146667E0,-4.1222998E-1,1.4237032E0,-1.1533481E0,9.6079564E-1,2.9723052E-2,1.4419807E0,-3.3982527E-1,-6.810978E-1,-9.128573E-1,1.4173816E0,-1.4084847E0,2.788271E-1,1.4068664E0,6.0116315E-1,1.5559313E0,1.1536565E0,-1.1221656E0,1.0021528E0,-3.3891445E-1,-1.6092284E-2,3.6767957E-1,1.6023686E0,-9.967487E-1,1.3566507E0,7.816079E-1,1.62145E0,-2.9746267E-1,2.2619362E-1,3.8345167E-1,-1.5766666E0,1.3376007E0,-8.8067096E-1,-4.6372958E-2,-3.3888796E-1,4.101479E-1,-3.0741668E-1,-3.437331E-1,-2.1221487E-1,4.150439E-2,-3.2772467E-1,-9.750958E-2,1.7566653E-1,-3.5947788E-1,-1.5290777E-1,2.7707595E-1,9.89789E-3,-4.7205694E-2,-3.1846094E-1,-1.8078884E-1,3.1695294E-1,-2.850799E-1,2.086504E-1,1.4963107E-1,-1.9378357E-1,1.9624305E-1,3.3354172E-1,-3.31386E-1,1.6398165E-2,-2.3706968E-1,2.0060907E-1,2.6269603E-1,-7.351745E-2,3.2731447E-2,2.3449002E-1,-3.238093E-1,1.9016154E-1,-3.209595E-1,4.3308064E-2,-3.7579378E-1,5.6616213E-2,8.5184336E-2,3.0381152E-1,3.607329E-1,1.4950623E-1,-2.9545171E-2,3.1383118E-1,-5.421233E-2,2.449181E-1,-3.479714E-1,2.5444387E-2,2.0373817E-1,3.589254E-1,-7.672661E-2,2.6808557E-1,-1.795605E-1,3.872572E-2,2.008558E-1,-1.079302E-1,-3.351586E-2,3.735953E-2,-3.191762E-1,-1.2101503E-1,-1.1141014E-1,1.8731639E-1,-2.0087712E-1,3.0617515E-2,1.6844308E-1,3.350421E-1,6.952147E-2,3.3306086E-1,-6.460826E-2,1.7918889E-1,-1.9347733E-1,-4.3570265E-2,-2.0488684E-1,5.881632E-2,3.1249645E-1,1.01278545E-2,4.9517512E-2,3.5181808E-1,3.4001443E-1,7.616276E-2,-1.924641E-1,6.0953375E-2,4.466975E-2,2.9678085E-1,4.268269E-2,3.3583713E-1,2.6064143E-1,3.603206E-1,-1.606E-1,3.461182E-1,3.4981605E-1,1.708695E-1,-2.9406825E-1,1.2194937E-1,3.0890533E-1,3.7110117E-1,1.9188617E-1,3.3744445E-1,-2.835556E-1,2.783736E-1,-1.00827135E-1,2.6055345E-1,1.7910269E-1,3.5472792E-1,-3.670426E-1,2.5564736E-1,-6.98139E-3,-3.1595698E-1,-3.32569E-1,2.6225176E-1,-1.9814281E-1,1.5481742E-1,3.2074934E-1,-2.1639387E-1,3.7454697E-1,-3.3231128E-3,4.7693882E-2,3.5254598E-1,-3.1419894E-1,1.9133227E-1,-1.789358E-2,3.4267753E-1,-3.040901E-1,-1.555625E-1,3.3533308E-1,2.295592E-2,-6.821843E-2,-3.220247E-1,-2.729995E-1,1.8778557E-1,-4.9803596E-2,-3.273568E-1,-2.584162E-1,1.5412626E-1,-3.0770677E-1,3.694847E-1,-3.1898388E-1,2.4726732E-1,-3.15912E-1,-1.3123669E-2,-1.16051555E-1,1.7678396E-1,-2.0117842E-2,-3.4400016E-1,-1.0569665E-2,2.9154313E-1,3.3251938E-1,2.2334309E-1,2.5652861E-2,2.5388E-1,2.8627682E-1,-4.0519934E-2,3.0879995E-1,-1.474614E-1,3.19984E-1,1.1205345E-1,-1.8477574E-1,3.090072E-1,2.9979476E-1,-1.5525036E-1,-3.0152923E-1,-1.13588884E-1,2.6983914E-1,-2.1607478E-1,3.009437E-1,1.0373719E-1,2.2482066E-3,-3.2785922E-1,-1.2738447E-1,3.0184603E-1,2.847093E-1,-1.5778428E-1,9.598705E-2,3.4358948E-1,-2.1104315E-1,-1.2909117E-2,-3.2506636E-1,-1.8004594E-2,3.619319E-1,4.7709066E-3,1.703334E-1,-3.4007224E-1,1.6162108E-1,-7.467177E-2,2.9543635E-1,6.333551E-2,2.6569185E-1,-2.3298347E-1,3.229561E-1,2.0836869E-1,3.296946E-1,8.282857E-2,-3.2573107E-1,4.3952875E-3,3.2474545E-1,7.678515E-2,-2.8936672E-1,3.0859274E-1,-2.8330073E-1,2.6064548E-1,3.3833367E-1,7.016693E-2,-2.1278754E-2,-2.9505816E-1,1.4617251E-1,3.1699502E-1,-2.0049618E-1,3.1382552E-1,2.0005515E-1,3.346987E-1,-6.835302E-2,2.3406184E-1,-3.2645983E-1,-1.2510884E-1,9.109106E-2,3.0612156E-1,-2.6742384E-1,-3.404279E-2],"categories":[],"categories_nodes":[],"categories_segments":[],"categories_sizes":[],"default_left":[0,0,0,0,0,0,0,0,0,0,0,0,0,0,0,0,0,0,0,0,0,0,0,0,0,0,0,0,0,0,0,0,0,0,0,0,0,0,0,0,0,0,0,0,0,0,0,0,0,0,0,0,0,0,0,0,0,0,0,0,0,0,0,0,0,0,0,0,0,0,0,0,0,0,0,0,0,0,0,0,0,0,0,0,0,0,0,0,0,0,0,0,0,0,0,0,0,0,0,0,0,0,0,0,0,0,0,0,0,0,0,0,0,0,0,0,0,0,0,0,0,0,0,0,0,0,0,0,0,0,0,0,0,0,0,0,0,0,0,0,0,0,0,0,0,0,0,0,0,0,0,0,0,0,0,0,0,0,0,0,0,0,0,0,0,0,0,0,0,0,0,0,0,0,0,0,0,0,0,0,0,0,0,0,0,0,0,0,0,0,0,0,0,0,0,0,0,0,0,0,0,0,0,0,0,0,0,0,0,0,0,0,0,0,0,0,0,0,0,0,0,0,0,0,0,0,0,0,0,0,0,0,0,0,0,0,0,0,0,0,0,0,0,0,0,0,0,0,0,0,0,0,0,0,0,0,0,0,0,0,0,0,0,0,0,0,0,0,0,0,0,0,0,0,0,0,0,0,0,0,0,0,0,0,0,0,0,0,0,0,0,0,0,0,0,0,0,0,0,0,0,0,0,0,0,0,0,0,0,0,0,0,0,0,0,0,0,0,0,0,0,0,0,0,0,0,0,0,0,0,0,0,0,0,0,0,0,0,0,0,0,0,0,0,0,0,0,0,0,0,0,0,0,0,0,0,0,0,0,0,0,0,0,0,0,0,0,0,0,0,0,0,0,0,0,0,0,0,0,0,0,0,0,0,0,0,0,0,0,0,0,0,0,0,0,0,0,0,0,0,0,0,0,0,0,0,0,0,0,0,0,0,0,0,0,0,0,0,0,0,0,0,0,0,0,0,0,0,0,0,0,0,0,0,0,0,0,0,0,0,0,0,0,0,0,0,0,0,0,0,0,0,0,0,0,0,0,0,0,0,0,0,0,0,0,0,0,0,0],"id":1,"left_children":[1,3,5,7,9,11,13,15,17,19,21,23,25,27,29,31,33,35,37,39,41,43,45,47,49,51,53,55,57,59,61,63,65,67,69,71,73,75,77,79,81,83,85,87,89,91,93,95,97,99,101,103,105,107,109,111,113,115,117,119,121,123,125,127,129,131,133,135,137,139,141,143,145,147,149,151,153,155,157,159,161,163,165,167,169,171,173,175,177,179,181,183,185,-1,187,189,191,193,195,197,199,201,203,205,207,209,211,213,215,217,219,221,223,225,227,229,231,233,235,237,239,241,243,-1,245,247,249,251,253,255,257,259,261,263,-1,265,267,269,271,273,275,277,-1,279,281,283,285,287,289,291,293,295,297,299,301,303,305,307,309,311,313,315,317,319,321,323,325,327,329,331,333,335,337,339,341,343,-1,345,347,349,351,353,355,357,359,361,363,365,367,369,-1,371,373,375,377,379,381,383,-1,-1,-1,-1,385,-1,387,-1,389,391,393,395,397,399,401,403,-1,405,407,409,411,413,415,417,419,421,423,-1,425,427,429,431,433,435,437,439,441,443,445,-1,447,449,451,453,455,457,459,-1,-1,461,463,465,467,-1,-1,-1,-1,-1,-1,-1,-1,-1,-1,-1,-1,-1,-1,-1,-1,-1,-1,-1,-1,-1,-1,-1,-1,-1,-1,-1,-1,-1,-1,-1,-1,-1,-1,-1,-1,-1,-1,-1,-1,-1,-1,-1,-1,-1,-1,-1,-1,-1,-1,-1,-1,-1,-1,-1,-1,-1,-1,-1,-1,-1,-1,-1,-1,-1,-1,-1,-1,-1,-1,-1,-1,-1,-1,-1,-1,-1,-1,-1,-1,-1,-1,-1,-1,-1,-1,-1,-1,-1,-1,-1,-1,-1,-1,-1,-1,-1,-1,-1,-1,-1,-1,-1,-1,-1,-1,-1,-1,-1,-1,-1,-1,-1,-1,-1,-1,-1,-1,-1,-1,-1,-1,-1,-1,-1,-1,-1,-1,-1,-1,-1,-1,-1,-1,-1,-1,-1,-1,-1,-1,-1,-1,-1,-1,-1,-1,-1,-1,-1,-1,-1,-1,-1,-1,-1,-1,-1,-1,-1,-1,-1,-1,-1,-1,-1,-1,-1,-1,-1,-1,-1,-1,-1,-1,-1,-1,-1,-1,-1,-1,-1,-1,-1,-1,-1,-1,-1,-1,-1,-1,-1,-1,-1,-1,-1,-1,-1,-1,-1,-1,-1,-1,-1,-1,-1,-1,-1,-1,-1,-1,-1,-1,-1,-1,-1,-1,-1,-1],"loss_changes":[1.3255264E3,1.5487777E3,6.182543E2,6.9169385E2,3.6709546E2,9.291615E2,2.0599158E2,4.960006E2,3.8295755E2,3.8821567E2,3.7409454E2,2.4720447E2,2.3799298E2,2.8494385E2,2.6651477E2,4.7804236E2,1.2243158E3,3.03191E2,2.768675E2,3.2383286E2,2.1971252E2,5.1703247E1,2.0470634E2,1.8981366E2,2.657473E1,4.523981E2,9.255878E1,1.1136784E2,9.920166E1,4.45157E1,4.4785294E1,8.971997E1,2.1148843E2,1.2503479E2,3.1953772E2,2.3487926E2,1.5007306E2,2.3456483E2,2.934522E2,3.7340967E2,2.266197E2,2.680272E2,9.770709E1,9.986328E0,1.0193405E2,3.1574146E2,1.3615485E2,1.7550195E2,2.611467E2,2.1776505E1,6.086001E1,1.483902E2,9.7576416E1,1.21935425E2,7.355564E1,6.350439E1,5.7418823E1,1.8444342E2,6.602307E1,7.848428E1,2.1410309E1,3.103897E0,7.735722E1,5.3102295E1,1.6438223E2,1.1757318E2,5.705356E1,8.142847E1,1.2608905E2,2.8833423E2,7.875238E1,1.1516029E2,1.0822583E2,9.000071E1,2.3773071E1,1.8753725E2,1.00039795E2,2.5533301E2,2.4493274E2,2.2296974E2,1.3555847E1,2.318359E2,1.7146527E2,4.1116364E1,3.6670966E2,2.132489E1,1.332602E2,1.9986649E1,6.1937866E0,7.079726E1,2.3477905E1,9.396866E1,1.2733663E2,0E0,1.4661621E1,2.7526327E1,8.8934265E1,1.1676614E2,1.1765219E2,5.9052483E1,8.872986E-3,3.2265457E1,1.9633717E1,7.2416595E1,1.225601E2,3.1220703E0,8.6684265E1,1.9714355E0,1.7281458E2,7.978126E1,4.209548E1,9.527846E1,4.6840637E1,1.52285E0,4.4075706E1,7.15985E1,3.892749E1,1.6140503E1,5.5413918E1,1.5064949E1,1.106538E1,4.095923E1,6.1676636E0,0E0,1.2755331E1,1.6977615E1,2.2321693E1,1.6345215E1,5.2834805E1,3.004535E1,7.07253E1,7.430686E1,4.8884583E1,3.7192204E1,0E0,5.507245E1,9.14699E1,1.23257935E2,8.735498E1,5.4101196E1,9.105469E0,3.209089E1,0E0,9.229017E1,3.5185425E1,2.4830524E1,3.6298615E1,1.2436359E2,6.6096924E1,1.5249084E1,8.376128E1,9.032873E1,8.771228E1,3.5259094E0,1.6812007E2,1.9260321E2,6.533581E2,1.2616313E2,2.3256622E1,2.5323917E2,1.4082024E2,1.4140015E1,2.3524982E1,8.807175E1,1.45255E2,2.3280498E2,2.0302953E2,5.710043E1,2.0354706E1,9.256671E1,1.4075261E2,3.2449467E1,1.00668335E1,1.4353098E2,4.1088287E1,6.6825113E0,0E0,1.3666382E0,6.3982315E0,4.218147E1,4.4839077E1,2.1502258E1,3.7551174E1,2.1898102E1,7.5593025E1,2.1948442E2,2.032164E1,5.158722E0,3.653969E1,4.5811016E1,0E0,2.048986E1,4.9348267E1,3.423542E0,4.011743E1,8.588767E1,3.1555634E0,1.4110145E1,0E0,0E0,0E0,0E0,3.7434746E1,0E0,1.8367908E1,0E0,6.9647675E1,1.5599286E2,2.8056717E0,5.5928183E0,1.4556885E-1,1.2020767E2,2.8888336E1,3.1022964E1,0E0,1.9252441E1,5.68082E1,3.956082E1,7.3869705E0,2.040384E1,3.8349304E0,2.5424477E1,3.654553E1,4.115757E1,1.9305618E1,0E0,9.518645E-1,1.057133E1,7.942354E0,2.3267914E1,3.6554924E1,2.1628296E1,1.0366171E2,2.0082275E1,4.864038E1,1.022448E1,1.5150452E1,0E0,2.194495E1,2.3474987E1,1.8545876E0,4.8337536E0,1.7572517E0,2.1366764E1,8.5917664E-1,0E0,0E0,3.658604E0,7.055893E-1,3.08572E0,1.7030244E0,0E0,0E0,0E0,0E0,0E0,0E0,0E0,0E0,0E0,0E0,0E0,0E0,0E0,0E0,0E0,0E0,0E0,0E0,0E0,0E0,0E0,0E0,0E0,0E0,0E0,0E0,0E0,0E0,0E0,0E0,0E0,0E0,0E0,0E0,0E0,0E0,0E0,0E0,0E0,0E0,0E0,0E0,0E0,0E0,0E0,0E0,0E0,0E0,0E0,0E0,0E0,0E0,0E0,0E0,0E0,0E0,0E0,0E0,0E0,0E0,0E0,0E0,0E0,0E0,0E0,0E0,0E0,0E0,0E0,0E0,0E0,0E0,0E0,0E0,0E0,0E0,0E0,0E0,0E0,0E0,0E0,0E0,0E0,0E0,0E0,0E0,0E0,0E0,0E0,0E0,0E0,0E0,0E0,0E0,0E0,0E0,0E0,0E0,0E0,0E0,0E0,0E0,0E0,0E0,0E0,0E0,0E0,0E0,0E0,0E0,0E0,0E0,0E0,0E0,0E0,0E0,0E0,0E0,0E0,0E0,0E0,0E0,0E0,0E0,0E0,0E0,0E0,0E0,0E0,0E0,0E0,0E0,0E0,0E0,0E0,0E0,0E0,0E0,0E0,0E0,0E0,0E0,0E0,0E0,0E0,0E0,0E0,0E0,0E0,0E0,0E0,0E0,0E0,0E0,0E0,0E0,0E0,0E0,0E0,0E0,0E0,0E0,0E0,0E0,0E0,0E0,0E0,0E0,0E0,0E0,0E0,0E0,0E0,0E0,0E0,0E0,0E0,0E0,0E0,0E0,0E0,0E0,0E0,0E0,0E0,0E0,0E0,0E0,0E0,0E0,0E0,0E0,0E0,0E0,0E0,0E0,0E0,0E0,0E0,0E0,0E0,0E0,0E0,0E0,0E0,0E0,0E0,0E0,0E0,0E0,0E0,0E0,0E0,0E0,0E0,0E0,0E0,0E0],"parents":[2147483647,0,0,1,1,2,2,3,3,4,4,5,5,6,6,7,7,8,8,9,9,10,10,11,11,12,12,13,13,14,14,15,15,16,16,17,17,18,18,19,19,20,20,21,21,22,22,23,23,24,24,25,25,26,26,27,27,28,28,29,29,30,30,31,31,32,32,33,33,34,34,35,35,36,36,37,37,38,38,39,39,40,40,41,41,42,42,43,43,44,44,45,45,46,46,47,47,48,48,49,49,50,50,51,51,52,52,53,53,54,54,55,55,56,56,57,57,58,58,59,59,60,60,61,61,62,62,63,63,64,64,65,65,66,66,67,67,68,68,69,69,70,70,71,71,72,72,73,73,74,74,75,75,76,76,77,77,78,78,79,79,80,80,81,81,82,82,83,83,84,84,85,85,86,86,87,87,88,88,89,89,90,90,91,91,92,92,94,94,95,95,96,96,97,97,98,98,99,99,100,100,101,101,102,102,103,103,104,104,105,105,106,106,107,107,108,108,109,109,110,110,111,111,112,112,113,113,114,114,115,115,116,116,117,117,118,118,119,119,120,120,121,121,122,122,124,124,125,125,126,126,127,127,128,128,129,129,130,130,131,131,132,132,133,133,135,135,136,136,137,137,138,138,139,139,140,140,141,141,143,143,144,144,145,145,146,146,147,147,148,148,149,149,150,150,151,151,152,152,153,153,154,154,155,155,156,156,157,157,158,158,159,159,160,160,161,161,162,162,163,163,164,164,165,165,166,166,167,167,168,168,169,169,170,170,171,171,172,172,173,173,174,174,175,175,177,177,178,178,179,179,180,180,181,181,182,182,183,183,184,184,185,185,186,186,187,187,188,188,189,189,191,191,192,192,193,193,194,194,195,195,196,196,197,197,202,202,204,204,206,206,207,207,208,208,209,209,210,210,211,211,212,212,213,213,215,215,216,216,217,217,218,218,219,219,220,220,221,221,222,222,223,223,224,224,226,226,227,227,228,228,229,229,230,230,231,231,232,232,233,233,234,234,235,235,236,236,238,238,239,239,240,240,241,241,242,242,243,243,244,244,247,247,248,248,249,249,250,250],"right_children":[2,4,6,8,10,12,14,16,18,20,22,24,26,28,30,32,34,36,38,40,42,44,46,48,50,52,54,56,58,60,62,64,66,68,70,72,74,76,78,80,82,84,86,88,90,92,94,96,98,100,102,104,106,108,110,112,114,116,118,120,122,124,126,128,130,132,134,136,138,140,142,144,146,148,150,152,154,156,158,160,162,164,166,168,170,172,174,176,178,180,182,184,186,-1,188,190,192,194,196,198,200,202,204,206,208,210,212,214,216,218,220,222,224,226,228,230,232,234,236,238,240,242,244,-1,246,248,250,252,254,256,258,260,262,264,-1,266,268,270,272,274,276,278,-1,280,282,284,286,288,290,292,294,296,298,300,302,304,306,308,310,312,314,316,318,320,322,324,326,328,330,332,334,336,338,340,342,344,-1,346,348,350,352,354,356,358,360,362,364,366,368,370,-1,372,374,376,378,380,382,384,-1,-1,-1,-1,386,-1,388,-1,390,392,394,396,398,400,402,404,-1,406,408,410,412,414,416,418,420,422,424,-1,426,428,430,432,434,436,438,440,442,444,446,-1,448,450,452,454,456,458,460,-1,-1,462,464,466,468,-1,-1,-1,-1,-1,-1,-1,-1,-1,-1,-1,-1,-1,-1,-1,-1,-1,-1,-1,-1,-1,-1,-1,-1,-1,-1,-1,-1,-1,-1,-1,-1,-1,-1,-1,-1,-1,-1,-1,-1,-1,-1,-1,-1,-1,-1,-1,-1,-1,-1,-1,-1,-1,-1,-1,-1,-1,-1,-1,-1,-1,-1,-1,-1,-1,-1,-1,-1,-1,-1,-1,-1,-1,-1,-1,-1,-1,-1,-1,-1,-1,-1,-1,-1,-1,-1,-1,-1,-1,-1,-1,-1,-1,-1,-1,-1,-1,-1,-1,-1,-1,-1,-1,-1,-1,-1,-1,-1,-1,-1,-1,-1,-1,-1,-1,-1,-1,-1,-1,-1,-1,-1,-1,-1,-1,-1,-1,-1,-1,-1,-1,-1,-1,-1,-1,-1,-1,-1,-1,-1,-1,-1,-1,-1,-1,-1,-1,-1,-1,-1,-1,-1,-1,-1,-1,-1,-1,-1,-1,-1,-1,-1,-1,-1,-1,-1,-1,-1,-1,-1,-1,-1,-1,-1,-1,-1,-1,-1,-1,-1,-1,-1,-1,-1,-1,-1,-1,-1,-1,-1,-1,-1,-1,-1,-1,-1,-1,-1,-1,-1,-1,-1,-1,-1,-1,-1,-1,-1,-1,-1,-1,-1,-1,-1,-1,-1,-1,-1],"split_conditions":[2.6633677E0,6.064559E-1,-3.7900123E-1,-7.0480116E-2,3.271863E-1,3.9025486E0,-3.862177E-2,2.104213E0,-1.5809702E0,1.8228892E0,-4.5137954E-1,7.318528E-1,-9.4395125E-1,-1.8324476E-2,-4.4448152E-1,-7.004656E-2,1.0333738E0,-3.7900123E-1,-1.7015104E0,-1.1482326E0,-9.4395125E-1,-6.1125565E-1,1.020277E0,-7.32095E-1,-4.589977E-2,5.1900253E0,-9.440937E-2,-7.0607245E-2,-2.5907472E-2,2.46415E0,1.0333738E0,1.8849947E0,-5.727379E-2,3.271863E-1,2.0298831E-1,-2.2713828E0,6.548849E-2,-3.7900123E-1,-7.4757084E-2,-3.7900123E-1,1.6106045E0,-1.945005E0,-4.2395452E-1,5.358127E-1,9.446644E-1,9.914621E-1,-5.7876594E-3,-3.7288943E-1,3.213378E0,3.0226202E0,-9.4395125E-1,-1.1558075E0,-4.050018E0,-3.2218557E-2,-7.055562E-2,-1.9291166E-2,-1.6964387E-2,2.9805408E0,1.1892532E-1,3.271863E-1,1.1787715E-2,3.3514419E0,-4.0932633E-3,1.1416063E-1,1.7395613E0,-1.21525936E-1,3.271863E-1,-6.750414E-2,2.4100473E0,-5.5581987E-2,-1.5429405E0,1.246665E-1,8.219719E-3,3.271863E-1,-1.8905698E0,-2.8605509E0,-2.257464E0,1.0333738E0,-2.8980628E-2,-1.945005E0,-1.2265463E0,-1.4871197E0,-3.7900123E-1,2.1366274E0,3.4079444E0,1.9378046E0,-7.32095E-1,5.2619386E-1,-5.729271E-1,1.0333738E0,-1.7710738E-1,8.8369536E-1,1.5858241E0,-3.1371042E-1,-1.016697E-1,-9.4395125E-1,-1.2420402E0,-3.16699E-1,-3.920351E-2,-1.1558075E0,8.348725E-1,1.6175148E0,-4.1653294E-2,-1.9146036E0,-3.7017647E-2,5.789204E0,3.848346E0,-8.447299E-2,-2.566113E0,-6.514783E-1,2.9244683E0,1.0333738E0,-2.5907472E-2,-6.928031E-2,1.0333738E0,1.8780051E-1,-3.920351E-2,-4.4340115E-2,2.6585013E-4,1.4900132E-1,1.0333738E0,3.271863E-1,7.9778224E-2,-3.4094575E-1,3.271863E-1,-1.1032555E0,-3.7294405E0,-1.1124491E-1,-2.7493412E-2,1.0333738E0,-6.8076335E-2,1.0333738E0,1.0333738E0,-1.9649878E-1,3.8834324E-1,-1.2775287E-1,-6.915046E-2,-6.3577235E-2,-5.209357E-3,2.31268E0,2.1172588E0,-2.0651216E-2,-3.4650448E-1,-5.0041227E0,-1.1558075E0,-1.1558075E0,3.0168695E-2,1.299422E-1,-7.435486E-2,-3.373955E-1,-2.5907472E-2,-9.4395125E-1,1.0521711E-1,-2.587503E-2,3.271863E-1,2.0899186E0,-1.0343808E0,1.0579844E0,-7.0402816E-2,-1.1558075E0,9.898745E-1,3.8887113E-1,-2.5907472E-2,-9.4395125E-1,-2.5907472E-2,2.82289E-1,-2.828107E-1,-1.1558075E0,-2.0743003E0,2.5497368E-1,-1.1558075E0,-7.32095E-1,3.9953744E-1,3.206261E0,-5.10143E-1,1.7395613E0,3.6022377E-1,-1.8352541E-1,1.3217025E-1,6.4616257E-1,1.561739E-1,6.60142E-1,1.0333738E0,-4.6587303E-1,1.0333738E0,1.0333738E0,1.3062447E-2,-1.02223456E-1,1.0333738E0,-2.7491944E-2,3.4148163E-1,-9.4395125E-1,3.6815012E0,-7.0631854E-2,-1.1779259E-1,-2.6308724E-1,-2.358729E0,8.1351286E-1,3.8066855E-1,1.17250614E-1,3.2825086E-1,-3.4244078E-1,-1.1558075E0,3.1991535E-1,-7.32095E-1,3.0496162E-1,-5.5314198E-2,4.4343224E0,4.630091E-3,-5.1243296E0,-7.0627175E-2,1.91489E-1,-2.826222E-2,-8.84706E-2,3.2925525E-1,-2.7358184E0,1.8341026E-1,-7.06402E-2,2.2418773E0,-4.8513595E-2,-2.0803083E-1,-1.9295033E0,-2.6629739E-2,-2.2435663E0,-2.7249718E-2,-3.3982527E-1,1.0333738E0,3.271863E-1,-2.277621E0,-2.0505128E0,-4.4476578E-1,-4.0774826E-2,-2.094147E0,-5.207648E-2,-1.8938687E0,1.7395613E0,-1.8602638E0,-3.3891445E-1,-2.5907472E-2,3.0667932E0,-2.382432E0,-3.150638E-2,1.7948669E-1,-2.5907472E-2,1.3074492E0,-2.9746267E-1,2.2619362E-1,1.7395613E0,1.4604062E0,1.0289111E0,1.7395613E0,-4.6372958E-2,-3.3888796E-1,4.101479E-1,-3.0741668E-1,-3.437331E-1,-2.1221487E-1,4.150439E-2,-3.2772467E-1,-9.750958E-2,1.7566653E-1,-3.5947788E-1,-1.5290777E-1,2.7707595E-1,9.89789E-3,-4.7205694E-2,-3.1846094E-1,-1.8078884E-1,3.1695294E-1,-2.850799E-1,2.086504E-1,1.4963107E-1,-1.9378357E-1,1.9624305E-1,3.3354172E-1,-3.31386E-1,1.6398165E-2,-2.3706968E-1,2.0060907E-1,2.6269603E-1,-7.351745E-2,3.2731447E-2,2.3449002E-1,-3.238093E-1,1.9016154E-1,-3.209595E-1,4.3308064E-2,-3.7579378E-1,5.6616213E-2,8.5184336E-2,3.0381152E-1,3.607329E-1,1.4950623E-1,-2.9545171E-2,3.1383118E-1,-5.421233E-2,2.449181E-1,-3.479714E-1,2.5444387E-2,2.0373817E-1,3.589254E-1,-7.672661E-2,2.6808557E-1,-1.795605E-1,3.872572E-2,2.008558E-1,-1.079302E-1,-3.351586E-2,3.735953E-2,-3.191762E-1,-1.2101503E-1,-1.1141014E-1,1.8731639E-1,-2.0087712E-1,3.0617515E-2,1.6844308E-1,3.350421E-1,6.952147E-2,3.3306086E-1,-6.460826E-2,1.7918889E-1,-1.9347733E-1,-4.3570265E-2,-2.0488684E-1,5.881632E-2,3.1249645E-1,1.01278545E-2,4.9517512E-2,3.5181808E-1,3.4001443E-1,7.616276E-2,-1.924641E-1,6.0953375E-2,4.466975E-2,2.9678085E-1,4.268269E-2,3.3583713E-1,2.6064143E-1,3.603206E-1,-1.606E-1,3.461182E-1,3.4981605E-1,1.708695E-1,-2.9406825E-1,1.2194937E-1,3.0890533E-1,3.7110117E-1,1.9188617E-1,3.3744445E-1,-2.835556E-1,2.783736E-1,-1.00827135E-1,2.6055345E-1,1.7910269E-1,3.5472792E-1,-3.670426E-1,2.5564736E-1,-6.98139E-3,-3.1595698E-1,-3.32569E-1,2.6225176E-1,-1.9814281E-1,1.5481742E-1,3.2074934E-1,-2.1639387E-1,3.7454697E-1,-3.3231128E-3,4.7693882E-2,3.5254598E-1,-3.1419894E-1,1.9133227E-1,-1.789358E-2,3.4267753E-1,-3.040901E-1,-1.555625E-1,3.3533308E-1,2.295592E-2,-6.821843E-2,-3.220247E-1,-2.729995E-1,1.8778557E-1,-4.9803596E-2,-3.273568E-1,-2.584162E-1,1.5412626E-1,-3.0770677E-1,3.694847E-1,-3.1898388E-1,2.4726732E-1,-3.15912E-1,-1.3123669E-2,-1.16051555E-1,1.7678396E-1,-2.0117842E-2,-3.4400016E-1,-1.0569665E-2,2.9154313E-1,3.3251938E-1,2.2334309E-1,2.5652861E-2,2.5388E-1,2.8627682E-1,-4.0519934E-2,3.0879995E-1,-1.474614E-1,3.19984E-1,1.1205345E-1,-1.8477574E-1,3.090072E-1,2.9979476E-1,-1.5525036E-1,-3.0152923E-1,-1.13588884E-1,2.6983914E-1,-2.1607478E-1,3.009437E-1,1.0373719E-1,2.2482066E-3,-3.2785922E-1,-1.2738447E-1,3.0184603E-1,2.847093E-1,-1.5778428E-1,9.598705E-2,3.4358948E-1,-2.1104315E-1,-1.2909117E-2,-3.2506636E-1,-1.8004594E-2,3.619319E-1,4.7709066E-3,1.703334E-1,-3.4007224E-1,1.6162108E-1,-7.467177E-2,2.9543635E-1,6.333551E-2,2.6569185E-1,-2.3298347E-1,3.229561E-1,2.0836869E-1,3.296946E-1,8.282857E-2,-3.2573107E-1,4.3952875E-3,3.2474545E-1,7.678515E-2,-2.8936672E-1,3.0859274E-1,-2.8330073E-1,2.6064548E-1,3.3833367E-1,7.016693E-2,-2.1278754E-2,-2.9505816E-1,1.4617251E-1,3.1699502E-1,-2.0049618E-1,3.1382552E-1,2.0005515E-1,3.346987E-1,-6.835302E-2,2.3406184E-1,-3.2645983E-1,-1.2510884E-1,9.109106E-2,3.0612156E-1,-2.6742384E-1,-3.404279E-2],"split_indices":[17,8,0,16,0,17,21,17,1,9,2,9,0,7,10,18,0,0,4,2,0,1,17,0,4,17,5,21,0,6,0,17,15,0,4,1,17,0,22,0,11,2,5,9,10,10,9,2,17,17,0,0,5,14,13,12,10,17,15,0,22,6,22,1,0,2,0,19,17,22,5,17,9,0,1,4,4,0,2,2,2,5,0,8,10,9,0,7,4,0,5,17,10,0,22,0,4,2,15,0,9,10,5,4,14,17,7,8,5,10,6,0,0,22,0,7,15,14,11,20,0,0,20,0,0,9,18,12,9,0,12,0,0,3,0,12,15,19,3,17,7,7,0,1,0,0,20,12,22,4,0,0,18,11,0,11,1,10,15,0,8,7,0,0,0,21,5,0,4,22,0,0,17,11,4,0,0,21,19,7,18,8,0,1,0,0,14,21,0,8,0,0,17,21,10,9,5,10,0,0,0,0,0,0,0,0,19,17,2,16,19,10,5,10,0,5,13,16,7,3,8,5,8,5,10,0,0,0,6,5,5,5,5,22,5,0,5,0,0,17,18,1,21,0,7,0,0,0,7,7,0,0,0,0,0,0,0,0,0,0,0,0,0,0,0,0,0,0,0,0,0,0,0,0,0,0,0,0,0,0,0,0,0,0,0,0,0,0,0,0,0,0,0,0,0,0,0,0,0,0,0,0,0,0,0,0,0,0,0,0,0,0,0,0,0,0,0,0,0,0,0,0,0,0,0,0,0,0,0,0,0,0,0,0,0,0,0,0,0,0,0,0,0,0,0,0,0,0,0,0,0,0,0,0,0,0,0,0,0,0,0,0,0,0,0,0,0,0,0,0,0,0,0,0,0,0,0,0,0,0,0,0,0,0,0,0,0,0,0,0,0,0,0,0,0,0,0,0,0,0,0,0,0,0,0,0,0,0,0,0,0,0,0,0,0,0,0,0,0,0,0,0,0,0,0,0,0,0,0,0,0,0,0,0,0,0,0,0,0,0,0,0,0,0,0,0,0,0,0,0,0,0,0,0,0,0,0,0,0,0,0,0,0,0,0,0,0,0,0],"split_type":[0,0,0,0,0,0,0,0,0,0,0,0,0,0,0,0,0,0,0,0,0,0,0,0,0,0,0,0,0,0,0,0,0,0,0,0,0,0,0,0,0,0,0,0,0,0,0,0,0,0,0,0,0,0,0,0,0,0,0,0,0,0,0,0,0,0,0,0,0,0,0,0,0,0,0,0,0,0,0,0,0,0,0,0,0,0,0,0,0,0,0,0,0,0,0,0,0,0,0,0,0,0,0,0,0,0,0,0,0,0,0,0,0,0,0,0,0,0,0,0,0,0,0,0,0,0,0,0,0,0,0,0,0,0,0,0,0,0,0,0,0,0,0,0,0,0,0,0,0,0,0,0,0,0,0,0,0,0,0,0,0,0,0,0,0,0,0,0,0,0,0,0,0,0,0,0,0,0,0,0,0,0,0,0,0,0,0,0,0,0,0,0,0,0,0,0,0,0,0,0,0,0,0,0,0,0,0,0,0,0,0,0,0,0,0,0,0,0,0,0,0,0,0,0,0,0,0,0,0,0,0,0,0,0,0,0,0,0,0,0,0,0,0,0,0,0,0,0,0,0,0,0,0,0,0,0,0,0,0,0,0,0,0,0,0,0,0,0,0,0,0,0,0,0,0,0,0,0,0,0,0,0,0,0,0,0,0,0,0,0,0,0,0,0,0,0,0,0,0,0,0,0,0,0,0,0,0,0,0,0,0,0,0,0,0,0,0,0,0,0,0,0,0,0,0,0,0,0,0,0,0,0,0,0,0,0,0,0,0,0,0,0,0,0,0,0,0,0,0,0,0,0,0,0,0,0,0,0,0,0,0,0,0,0,0,0,0,0,0,0,0,0,0,0,0,0,0,0,0,0,0,0,0,0,0,0,0,0,0,0,0,0,0,0,0,0,0,0,0,0,0,0,0,0,0,0,0,0,0,0,0,0,0,0,0,0,0,0,0,0,0,0,0,0,0,0,0,0,0,0,0,0,0,0,0,0,0,0,0,0,0,0,0,0,0,0,0,0,0,0,0,0,0,0,0,0,0,0,0,0,0,0,0,0,0,0,0,0,0],"sum_hessian":[2.9215006E4,2.4138984E4,5.0760215E3,1.7578195E4,6.56079E3,3.09887E3,1.9771516E3,3.0891953E3,1.4489E4,5.194987E3,1.3658035E3,1.1179294E3,1.9809407E3,1.678394E3,2.9875748E2,1.6420851E3,1.4471101E3,1.347344E3,1.3141655E4,3.5468032E3,1.6481833E3,6.074934E2,7.5831006E2,9.871452E2,1.3078423E2,1.2688837E3,7.1205695E2,2.677198E2,1.4106743E3,1.7722615E2,1.21531334E2,1.131358E3,5.1072714E2,8.5386566E2,5.932445E2,6.359681E2,7.11376E2,6.271926E2,1.2514463E4,1.2714281E3,2.2753752E3,9.903907E2,6.5779266E2,3.0730197E2,3.001914E2,5.89867E2,1.6844307E2,5.793132E2,4.0783203E2,7.223475E1,5.8549473E1,5.138411E2,7.5504254E2,5.5832025E2,1.5373672E2,1.924102E2,7.530959E1,5.018464E2,9.088279E2,5.666194E1,1.2056421E2,5.9017616E1,6.2513718E1,6.8883527E2,4.4252277E2,3.778649E2,1.3286223E2,5.528763E2,3.0098938E2,5.13437E2,7.980752E1,4.5764227E2,1.7832582E2,4.3557263E2,2.7580334E2,2.7890652E2,3.482861E2,3.2675242E3,9.246938E3,1.00031903E3,2.71109E2,1.3272963E3,9.48079E2,2.4963E2,7.407607E2,2.8560403E2,3.7218866E2,1.0403344E1,2.9689862E2,1.0302761E2,1.9716379E2,1.7318752E2,4.166795E2,1.4439083E1,1.5400398E2,4.8496468E1,5.308167E2,1.7320447E2,2.3462758E2,3.0420229E1,4.1814518E1,2.7236204E1,3.1313267E1,1.834216E2,3.3041953E2,1.4050803E2,6.1453455E2,3.7297232E2,1.8534792E2,7.668951E1,7.704722E1,8.35026E1,1.089076E2,4.4419727E1,3.088987E1,1.3610068E2,3.6574573E2,8.521975E2,5.6630375E1,2.3799646E1,3.2862293E1,3.011922E1,9.044499E1,5.142599E1,7.5916266E0,3.6342278E1,2.6171442E1,6.743962E2,1.4439083E1,3.0694717E2,1.3557559E2,1.7647197E2,2.0139294E2,9.91139E1,3.3748333E1,4.3624625E2,1.1663001E2,1.6419534E2,1.3679405E2,4.763561E2,3.7080875E1,2.8969435E1,5.0838085E1,2.8781387E2,1.698284E2,2.9720306E1,1.4860551E2,2.0379155E2,2.3178107E2,1.3961421E2,1.3618912E2,1.599446E2,1.1896194E2,1.190971E2,2.29189E2,1.6164551E3,1.6510691E3,9.094412E3,1.5252621E2,5.811834E2,4.1913562E2,2.165093E2,5.4599712E1,2.4460756E2,1.0826886E3,5.8760345E2,3.6047556E2,1.1296668E2,1.3666333E2,3.6201227E2,3.787484E2,6.0088284E1,2.2551575E2,1.1703335E2,2.5515532E2,4.9551196E0,5.448224E0,2.370908E2,5.9807823E1,3.3599182E1,6.942844E1,1.8128981E2,1.5873986E1,1.3668231E2,3.6505207E1,3.2248315E2,9.419636E1,8.7936844E1,6.606714E1,3.109695E1,1.7399517E1,3.1870794E1,4.989459E2,1.4715857E1,1.5848862E2,2.101375E2,2.449008E1,1.6094011E1,1.4326219E1,1.4466774E0,4.036784E1,1.582621E1,1.1409994E1,2.4114925E1,7.1983404E0,9.182457E0,1.7423915E2,2.9359094E2,3.6828583E1,9.101903E0,1.3140611E2,4.595429E2,1.5499164E2,9.181129E1,2.8116104E2,1.1065065E2,7.469726E1,3.418414E1,4.2505367E1,1.509859E1,6.1948627E1,4.3892597E1,3.9610004E1,3.40858E1,7.48218E1,4.0997807E1,3.4219208E0,1.728175E1,1.360812E1,3.207607E1,1.04024605E2,2.8724625E2,7.849948E1,7.184068E2,1.3379068E2,1.6581978E1,4.0048397E1,1.5962343E1,7.8373036E0,1.1957769E1,2.0904524E1,1.0713308E1,1.9405912E1,1.3088024E1,7.7356964E1,5.8669996E0,1.7246273E0,4.7104664E0,3.1631811E1,2.1218006E1,4.9534345E0,8.0760975E0,6.6632007E2,7.0971766E0,7.3419065E0,1.8318404E2,1.23763145E2,1.1110256E2,2.4473022E1,1.17468765E2,5.9003197E1,7.289544E1,1.284975E2,2.863811E1,7.047579E1,3.2743412E1,4.0350284E2,1.0027545E2,1.6354565E1,1.4136296E2,2.283237E1,9.488184E1,4.191221E1,2.1751904E2,2.5883707E2,3.3885666E1,3.195209E0,8.860861E0,2.0108574E1,3.6524155E1,2.512897E2,4.87386E1,1.21089806E2,3.4344862E0,2.6285822E1,1.3696207E2,1.1643452E1,3.039488E1,1.7339667E2,1.4011958E2,9.166148E1,1.2199175E2,1.7622456E1,3.9914124E1,9.6275E1,8.115893E1,7.878567E1,8.3275566E1,3.5686375E1,1.0984382E1,1.0811272E2,9.8534004E1,1.3065498E2,1.4346085E3,1.8184654E2,3.4591562E2,1.3051534E3,7.945243E3,1.1491694E3,1.2102711E2,3.1499107E1,1.5365857E2,4.2752484E2,2.0515857E2,2.1397707E2,2.6381842E1,1.9012746E2,2.905912E1,2.554059E1,9.863692E1,1.4597064E2,6.545687E2,4.2811993E2,2.0467622E2,3.8292722E2,1.5636363E2,2.0411192E2,7.656326E1,3.640342E1,1.2301011E2,1.3653219E1,2.9066064E2,7.135164E1,2.3837463E2,1.4037378E2,3.1028463E1,2.9059818E1,7.706087E1,1.4845488E2,8.8183464E1,2.8849884E1,7.341148E1,1.8174384E2,3.2206254E0,1.7344942E0,6.2762672E1,1.7432814E2,2.9712704E1,3.009512E1,2.7887648E1,5.711534E0,1.7995123E1,5.143331E1,3.879084E1,1.4249896E2,4.7011995E0,1.1172787E1,9.934526E0,1.2674779E2,1.1838885E1,2.466632E1,1.02496994E2,2.1998615E2,9.194865E1,2.247711E0,8.648521E1,1.451637E0,2.6100569E1,3.996657E1,9.514183E0,2.1582767E1,2.4414137E1,7.4566584E0,3.7707706E2,1.21868835E2,1.2985394E1,1.7304631E0,3.1724674E1,1.2676394E2,1.6775301E1,1.933622E2,2.1878064E0,2.2302273E1,1.2433121E1,3.6608906E0,4.7223344E0,6.68766E0,3.7207932E0,3.4775472E0,1.3499385E2,3.9245296E1,1.2871153E2,1.6487941E2,1.2342564E0,3.5594326E1,3.9705548E0,5.1313477E0,1.22260635E2,9.145481E0,3.3262753E2,1.2691538E2,1.4354617E2,1.1445468E1,8.598478E1,5.826501E0,8.646041E1,2.4190239E1,6.4764984E1,9.932279E0,2.38979E1,1.0286241E1,2.8336912E1,1.4168456E1,3.8718705E0,1.1226719E1,5.625054E1,5.6980834E0,1.3210383E1,3.0682215E1,1.0080833E1,2.952917E1,1.2338822E1,2.1746977E1,1.7289192E1,5.7532608E1,1.6868676E0,1.7350531E0,8.739297E0,8.542453E0,1.0385879E1,3.2222414E0,3.4492006E0,2.862687E1,5.729117E1,4.6733433E1,2.6950842E2,1.7737835E1,5.5777386E1,2.2722095E1,6.4269464E2,7.571215E1,7.942047E1,5.437021E1,1.1200333E1,5.381645E0,1.9159119E1,2.0889278E1,4.124366E0,3.7129378E0,3.9364588E0,8.021311E0,1.9184027E1,1.7204971E0,4.172487E0,6.5408216E0,6.310681E0,1.3095232E1,3.9244368E0,9.163587E0,7.543251E0,6.981371E1,2.7456048E0,1.9648616E0,2.9207254E1,2.424555E0,4.4121056E0,1.68059E1,2.4788132E0,2.474621E0],"tree_param":{"num_deleted":"0","num_feature":"23","num_nodes":"469","size_leaf_vector":"0"}},{"base_weights":[9.245714E-3,-6.706912E-2,4.3019688E-1,-2.1006934E-1,2.3399092E-1,2.0587759E-1,8.450469E-1,-9.580979E-2,-3.8832724E-1,1.4852683E-1,7.1401906E-1,-4.8118207E-1,4.8151168E-1,9.522229E-1,-5.7748355E-2,-2.4599016E-2,-2.5448957E-1,2.8130186E-1,-5.0545275E-1,-9.436921E-2,3.7579432E-1,1.1444054E0,1.2527059E-1,-6.3820785E-1,9.216497E-1,2.4178518E-1,8.872139E-1,1.351444E-1,1.0872731E0,8.528494E-1,-9.1238874E-1,8.2040256E-1,-4.640365E-2,-5.1140726E-1,5.7324555E-2,2.9855E-2,1.2454617E0,-7.313238E-1,-6.764834E-2,2.9319707E-1,-3.5559112E-1,2.3046516E-1,8.13779E-1,1.6560835E0,9.3736356E-1,-2.001081E-1,1.1494323E0,-1.014882E0,-1.3128605E-1,1.3715183E0,8.8685386E-2,-6.6812956E-1,5.5979633E-1,1.4290668E0,7.0086044E-1,6.78699E-1,-7.2917986E-1,1.1602772E0,6.456596E-1,1.168945E0,2.4500011E-1,-1.2683538E0,-2.8430536E-1,6.063151E-1,4.0387306E-1,-5.458347E-2,1.4360123E0,-6.5393305E-1,2.7110076E-1,-1.7860222E-1,4.0632614E-1,3.6912164E-1,-9.4329345E-1,-3.7705642E-1,1.4615493E0,-9.051097E-1,-7.435565E-2,-5.42864E-1,8.212576E-1,-9.067178E-3,1.2557778E0,3.6904097E-1,-5.2315575E-1,6.9845545E-1,2.9826937E-2,1.3223512E0,2.8191563E-1,-5.114574E-2,1.6739528E0,-2.960227E-2,1.294958E0,-8.3613086E-1,1.0263807E0,1.4212555E0,-6.6321015E-1,-1.1846584E0,3.6379492E-1,-6.198215E-1,5.37629E-1,6.069238E-1,2.9449672E-1,-4.0416446E-1,1.2224071E0,8.076705E-1,-8.21499E-1,1.40657E0,4.196991E-1,1.1498275E0,2.946808E-1,9.3912745E-1,-3.4091386E-1,1.8167512E-1,1.1823347E0,-2.8560516E-1,-1.05559096E-1,1.2469375E0,6.9578606E-1,1.1558765E0,-8.405246E-3,-1.0906079E-1,1.3075607E0,-8.451413E-1,1.1057917E0,-2.9088792E-1,-6.642855E-1,-1.2414045E0,1.0836222E0,-4.7465348E-1,7.7199334E-1,-1.4940378E-1,8.623078E-2,1.5906515E0,4.0773454E-1,-7.383297E-1,-3.4273323E-2,-1.2508593E-1,7.529364E-1,-7.0307714E-1,1.2353712E-2,-2.23403E-1,9.907287E-1,1.9302215E-1,1.6134892E0,-1.1552365E0,3.1321502E-1,-1.2546232E0,5.779563E-1,-2.2879611E-1,1.5016327E0,-1.0467069E0,1.4474058E-1,2.615419E-1,-3.8450876E-1,1.1826458E0,-6.498825E-1,1.0755804E0,-6.3305837E-1,3.1794152E-1,-5.2546906E-1,3.088988E-1,1.3796507E0,-5.1581588E-2,1.3821323E0,-8.138743E-1,-1.0539623E-1,2.5674158E-1,1.0826367E0,-3.2257342E-1,5.714949E-1,1.6404034E-1,1.4179416E0,-2.7953887E-1,1.0139863E0,8.18462E-1,1.6992538E0,-6.905859E-1,1.0378063E0,1.011902E0,3.3861855E-1,-1.1496112E0,6.870359E-1,-1.3711227E0,1.3255227E0,1.7812565E-1,3.0423763E-1,2.3409353E-1,-3.1836084E-1,-5.3658324E-1,-1.3283303E0,-3.7818544E-2,2.8086516E-1,-9.191536E-1,8.415435E-1,8.3559716E-1,-1.0968903E0,-3.775714E-2,8.977433E-1,2.3647112E-1,-2.703931E-1,2.7305585E-1,3.144845E-2,-8.213375E-2,1.7620659E0,-1.0853007E0,3.1646952E-2,1.0746692E0,2.9300305E-1,3.3677768E-2,8.8175654E-1,5.0161827E-1,1.335705E0,1.2584215E0,3.0718964E-1,-1.1306837E0,2.63428E-1,-8.044212E-1,1.062321E0,4.2053613E-1,1.3833253E0,-1.2237625E0,1.1940082E0,9.952035E-1,1.4277502E0,1.2975155E0,1.6482304E-1,6.0307443E-1,1.4596357E0,-9.4736207E-1,1.1154232E0,-2.2730699E-1,2.1792038E-1,1.042567E0,2.9296398E-1,-2.842833E-1,1.5635432E-1,3.7873223E-1,2.8370693E-1,-1.1406131E0,2.5489986E-1,-2.8168353E-1,-4.6801108E-1,3.8372862E-1,2.739258E-1,-2.7856013E-1,2.6880625E-1,4.7436908E-2,2.9967594E-1,-9.074156E-2,4.303202E-3,-7.75216E-2,3.185637E-2,3.238726E-1,9.4454095E-2,-2.6839918E-1,3.0634478E-1,-9.193223E-2,-2.2535968E-1,-1.4001283E-1,2.277268E-1,-3.181611E-1,3.1080175E-2,4.5799997E-2,3.0927956E-1,2.805496E-1,-1.6811925E-1,-2.9431733E-1,2.3640793E-2,-1.1422837E-1,2.9287764E-1,2.3556803E-1,-2.7503288E-1,7.748022E-2,-2.022059E-1,1.2089294E-1,3.35787E-1,-2.553161E-1,9.148968E-2,-1.8833211E-1,3.4563255E-1,-4.020598E-1,2.2574602E-1,2.9941937E-1,-1.4427063E-1,-3.1441575E-1,2.362889E-1,3.030593E-1,-4.6409336E-3,-2.4408424E-1,-1.5110642E-1,-1.518314E-1,1.0806346E-1,-8.5105434E-2,1.7268373E-1,-2.4605523E-1,2.4228191E-2,1.3359557E-1,3.113242E-1,-2.4442923E-1,-5.530255E-2,2.5094178E-1,-2.0440114E-1,1.2558684E-1,-2.3198687E-1,-2.7459925E-2,2.0242666E-1,-2.026645E-1,8.4113795E-4,2.9688406E-1,-9.879061E-2,9.626957E-2,2.9101574E-1,-1.5483502E-1,9.777187E-2,1.5530877E-1,3.961695E-1,-2.4238423E-1,-5.4181736E-2,1.0109301E-1,-8.2471415E-2,2.949734E-1,-5.5789035E-2,1.4287227E-1,2.896176E-1,-1.1730289E-1,1.7434284E-2,5.3646933E-2,2.7643433E-1,-2.578826E-1,1.9287622E-1,2.5290656E-1,3.2562044E-1,-1.855146E-1,1.7040256E-1,-1.15496E-2,2.5627223E-1,2.6438138E-1,-2.8098786E-2,3.7144375E-1,2.9771635E-1,1.6120069E-1,-2.4462104E-1,-1.1191442E-1,2.7529344E-1,6.940698E-2,2.9189947E-1,-2.532209E-1,1.8054904E-1,2.689199E-1,-2.2271661E-1,-2.8586647E-1,-7.1404204E-2,3.0439144E-1,1.4628953E-1,-1.7137532E-1,2.675984E-1,-1.2330302E-1,2.809241E-1,-2.6887348E-1,6.892424E-2,-2.748018E-1,7.3017076E-2,2.7940574E-1,-1.4700504E-1,3.0699646E-1,-2.2123921E-1,-2.7986652E-1,2.7816293E-1,-2.5983384E-1,2.090075E-1,-2.828125E-1,8.3470404E-2,2.5661674E-1,8.15181E-2,-3.9647795E-2,2.3301147E-1,2.6756796E-1,-2.537655E-1,4.053733E-1,-1.6455221E-1,-2.94194E-1,-9.3431406E-2,-2.3526274E-1,1.8268482E-1,2.4419247E-1,-1.1893522E-1,-2.0974843E-1,7.9311095E-2,2.6488453E-1,5.7960372E-2,-1.557275E-1,2.7003643E-1,-2.5390685E-2,2.8747758E-1,1.0555531E-1,2.7029532E-1,-5.0865438E-2,1.7211896E-1,-3.2270873E-1,2.698203E-1,2.8706425E-1,-1.5220106E-1,2.4409246E-1,-2.3013256E-1,-6.249853E-2,2.500996E-1,-2.5736213E-1,1.8001886E-1,2.8663707E-1,1.3890147E-1,-2.933416E-1,-2.2901263E-2,4.6642985E-2,3.089839E-1,1.2388253E-1,2.6448244E-1,2.6896665E-1,2.9887053E-1,1.9952446E-1,2.9569635E-1,-1.636784E-1,2.663533E-1,2.9819897E-1,-2.0733511E-1,1.254384E-1,2.9756203E-1,3.021341E-1,-2.60082E-1,3.3127204E-1,-2.0193882E-1,-2.1977429E-1,2.4654298E-1,-2.1250086E-1,2.5234994E-1,-2.0699556E-1,2.4108882E-1,-6.6044465E-2,-2.5034818E-1,-2.2730699E-1,1.7802645E-1,-2.2290254E-1,2.4903663E-1],"categories":[],"categories_nodes":[],"categories_segments":[],"categories_sizes":[],"default_left":[0,0,0,0,0,0,0,0,0,0,0,0,0,0,0,0,0,0,0,0,0,0,0,0,0,0,0,0,0,0,0,0,0,0,0,0,0,0,0,0,0,0,0,0,0,0,0,0,0,0,0,0,0,0,0,0,0,0,0,0,0,0,0,0,0,0,0,0,0,0,0,0,0,0,0,0,0,0,0,0,0,0,0,0,0,0,0,0,0,0,0,0,0,0,0,0,0,0,0,0,0,0,0,0,0,0,0,0,0,0,0,0,0,0,0,0,0,0,0,0,0,0,0,0,0,0,0,0,0,0,0,0,0,0,0,0,0,0,0,0,0,0,0,0,0,0,0,0,0,0,0,0,0,0,0,0,0,0,0,0,0,0,0,0,0,0,0,0,0,0,0,0,0,0,0,0,0,0,0,0,0,0,0,0,0,0,0,0,0,0,0,0,0,0,0,0,0,0,0,0,0,0,0,0,0,0,0,0,0,0,0,0,0,0,0,0,0,0,0,0,0,0,0,0,0,0,0,0,0,0,0,0,0,0,0,0,0,0,0,0,0,0,0,0,0,0,0,0,0,0,0,0,0,0,0,0,0,0,0,0,0,0,0,0,0,0,0,0,0,0,0,0,0,0,0,0,0,0,0,0,0,0,0,0,0,0,0,0,0,0,0,0,0,0,0,0,0,0,0,0,0,0,0,0,0,0,0,0,0,0,0,0,0,0,0,0,0,0,0,0,0,0,0,0,0,0,0,0,0,0,0,0,0,0,0,0,0,0,0,0,0,0,0,0,0,0,0,0,0,0,0,0,0,0,0,0,0,0,0,0,0,0,0,0,0,0,0,0,0,0,0,0,0,0,0,0,0,0,0,0,0,0,0,0,0,0,0,0,0,0,0,0,0,0,0,0,0,0,0,0,0,0,0,0,0,0,0,0,0,0,0,0,0,0,0,0,0,0,0,0,0,0,0,0,0,0,0,0,0,0,0,0,0,0,0,0,0,0,0,0,0],"id":2,"left_children":[1,3,5,7,9,11,13,15,17,19,21,23,25,27,29,31,33,35,37,39,41,43,45,47,49,51,53,55,57,59,61,63,65,67,69,71,73,75,77,79,81,83,85,87,89,91,93,95,97,99,101,103,105,107,109,111,113,115,117,119,121,123,125,127,-1,129,131,133,135,137,139,141,143,145,147,149,151,153,155,157,159,161,163,165,167,169,171,-1,173,175,177,179,181,183,185,187,189,191,193,195,-1,197,199,201,203,205,207,209,-1,211,213,215,217,-1,219,221,223,225,227,229,231,233,235,-1,237,239,241,243,245,247,249,251,253,255,257,259,261,263,265,267,269,271,273,275,277,279,281,283,285,287,289,291,293,295,297,299,301,303,305,307,309,311,313,315,317,319,321,323,325,327,329,331,333,335,337,339,341,343,-1,345,347,349,351,353,-1,355,-1,357,359,361,-1,363,365,367,369,-1,371,373,-1,-1,-1,375,377,379,381,383,-1,385,387,389,391,393,395,397,399,401,403,405,407,409,411,413,415,417,419,421,423,425,427,-1,-1,429,-1,-1,431,433,-1,435,-1,-1,437,439,-1,-1,-1,-1,-1,-1,-1,-1,-1,-1,-1,-1,-1,-1,-1,-1,-1,-1,-1,-1,-1,-1,-1,-1,-1,-1,-1,-1,-1,-1,-1,-1,-1,-1,-1,-1,-1,-1,-1,-1,-1,-1,-1,-1,-1,-1,-1,-1,-1,-1,-1,-1,-1,-1,-1,-1,-1,-1,-1,-1,-1,-1,-1,-1,-1,-1,-1,-1,-1,-1,-1,-1,-1,-1,-1,-1,-1,-1,-1,-1,-1,-1,-1,-1,-1,-1,-1,-1,-1,-1,-1,-1,-1,-1,-1,-1,-1,-1,-1,-1,-1,-1,-1,-1,-1,-1,-1,-1,-1,-1,-1,-1,-1,-1,-1,-1,-1,-1,-1,-1,-1,-1,-1,-1,-1,-1,-1,-1,-1,-1,-1,-1,-1,-1,-1,-1,-1,-1,-1,-1,-1,-1,-1,-1,-1,-1,-1,-1,-1,-1,-1,-1,-1,-1,-1,-1,-1,-1,-1,-1,-1,-1,-1,-1,-1,-1,-1,-1,-1,-1,-1,-1,-1,-1,-1,-1,-1,-1,-1,-1,-1,-1,-1,-1,-1,-1,-1,-1,-1,-1,-1,-1,-1,-1,-1,-1,-1,-1,-1],"loss_changes":[9.1829376E2,1.0418284E3,4.0806897E2,3.3412103E2,3.1960474E2,5.39699E2,1.4899365E2,1.1298187E2,5.0273407E2,3.6528336E2,2.982268E2,1.8036156E2,1.9756168E2,1.5169006E2,1.2863347E2,1.2722487E2,2.4815114E2,2.3139804E2,5.393292E2,3.2398297E2,2.1740231E2,7.04989E1,1.663153E2,1.4012411E2,3.0817223E1,3.7064496E2,7.522772E1,9.272492E1,3.7315918E1,1.5095737E1,1.8695122E1,4.3361076E1,8.168889E1,1.8957358E2,1.1535029E2,2.5066942E2,6.9774445E1,4.107268E2,7.8507074E2,3.749345E2,2.3229169E2,2.4111961E2,2.2989258E2,7.076721E0,1.6826224E2,2.9657043E2,6.0222992E1,9.9034546E1,1.0303741E2,3.239563E0,1.7269587E1,7.5775635E1,1.1196112E2,6.857605E-1,1.4024094E2,3.0083618E1,3.309116E1,3.9865967E1,5.665712E1,9.425957E0,2.7823065E1,5.1164246E0,4.3398365E1,2.7017452E1,0E0,8.939548E1,5.230072E0,7.511749E1,5.0177795E1,8.373931E1,2.081507E2,1.2304078E2,5.263211E1,2.0838833E1,1.2162689E1,4.2311694E2,7.862743E1,2.2438843E2,2.4015811E2,1.659366E2,3.5693817E1,1.5330147E2,1.8851535E2,1.3048972E2,3.434998E2,4.792108E1,1.7183928E2,0E0,2.7855835E0,9.4073715E1,3.8313965E1,1.2024724E2,9.4981186E1,1.2765884E1,1.401358E1,3.423236E1,1.9674517E1,8.042809E1,6.578363E1,2.008395E0,0E0,1.3482256E1,1.2075319E0,2.7103048E1,6.780188E1,1.0299988E0,1.4542519E2,3.0522118E0,0E0,9.223483E1,5.072842E1,5.47832E1,8.595657E0,0E0,6.1603718E1,3.73396E1,5.1344727E1,1.5133713E1,8.0600174E1,8.690338E0,4.461441E-1,7.8459682E0,3.2019482E0,0E0,1.49222145E1,1.8420258E0,2.2280807E0,3.5929813E1,4.991945E1,2.0810027E2,9.332846E1,2.5608063E-1,1.4204977E1,1.3637537E2,1.3611784E2,5.9790474E1,4.8919884E1,6.580569E1,9.65985E1,1.6092828E2,1.3142911E2,1.1606979E2,3.584549E0,3.3491455E1,5.3324516E1,2.5362534E1,1.5622621E1,1.1155689E1,3.5881348E0,1.25897705E2,1.2163172E2,1.502553E2,1.6792305E2,1.2640167E1,2.434331E2,2.0848969E2,6.5175476E1,1.9028061E2,9.845215E1,3.557183E1,1.7731934E1,9.998231E1,3.6724792E1,1.9754224E2,1.1990986E2,2.3517058E2,5.439154E1,1.17964035E2,1.7400002E2,4.112605E1,1.0889526E1,1.745812E2,5.2049973E1,3.792944E0,3.441101E0,6.659E1,2.8360916E1,6.201117E1,0E0,5.0837982E1,5.2797546E1,3.693428E-1,1.2423462E1,1.1879821E1,0E0,1.00237E1,0E0,5.0135754E1,2.4212341E1,3.589168E1,0E0,7.129376E1,4.0692894E1,5.197873E1,1.0660805E1,0E0,6.0903454E-1,5.7958612E0,0E0,0E0,0E0,3.0990276E1,1.2181633E1,5.414926E1,7.785848E1,6.551935E0,0E0,1.7534093E2,9.687167E1,1.02702675E1,3.663742E0,1.9998657E1,4.8510246E1,5.7247322E1,7.3925644E1,2.2343075E1,8.989063E0,1.2579637E1,6.1844635E-1,5.9601097E0,6.2638474E0,4.3357605E1,7.145386E-1,2.6225128E0,1.0076524E2,5.3267258E1,4.9383545E-1,3.807281E1,4.1644283E1,0E0,0E0,9.948177E0,0E0,0E0,9.054894E0,8.622615E0,0E0,6.885452E-1,0E0,0E0,5.4939017E0,8.331382E0,0E0,0E0,0E0,0E0,0E0,0E0,0E0,0E0,0E0,0E0,0E0,0E0,0E0,0E0,0E0,0E0,0E0,0E0,0E0,0E0,0E0,0E0,0E0,0E0,0E0,0E0,0E0,0E0,0E0,0E0,0E0,0E0,0E0,0E0,0E0,0E0,0E0,0E0,0E0,0E0,0E0,0E0,0E0,0E0,0E0,0E0,0E0,0E0,0E0,0E0,0E0,0E0,0E0,0E0,0E0,0E0,0E0,0E0,0E0,0E0,0E0,0E0,0E0,0E0,0E0,0E0,0E0,0E0,0E0,0E0,0E0,0E0,0E0,0E0,0E0,0E0,0E0,0E0,0E0,0E0,0E0,0E0,0E0,0E0,0E0,0E0,0E0,0E0,0E0,0E0,0E0,0E0,0E0,0E0,0E0,0E0,0E0,0E0,0E0,0E0,0E0,0E0,0E0,0E0,0E0,0E0,0E0,0E0,0E0,0E0,0E0,0E0,0E0,0E0,0E0,0E0,0E0,0E0,0E0,0E0,0E0,0E0,0E0,0E0,0E0,0E0,0E0,0E0,0E0,0E0,0E0,0E0,0E0,0E0,0E0,0E0,0E0,0E0,0E0,0E0,0E0,0E0,0E0,0E0,0E0,0E0,0E0,0E0,0E0,0E0,0E0,0E0,0E0,0E0,0E0,0E0,0E0,0E0,0E0,0E0,0E0,0E0,0E0,0E0,0E0,0E0,0E0,0E0,0E0,0E0,0E0,0E0,0E0,0E0,0E0,0E0,0E0,0E0,0E0,0E0,0E0,0E0,0E0,0E0,0E0,0E0,0E0,0E0,0E0,0E0,0E0,0E0,0E0,0E0,0E0,0E0,0E0,0E0,0E0],"parents":[2147483647,0,0,1,1,2,2,3,3,4,4,5,5,6,6,7,7,8,8,9,9,10,10,11,11,12,12,13,13,14,14,15,15,16,16,17,17,18,18,19,19,20,20,21,21,22,22,23,23,24,24,25,25,26,26,27,27,28,28,29,29,30,30,31,31,32,32,33,33,34,34,35,35,36,36,37,37,38,38,39,39,40,40,41,41,42,42,43,43,44,44,45,45,46,46,47,47,48,48,49,49,50,50,51,51,52,52,53,53,54,54,55,55,56,56,57,57,58,58,59,59,60,60,61,61,62,62,63,63,65,65,66,66,67,67,68,68,69,69,70,70,71,71,72,72,73,73,74,74,75,75,76,76,77,77,78,78,79,79,80,80,81,81,82,82,83,83,84,84,85,85,86,86,88,88,89,89,90,90,91,91,92,92,93,93,94,94,95,95,96,96,97,97,98,98,99,99,101,101,102,102,103,103,104,104,105,105,106,106,107,107,109,109,110,110,111,111,112,112,114,114,115,115,116,116,117,117,118,118,119,119,120,120,121,121,122,122,124,124,125,125,126,126,127,127,128,128,129,129,130,130,131,131,132,132,133,133,134,134,135,135,136,136,137,137,138,138,139,139,140,140,141,141,142,142,143,143,144,144,145,145,146,146,147,147,148,148,149,149,150,150,151,151,152,152,153,153,154,154,155,155,156,156,157,157,158,158,159,159,160,160,161,161,162,162,163,163,164,164,165,165,166,166,167,167,168,168,169,169,170,170,171,171,172,172,173,173,174,174,175,175,176,176,177,177,179,179,180,180,181,181,182,182,183,183,185,185,187,187,188,188,189,189,191,191,192,192,193,193,194,194,196,196,197,197,201,201,202,202,203,203,204,204,205,205,207,207,208,208,209,209,210,210,211,211,212,212,213,213,214,214,215,215,216,216,217,217,218,218,219,219,220,220,221,221,222,222,223,223,224,224,225,225,226,226,227,227,228,228,231,231,234,234,235,235,237,237,240,240,241,241],"right_children":[2,4,6,8,10,12,14,16,18,20,22,24,26,28,30,32,34,36,38,40,42,44,46,48,50,52,54,56,58,60,62,64,66,68,70,72,74,76,78,80,82,84,86,88,90,92,94,96,98,100,102,104,106,108,110,112,114,116,118,120,122,124,126,128,-1,130,132,134,136,138,140,142,144,146,148,150,152,154,156,158,160,162,164,166,168,170,172,-1,174,176,178,180,182,184,186,188,190,192,194,196,-1,198,200,202,204,206,208,210,-1,212,214,216,218,-1,220,222,224,226,228,230,232,234,236,-1,238,240,242,244,246,248,250,252,254,256,258,260,262,264,266,268,270,272,274,276,278,280,282,284,286,288,290,292,294,296,298,300,302,304,306,308,310,312,314,316,318,320,322,324,326,328,330,332,334,336,338,340,342,344,-1,346,348,350,352,354,-1,356,-1,358,360,362,-1,364,366,368,370,-1,372,374,-1,-1,-1,376,378,380,382,384,-1,386,388,390,392,394,396,398,400,402,404,406,408,410,412,414,416,418,420,422,424,426,428,-1,-1,430,-1,-1,432,434,-1,436,-1,-1,438,440,-1,-1,-1,-1,-1,-1,-1,-1,-1,-1,-1,-1,-1,-1,-1,-1,-1,-1,-1,-1,-1,-1,-1,-1,-1,-1,-1,-1,-1,-1,-1,-1,-1,-1,-1,-1,-1,-1,-1,-1,-1,-1,-1,-1,-1,-1,-1,-1,-1,-1,-1,-1,-1,-1,-1,-1,-1,-1,-1,-1,-1,-1,-1,-1,-1,-1,-1,-1,-1,-1,-1,-1,-1,-1,-1,-1,-1,-1,-1,-1,-1,-1,-1,-1,-1,-1,-1,-1,-1,-1,-1,-1,-1,-1,-1,-1,-1,-1,-1,-1,-1,-1,-1,-1,-1,-1,-1,-1,-1,-1,-1,-1,-1,-1,-1,-1,-1,-1,-1,-1,-1,-1,-1,-1,-1,-1,-1,-1,-1,-1,-1,-1,-1,-1,-1,-1,-1,-1,-1,-1,-1,-1,-1,-1,-1,-1,-1,-1,-1,-1,-1,-1,-1,-1,-1,-1,-1,-1,-1,-1,-1,-1,-1,-1,-1,-1,-1,-1,-1,-1,-1,-1,-1,-1,-1,-1,-1,-1,-1,-1,-1,-1,-1,-1,-1,-1,-1,-1,-1,-1,-1,-1,-1,-1,-1,-1,-1,-1,-1],"split_conditions":[2.8150504E0,5.105039E-1,-3.7900123E-1,7.1751624E-2,1.0333738E0,3.7517595E0,-3.2163978E-2,1.8219148E-1,-1.0803026E0,1.2175763E0,-3.7401253E-1,-3.4409236E-2,-9.4395125E-1,-1.9005083E-2,-2.744138E-1,-7.3397905E-2,1.1075217E-1,1.0333738E0,2.1395981E0,-9.8099494E-1,-3.7900123E-1,-7.719653E-1,1.3584379E0,-7.32095E-1,-7.2596684E-2,4.6445007E0,-2.7358184E0,-7.064989E-2,-1.0752264E-2,-2.8102966E-2,-4.0932633E-3,-5.0058465E-2,2.4025555E0,9.159054E-2,3.271863E-1,-1.4253758E0,2.6788574E-1,2.366124E-1,1.0333738E0,-2.5907472E-2,-1.0654048E0,-1.4682821E0,-2.700442E-1,9.2838025E-3,8.1351286E-1,8.8369536E-1,1.0019238E-2,1.1949372E0,3.3744588E0,2.9384968E0,-7.32095E-1,-8.342014E-1,-4.050018E0,-1.5178571E-2,-4.133888E-2,3.271863E-1,1.0333738E0,-3.9237075E-2,-1.8938687E0,1.2189099E0,3.271863E-1,1.4604062E0,1.0333738E0,-1.1558075E0,4.0387306E-1,-6.073938E-2,-3.318782E-2,1.5168215E0,-7.086142E-2,-1.1870445E-2,6.701985E-2,3.271863E-1,3.667432E-1,1.7395613E0,1.4325401E-1,9.30859E-1,-1.6407588E0,-3.217736E-1,-4.81455E-2,-1.611192E0,1.8038613E-1,-3.7900123E-1,1.2655399E0,-1.1558075E0,3.0607483E0,9.687044E-1,-6.6411875E-2,-5.114574E-2,4.0793594E-2,4.9634677E-1,1.7395613E0,1.1949372E0,-5.7876594E-3,5.8817234E-2,-4.4726023E-1,-1.2988593E-1,-9.4395125E-1,-6.1120395E-2,-4.9023256E-2,4.8732215E-1,2.9449672E-1,-9.181499E-1,-2.3729259E-1,-1.1558075E0,-5.8161095E-2,-9.033738E-3,-1.1558075E0,4.145384E-3,2.946808E-1,-9.440937E-2,-7.32095E-1,4.765822E-1,-2.3974577E-2,-2.8560516E-1,-2.0304214E-2,-2.5907472E-2,-5.037336E-1,-2.5907472E-2,1.0333738E0,3.271863E-1,-2.5907472E-2,2.2367163E0,1.0333738E0,-2.9088792E-1,1.7395613E0,3.3514419E0,1.0289111E0,1.1456481E-1,2.486741E-2,-1.06234334E-1,-6.648564E-2,-2.132801E-2,1.0333738E0,5.670513E-1,1.0333738E0,7.122571E-2,1.0333738E0,3.2319925E-3,-1.1558075E0,-6.7608394E-2,-5.4726627E-2,-1.6245046E0,3.076041E-1,-4.949812E-2,-3.7900123E-1,1.934486E-1,-1.126306E0,1.7395613E0,-7.719653E-1,1.7395613E0,-2.5907472E-2,-3.7900123E-1,1.1464442E-1,-7.32095E-1,-2.5907472E-2,-5.0058465E-2,-1.6051668E0,-7.32095E-1,7.992952E-1,1.07020356E-1,5.3901124E-1,9.1963404E-1,1.2941194E0,-7.08919E-2,-5.296142E-1,-2.8605509E0,1.509699E0,-7.32095E-1,-9.4395125E-1,5.708607E-1,-2.5907472E-2,1.6729469E0,1.2851894E0,-9.456305E-1,6.064559E-1,-4.527406E-1,5.7494575E-1,1.0579844E0,3.3861855E-1,-1.6422302E-2,-1.0553296E-1,1.729821E0,-3.5890423E-2,1.7395613E0,3.0423763E-1,1.7395613E0,-3.1836084E-1,-9.4395125E-1,1.4142758E0,-4.9817808E-2,2.8086516E-1,-4.7197065E-1,-2.803888E-1,-2.6308724E-1,-7.0611246E-2,-3.775714E-2,1.9971442E0,-9.4395125E-1,-2.703931E-1,2.7305585E-1,3.144845E-2,-3.1029255E0,-7.0642225E-2,3.8330162E-1,-1.1558075E0,-1.0584434E-2,2.9300305E-1,6.5972793E-1,-7.0894845E-2,-7.32095E-1,3.9025486E0,4.2490977E-1,-7.055562E-2,1.8341026E-1,-2.4250772E0,-2.766503E-1,-1.4301554E-2,1.0333738E0,-1.4592574E0,8.0897445E-3,-1.9163357E-2,3.268484E0,3.271863E-1,-2.5907472E-2,1.0333738E0,-2.1386392E0,2.7028816E-2,-8.024644E-1,-1.5164216E0,-2.2730699E-1,2.1792038E-1,1.3074492E0,2.9296398E-1,-2.842833E-1,-2.5907472E-2,2.4973469E0,2.8370693E-1,-3.1512596E-2,2.5489986E-1,-2.8168353E-1,3.271863E-1,1.7395613E0,2.739258E-1,-2.7856013E-1,2.6880625E-1,4.7436908E-2,2.9967594E-1,-9.074156E-2,4.303202E-3,-7.75216E-2,3.185637E-2,3.238726E-1,9.4454095E-2,-2.6839918E-1,3.0634478E-1,-9.193223E-2,-2.2535968E-1,-1.4001283E-1,2.277268E-1,-3.181611E-1,3.1080175E-2,4.5799997E-2,3.0927956E-1,2.805496E-1,-1.6811925E-1,-2.9431733E-1,2.3640793E-2,-1.1422837E-1,2.9287764E-1,2.3556803E-1,-2.7503288E-1,7.748022E-2,-2.022059E-1,1.2089294E-1,3.35787E-1,-2.553161E-1,9.148968E-2,-1.8833211E-1,3.4563255E-1,-4.020598E-1,2.2574602E-1,2.9941937E-1,-1.4427063E-1,-3.1441575E-1,2.362889E-1,3.030593E-1,-4.6409336E-3,-2.4408424E-1,-1.5110642E-1,-1.518314E-1,1.0806346E-1,-8.5105434E-2,1.7268373E-1,-2.4605523E-1,2.4228191E-2,1.3359557E-1,3.113242E-1,-2.4442923E-1,-5.530255E-2,2.5094178E-1,-2.0440114E-1,1.2558684E-1,-2.3198687E-1,-2.7459925E-2,2.0242666E-1,-2.026645E-1,8.4113795E-4,2.9688406E-1,-9.879061E-2,9.626957E-2,2.9101574E-1,-1.5483502E-1,9.777187E-2,1.5530877E-1,3.961695E-1,-2.4238423E-1,-5.4181736E-2,1.0109301E-1,-8.2471415E-2,2.949734E-1,-5.5789035E-2,1.4287227E-1,2.896176E-1,-1.1730289E-1,1.7434284E-2,5.3646933E-2,2.7643433E-1,-2.578826E-1,1.9287622E-1,2.5290656E-1,3.2562044E-1,-1.855146E-1,1.7040256E-1,-1.15496E-2,2.5627223E-1,2.6438138E-1,-2.8098786E-2,3.7144375E-1,2.9771635E-1,1.6120069E-1,-2.4462104E-1,-1.1191442E-1,2.7529344E-1,6.940698E-2,2.9189947E-1,-2.532209E-1,1.8054904E-1,2.689199E-1,-2.2271661E-1,-2.8586647E-1,-7.1404204E-2,3.0439144E-1,1.4628953E-1,-1.7137532E-1,2.675984E-1,-1.2330302E-1,2.809241E-1,-2.6887348E-1,6.892424E-2,-2.748018E-1,7.3017076E-2,2.7940574E-1,-1.4700504E-1,3.0699646E-1,-2.2123921E-1,-2.7986652E-1,2.7816293E-1,-2.5983384E-1,2.090075E-1,-2.828125E-1,8.3470404E-2,2.5661674E-1,8.15181E-2,-3.9647795E-2,2.3301147E-1,2.6756796E-1,-2.537655E-1,4.053733E-1,-1.6455221E-1,-2.94194E-1,-9.3431406E-2,-2.3526274E-1,1.8268482E-1,2.4419247E-1,-1.1893522E-1,-2.0974843E-1,7.9311095E-2,2.6488453E-1,5.7960372E-2,-1.557275E-1,2.7003643E-1,-2.5390685E-2,2.8747758E-1,1.0555531E-1,2.7029532E-1,-5.0865438E-2,1.7211896E-1,-3.2270873E-1,2.698203E-1,2.8706425E-1,-1.5220106E-1,2.4409246E-1,-2.3013256E-1,-6.249853E-2,2.500996E-1,-2.5736213E-1,1.8001886E-1,2.8663707E-1,1.3890147E-1,-2.933416E-1,-2.2901263E-2,4.6642985E-2,3.089839E-1,1.2388253E-1,2.6448244E-1,2.6896665E-1,2.9887053E-1,1.9952446E-1,2.9569635E-1,-1.636784E-1,2.663533E-1,2.9819897E-1,-2.0733511E-1,1.254384E-1,2.9756203E-1,3.021341E-1,-2.60082E-1,3.3127204E-1,-2.0193882E-1,-2.1977429E-1,2.4654298E-1,-2.1250086E-1,2.5234994E-1,-2.0699556E-1,2.4108882E-1,-6.6044465E-2,-2.5034818E-1,-2.2730699E-1,1.7802645E-1,-2.2290254E-1,2.4903663E-1],"split_indices":[17,8,0,17,0,17,5,9,1,9,3,16,0,7,11,6,22,0,17,2,0,2,11,0,20,17,5,19,14,4,22,22,12,15,0,1,9,16,0,0,4,3,5,10,10,17,14,9,17,17,0,4,5,8,14,0,0,22,5,7,0,7,0,0,0,19,4,11,21,17,19,0,16,0,11,11,4,2,15,2,17,0,11,0,11,11,22,0,18,7,0,9,9,17,1,13,0,19,14,16,0,4,1,0,19,8,0,12,0,5,0,2,12,0,7,0,10,0,0,0,0,6,0,0,0,6,7,9,16,1,16,7,0,10,0,14,0,19,0,12,12,1,8,21,0,14,1,0,2,0,0,0,11,0,0,22,5,0,8,15,8,16,17,13,3,4,8,0,0,7,0,9,9,2,8,5,8,10,0,22,12,7,5,0,0,0,0,0,8,3,0,3,8,9,19,0,7,0,0,0,0,4,21,8,0,10,0,7,22,0,17,7,13,13,5,15,12,0,5,12,13,17,0,0,0,5,14,1,5,0,0,7,0,0,0,7,0,3,0,0,0,0,0,0,0,0,0,0,0,0,0,0,0,0,0,0,0,0,0,0,0,0,0,0,0,0,0,0,0,0,0,0,0,0,0,0,0,0,0,0,0,0,0,0,0,0,0,0,0,0,0,0,0,0,0,0,0,0,0,0,0,0,0,0,0,0,0,0,0,0,0,0,0,0,0,0,0,0,0,0,0,0,0,0,0,0,0,0,0,0,0,0,0,0,0,0,0,0,0,0,0,0,0,0,0,0,0,0,0,0,0,0,0,0,0,0,0,0,0,0,0,0,0,0,0,0,0,0,0,0,0,0,0,0,0,0,0,0,0,0,0,0,0,0,0,0,0,0,0,0,0,0,0,0,0,0,0,0,0,0,0,0,0,0,0,0,0,0,0,0,0,0,0,0,0,0,0,0,0,0,0,0,0,0,0,0,0,0,0,0,0,0,0,0,0,0,0,0,0,0,0],"split_type":[0,0,0,0,0,0,0,0,0,0,0,0,0,0,0,0,0,0,0,0,0,0,0,0,0,0,0,0,0,0,0,0,0,0,0,0,0,0,0,0,0,0,0,0,0,0,0,0,0,0,0,0,0,0,0,0,0,0,0,0,0,0,0,0,0,0,0,0,0,0,0,0,0,0,0,0,0,0,0,0,0,0,0,0,0,0,0,0,0,0,0,0,0,0,0,0,0,0,0,0,0,0,0,0,0,0,0,0,0,0,0,0,0,0,0,0,0,0,0,0,0,0,0,0,0,0,0,0,0,0,0,0,0,0,0,0,0,0,0,0,0,0,0,0,0,0,0,0,0,0,0,0,0,0,0,0,0,0,0,0,0,0,0,0,0,0,0,0,0,0,0,0,0,0,0,0,0,0,0,0,0,0,0,0,0,0,0,0,0,0,0,0,0,0,0,0,0,0,0,0,0,0,0,0,0,0,0,0,0,0,0,0,0,0,0,0,0,0,0,0,0,0,0,0,0,0,0,0,0,0,0,0,0,0,0,0,0,0,0,0,0,0,0,0,0,0,0,0,0,0,0,0,0,0,0,0,0,0,0,0,0,0,0,0,0,0,0,0,0,0,0,0,0,0,0,0,0,0,0,0,0,0,0,0,0,0,0,0,0,0,0,0,0,0,0,0,0,0,0,0,0,0,0,0,0,0,0,0,0,0,0,0,0,0,0,0,0,0,0,0,0,0,0,0,0,0,0,0,0,0,0,0,0,0,0,0,0,0,0,0,0,0,0,0,0,0,0,0,0,0,0,0,0,0,0,0,0,0,0,0,0,0,0,0,0,0,0,0,0,0,0,0,0,0,0,0,0,0,0,0,0,0,0,0,0,0,0,0,0,0,0,0,0,0,0,0,0,0,0,0,0,0,0,0,0,0,0,0,0,0,0,0,0,0,0,0,0,0,0,0,0,0,0,0,0,0,0,0,0,0,0,0,0,0,0,0,0,0,0,0,0],"sum_hessian":[2.8583285E4,2.4197354E4,4.3859316E3,1.640531E4,7.7920415E3,2.8476406E3,1.538291E3,9.998207E3,6.4071035E3,6.615525E3,1.1765168E3,8.1511E2,2.0325306E3,1.3750018E3,1.6328914E2,6.9019653E3,3.0962422E3,9.5362805E2,5.4534756E3,3.1980928E3,3.417432E3,6.79122E2,4.9739484E2,7.335457E2,8.1564285E1,1.2786069E3,7.5392365E2,1.9531453E2,1.1796874E3,7.905749E1,8.423166E1,1.7269861E2,6.7292666E3,1.6972014E3,1.3990409E3,7.571889E2,1.9643915E2,3.5970325E3,1.856443E3,1.2876003E3,1.9104924E3,2.567145E3,8.502868E2,1.9361868E2,4.8550333E2,3.780819E2,1.1931294E2,4.2026263E2,3.1328308E2,5.2541206E1,2.9023077E1,3.308515E2,9.477555E2,1.9122815E2,5.626955E2,1.2003923E2,7.527529E1,1.01093945E3,1.6874788E2,5.1403435E1,2.7654049E1,5.3111443E1,3.1120218E1,1.4781108E2,2.4887531E1,6.693297E3,3.596975E1,1.4358419E3,2.6135953E2,8.350388E2,5.64002E2,5.6191156E2,1.9527731E2,2.2999542E1,1.734396E2,2.8442686E3,7.527639E2,1.2099722E3,6.4647076E2,9.8065204E2,3.069483E2,3.585863E2,1.5519061E3,7.6958966E2,1.7975554E3,4.3390088E2,4.1638596E2,1.6696901E0,1.9194899E2,1.3132002E2,3.541833E2,2.4918158E2,1.2890033E2,1.0394179E2,1.5371154E1,3.7430927E2,4.595339E1,1.810953E2,1.3218777E2,6.9466376E0,4.5594566E1,2.0677633E1,8.345444E0,3.0744621E1,3.0010687E2,1.3326103E2,8.1449445E2,2.9893026E1,1.6133513E2,4.5803552E2,1.0466E2,6.1101048E1,5.8938187E1,3.488846E1,4.0386833E1,8.5056476E2,1.6037473E2,9.43674E1,7.438047E1,5.050664E0,4.635277E1,1.2209555E1,1.5444494E1,3.952719E1,1.3584251E1,1.8363972E1,1.2756247E1,1.9396114E1,1.2841496E2,3.9998503E3,2.6934465E3,3.079212E1,5.17763E0,1.2635562E3,1.7228575E2,1.4383359E2,1.17525955E2,2.221647E2,6.128741E2,2.7177054E2,2.922315E2,4.9326166E2,6.8649925E1,1.6716171E2,2.81156E1,1.18222685E1,1.1177275E1,3.9084685E0,1.6953114E2,2.506245E3,3.3802356E2,3.6145877E2,3.9130515E2,7.007464E1,1.1398976E3,5.504683E2,9.6002426E1,6.006671E2,3.799849E2,3.5914307E1,2.71034E2,2.5405501E2,1.04531296E2,9.145342E2,6.3737195E2,3.5876566E2,4.10824E2,1.0892874E3,7.082681E2,3.328523E1,4.0061566E2,2.3600351E2,1.8038243E2,6.4717536E0,1.8547725E2,8.131773E1,5.0002285E1,2.0907903E2,1.4510426E2,2.0685446E2,4.2327114E1,1.3901541E1,1.1499879E2,7.94098E0,9.600081E1,8.197645E0,7.1735086E0,6.878203E1,3.0552722E2,3.3851418E1,1.2101971E1,1.5061566E2,3.0479647E1,1.122193E2,1.9968472E1,1.9532394E0,4.993398E0,1.2785913E1,7.89172E0,7.110014E0,1.2354295E0,1.6383686E1,1.4360936E1,2.290195E2,7.1087364E1,2.2855589E1,1.1040544E2,4.443443E2,3.7015015E2,7.485959E0,2.2407068E1,3.03631E2,1.5440451E2,4.499215E1,5.9667854E1,2.8865587E1,3.2235462E1,1.29494095E1,4.5988777E1,2.1739536E1,1.8647297E1,3.5827094E2,4.922938E2,7.450081E1,8.5873924E1,3.4523857E1,5.984354E1,4.060886E1,3.3771614E1,2.7474368E0,2.3032272E0,2.0104607E1,2.6248165E1,7.4839096E0,4.7256446E0,5.3102703E0,1.0134224E1,1.1235549E1,2.348703E0,1.4427325E1,3.9366477E0,4.3798633E0,8.376383E0,1.3044754E1,6.35136E0,7.472472E1,5.369025E1,1.4379979E3,2.5618525E3,3.592032E2,2.3342432E3,2.958466E1,1.20746E0,1.9492487E0,3.2283812E0,7.3702997E2,5.265261E2,1.1015842E2,6.2127342E1,2.2353088E1,1.2148049E2,7.156135E1,4.5964607E1,1.3054916E1,2.0910979E2,3.9946857E1,5.7292725E2,2.2589131E2,4.5879215E1,2.7127902E2,2.0952486E1,4.252833E2,6.797837E1,4.8049383E0,6.384499E1,1.556579E2,1.1503826E1,1.5077924E1,1.3037677E1,9.095072E0,2.727196E0,6.4571896E0,4.720085E0,1.942981E0,1.9654876E0,1.6803171E2,1.4994394E0,1.5677418E3,9.3850323E2,1.0261893E2,2.3540462E2,1.6892096E2,1.925378E2,1.4587553E2,2.454296E2,3.0662619E1,3.9412018E1,4.491746E2,6.9072296E2,5.0752853E2,4.2939835E1,2.8234915E1,6.776752E1,3.6325308E2,2.3741403E2,1.9732599E2,1.826589E2,1.4230023E1,2.1684284E1,2.1566877E1,2.4946712E2,1.08522766E2,1.4553224E2,5.3109303E1,5.1421993E1,5.2697675E2,3.8755743E2,2.1294945E2,4.244225E2,1.0904636E2,2.497193E2,2.060931E2,2.0473091E2,6.622569E2,4.2703043E2,5.164165E2,1.9185165E2,1.1602858E1,2.168237E1,2.3563129E2,1.6498438E2,1.5017772E2,8.582578E1,3.617281E1,1.4420963E2,3.9956045E0,2.4761488E0,1.01531654E2,8.3945595E1,2.1206247E1,6.0111485E1,8.632525E0,4.136976E1,8.483652E1,1.24242516E2,1.9610641E2,1.0748039E1,3.1190128E1,1.1136987E1,1.2759677E1,1.141864E0,8.524885E1,2.9749937E1,4.334412E0,3.6065679E0,5.02172E0,3.1759255E0,3.5611767E1,3.3170265E1,2.9768597E2,7.8412457E0,1.0741572E1,2.3109844E1,1.0155916E1,1.4045975E2,5.6955876E0,2.4784058E1,9.56124E0,1.0265806E2,1.6564947E1,3.4035242E0,1.889903E0,3.1034951E0,9.24463E0,3.5412834E0,7.4007416E0,8.982944E0,1.3222252E1,1.1386836E0,1.4017964E2,8.883987E1,2.985479E1,4.123258E1,2.1260983E1,1.5946076E0,1.1108907E2,3.3325522E2,2.1107219E2,1.5907796E2,3.016808E0,4.4691505E0,1.4403137E0,2.0966755E1,3.50555E1,2.685755E2,7.690882E1,7.74957E1,3.7951595E1,7.040556E0,2.7643818E1,3.2024036E1,3.8463793E0,2.5019207E1,3.8014667E0,2.8433994E1,2.4704971E0,1.0478912E1,4.1876884E1,4.1118937E0,1.7569317E1,4.1702185E0,5.4339E0,1.3213397E1,1.6810252E2,1.9016843E2,2.2872849E2,2.635653E2,3.048857E1,4.4012234E1,4.6767975E1,3.9105946E1,2.2455164E1,1.2068694E1,2.7206237E0,5.7122917E1,4.6883235E0,3.5920536E1,2.7095245E1,6.6763663E0,1.2498465E0,1.8854761E1,2.26593E0,2.459715E0,1.8665223E0,3.443748E0,1.8338575E0,9.401691E0,2.7474368E0,1.1892109E0,1.4917154E0,2.8881478E0],"tree_param":{"num_deleted":"0","num_feature":"23","num_nodes":"441","size_leaf_vector":"0"}},{"base_weights":[8.635843E-3,-6.333852E-2,3.4937474E-1,-1.844326E-1,2.0919271E-1,1.7559619E-1,7.840273E-1,-1.3870417E-1,-7.7664477E-1,1.0082279E-1,5.556552E-1,-1.5250124E-1,5.210795E-1,6.2746114E-1,1.3403465E0,4.3112028E-1,-1.6728798E-1,-1.3906018E0,-5.6116873E-1,-4.2686965E-2,4.4817305E-1,9.2273635E-1,1.9275203E-1,-4.9755508E-1,1.3798317E-1,1.3279328E-1,7.3222804E-1,1.3306149E0,4.2859814E-1,7.542809E-1,1.500434E0,3.284625E-3,1.0427495E0,-4.22156E-1,-8.637201E-2,-1.4229816E0,1.3164846E-3,-7.7098674E-1,6.5229475E-1,-1.20057344E-1,6.0295856E-1,2.040664E-1,8.261507E-1,1.298433E0,6.971765E-1,-5.3118825E-2,1.3628534E0,-7.040763E-1,6.003957E-1,-2.968814E-1,5.5297816E-1,-7.1748054E-1,7.4713343E-1,1.3720481E0,5.9766984E-1,2.9753277E-1,1.356897E0,1.04312E0,1.7213139E-1,4.206733E-2,1.128727E0,1.5996796E0,2.7093843E-1,-3.0613053E-1,9.797631E-1,4.7163114E-1,1.4076529E0,-1.02097824E-1,-5.6806606E-1,-6.7015594E-1,-5.6108095E-2,-4.2795357E-1,-1.440794E0,-2.2975211E-1,3.652216E-1,1.3625683E0,-8.573575E-1,1.0064713E0,-2.8077003E-1,-4.4778866E-1,5.2636754E-2,-2.0838784E-1,9.690905E-1,-1.6452257E-1,8.0941707E-1,1.2058752E0,4.8213723E-1,1.3222524E0,-5.922005E-1,1.8223223E-1,1.0441866E0,-1.9366811E-1,1.5223182E0,-1.1060644E-2,1.5497115E0,-8.3041894E-1,7.5552404E-1,8.5214734E-1,-8.8471204E-1,9.413348E-1,-4.462984E-1,7.943969E-1,-8.9362764E-1,-8.720655E-1,1.3070976E0,9.7868675E-1,-1.4427104E-2,4.6253762E-1,1.4266448E0,2.463296E-1,8.45962E-1,-1.8799177E-1,2.4208155E-1,3.156387E-1,1.2609553E0,1.2508307E0,3.0491805E-1,-2.2226986E-1,7.999344E-1,2.571458E-1,-1.0925534E0,-7.9674256E-1,1.2718407E0,1.7048607E0,1.3647782E0,2.3686452E-1,-1.3811772E0,-6.823558E-1,1.1607363E0,-4.3466884E-1,1.3862134E0,1.1732934E0,3.364075E-1,-7.831722E-1,3.4828913E-1,-1.3422885E0,-4.0517634E-1,-1.1129335E0,-2.909263E-1,5.604084E-1,-7.149772E-2,-3.0500472E-1,2.7205354E-1,-3.9382794E-1,-1.4536895E0,5.6065667E-1,3.9110926E-1,-1.6476041E-1,-1.1710083E0,2.8858098E-1,1.430956E0,-7.648311E-1,5.7711713E-2,-1.4807867E-1,7.2394484E-1,1.341973E0,-1.0829401E0,1.6433866E0,7.18349E-1,5.2847004E-1,-7.0552015E-1,5.056505E-1,1.6366067E0,6.937224E-1,1.3624561E0,1.6186586E-1,1.1698921E0,1.1198401E0,1.508821E0,-4.4510216E-2,-1.7871587E-1,-1.1910778E0,1.0127375E0,-4.7284645E-1,1.1774406E0,-5.618831E-1,4.3286186E-1,3.0554223E-1,3.1371674E-1,-3.600676E-1,7.7178675E-1,2.8706962E-2,1.6313809E0,5.9291303E-1,-8.9827585E-1,-4.5898566E-1,1.3968624E0,3.817952E-1,1.3451735E0,-1.9083291E-1,-2.683427E-1,3.8327044E-1,3.2264858E-1,-6.8047935E-1,5.5448854E-1,9.731752E-1,-8.626083E-1,-1.1737938E0,5.4808825E-1,4.399178E-1,-1.12272E0,3.4910402E-1,-2.1409634E-1,1.3176905E0,3.0468926E-1,-9.7089744E-1,6.3493943E-1,-4.4258466E-1,2.3507138E-1,1.8428838E-1,2.9126725E-1,-1.1943791E0,6.3403213E-1,-7.110752E-1,9.1761345E-1,7.777364E-1,1.37445E0,2.750423E-1,9.8358727E-1,-3.799765E-1,1.0135746E0,-7.924942E-1,2.7987924E-1,1.8309888E-1,1.0750234E0,1.987377E-1,-3.321534E-1,-3.9629184E-2,-2.0348342E-1,2.6552188E-1,3.8007945E-1,3.797029E-1,3.021796E-1,1.4825163E0,3.59144E-1,-9.520502E-2,1.7972292E-1,1.271069E-2,-3.1998393E-1,-3.6486316E-1,2.4769543E-1,-1.9485084E-2,2.8226802E-1,1.8046997E-1,-3.0065426E-1,3.0067682E-1,-2.0653636E-3,1.072796E-1,3.0831808E-1,-2.2188424E-1,-1.5206816E-2,-9.5825754E-2,1.2008069E-1,-2.795294E-1,3.5606247E-1,-1.02467716E-1,3.0175244E-2,-2.8432503E-1,-8.9061014E-2,4.781055E-2,-2.2776006E-1,-5.248198E-3,2.453691E-1,-4.6210896E-2,3.0246406E-4,-2.0958991E-1,9.3019255E-2,-2.9826945E-1,-2.379186E-1,-3.1881708E-1,3.6277008E-1,-1.2954955E-1,1.347527E-1,-2.5530776E-1,-1.15534484E-1,-1.9250649E-1,3.3610058E-1,2.1429615E-1,3.5921E-1,-1.3438291E-2,-2.0373392E-1,-2.026306E-2,1.6528495E-1,9.890414E-2,-1.1672851E-1,3.413563E-1,1.0889341E-1,-1.587907E-1,3.8866684E-1,-3.0075765E-1,2.4732807E-1,-8.826691E-2,3.4665796E-1,-2.6864598E-2,2.4117008E-1,1.982235E-2,2.632289E-1,-1.9751376E-1,6.881578E-2,6.727436E-3,2.7105206E-1,-8.8978015E-2,3.3911198E-1,4.1418117E-3,2.6358283E-1,2.2094014E-1,3.148681E-1,-7.763206E-2,2.082146E-1,8.154064E-2,2.8967476E-1,2.9181048E-1,1.3390046E-1,3.1578052E-1,1.6479814E-1,-2.747098E-1,3.4579167E-1,-2.871456E-1,2.1977E-1,-3.2740262E-1,1.14463724E-1,8.524259E-2,2.5817406E-1,-1.5268454E-1,1.8808484E-1,-1.4482838E-1,1.5635714E-1,-1.5689318E-1,2.3851405E-1,-2.5150308E-3,3.2017308E-1,-3.0867323E-1,2.4581645E-1,1.1602284E-1,3.277801E-1,2.9849295E-2,2.8459385E-1,-2.1641882E-1,-5.7024688E-2,2.6874557E-1,-3.0296087E-1,8.783301E-2,3.430919E-1,-1.4829195E-1,2.2626178E-1,3.4133455E-1,9.2851825E-2,-2.4047856E-1,2.1537633E-1,2.659647E-1,-1.366884E-1,-2.0264821E-1,4.579069E-3,-3.2907587E-1,1.9490795E-1,1.0742211E-1,2.3976186E-1,6.306865E-2,-2.2190586E-1,-1.00118436E-1,-3.1712285E-1,-1.2341722E-1,2.6398632E-1,-8.207972E-2,2.2803965E-1,-2.636696E-1,-5.8942344E-2,2.8375122E-1,1.8425143E-1,-2.4142449E-1,1.8248966E-1,-3.2717025E-1,2.0962098E-1,-4.3000992E-2,2.8925794E-1,2.2768438E-1,-2.4068601E-1,-9.488206E-2,2.0697525E-1,-2.8375545E-1,2.998698E-1,-2.2601595E-2,1.9155571E-1,-2.9727116E-1,-2.7777364E-3,2.2125106E-1,5.0947335E-2,5.3685166E-2,2.697658E-1,1.9684757E-1,2.849745E-1,2.9194934E-2,2.7902633E-1,-2.2731939E-1,5.8316004E-2,1.14659645E-1,2.5803986E-1,-2.0784011E-1,1.673127E-1,2.1120398E-1,-5.406746E-2,-1.5322763E-1,2.2047026E-1,2.3479317E-1,-6.130601E-2,-5.6061786E-2,1.714751E-1,1.5070842E-1,3.041485E-1,-1.9281736E-1,2.3411131E-1],"categories":[],"categories_nodes":[],"categories_segments":[],"categories_sizes":[],"default_left":[0,0,0,0,0,0,0,0,0,0,0,0,0,0,0,0,0,0,0,0,0,0,0,0,0,0,0,0,0,0,0,0,0,0,0,0,0,0,0,0,0,0,0,0,0,0,0,0,0,0,0,0,0,0,0,0,0,0,0,0,0,0,0,0,0,0,0,0,0,0,0,0,0,0,0,0,0,0,0,0,0,0,0,0,0,0,0,0,0,0,0,0,0,0,0,0,0,0,0,0,0,0,0,0,0,0,0,0,0,0,0,0,0,0,0,0,0,0,0,0,0,0,0,0,0,0,0,0,0,0,0,0,0,0,0,0,0,0,0,0,0,0,0,0,0,0,0,0,0,0,0,0,0,0,0,0,0,0,0,0,0,0,0,0,0,0,0,0,0,0,0,0,0,0,0,0,0,0,0,0,0,0,0,0,0,0,0,0,0,0,0,0,0,0,0,0,0,0,0,0,0,0,0,0,0,0,0,0,0,0,0,0,0,0,0,0,0,0,0,0,0,0,0,0,0,0,0,0,0,0,0,0,0,0,0,0,0,0,0,0,0,0,0,0,0,0,0,0,0,0,0,0,0,0,0,0,0,0,0,0,0,0,0,0,0,0,0,0,0,0,0,0,0,0,0,0,0,0,0,0,0,0,0,0,0,0,0,0,0,0,0,0,0,0,0,0,0,0,0,0,0,0,0,0,0,0,0,0,0,0,0,0,0,0,0,0,0,0,0,0,0,0,0,0,0,0,0,0,0,0,0,0,0,0,0,0,0,0,0,0,0,0,0,0,0,0,0,0,0,0,0,0,0,0,0,0,0,0,0,0,0,0,0,0,0,0,0,0,0,0,0,0,0,0,0,0,0,0,0,0,0,0,0,0,0,0,0,0,0,0,0,0,0,0,0,0,0,0,0,0,0,0,0,0,0,0,0,0,0,0,0],"id":3,"left_children":[1,3,5,7,9,11,13,15,17,19,21,23,25,27,29,31,33,35,37,39,41,43,45,47,49,51,53,55,57,59,61,63,65,67,69,71,73,75,77,79,81,83,85,87,89,91,93,95,97,99,101,103,105,107,109,111,113,115,117,119,121,123,-1,125,127,129,131,133,135,137,139,141,143,-1,-1,145,147,149,-1,151,153,155,157,159,161,163,165,167,169,171,173,175,177,179,181,183,185,187,189,191,193,195,197,199,201,203,205,207,209,211,213,-1,-1,-1,215,217,219,221,223,-1,225,227,229,231,233,235,237,239,241,243,245,247,-1,249,251,253,255,257,259,261,263,-1,-1,265,267,269,-1,271,273,275,277,279,281,283,285,287,289,291,293,295,297,299,301,303,305,307,309,311,313,-1,-1,315,317,319,321,323,325,327,-1,-1,329,331,333,335,337,339,341,343,345,347,-1,349,-1,351,353,355,357,359,361,363,365,-1,-1,367,369,371,373,375,-1,377,-1,379,381,383,385,387,389,-1,391,393,395,397,399,401,403,-1,-1,-1,-1,-1,405,-1,-1,407,409,-1,-1,-1,-1,-1,-1,-1,-1,-1,-1,-1,-1,-1,-1,-1,-1,-1,-1,-1,-1,-1,-1,-1,-1,-1,-1,-1,-1,-1,-1,-1,-1,-1,-1,-1,-1,-1,-1,-1,-1,-1,-1,-1,-1,-1,-1,-1,-1,-1,-1,-1,-1,-1,-1,-1,-1,-1,-1,-1,-1,-1,-1,-1,-1,-1,-1,-1,-1,-1,-1,-1,-1,-1,-1,-1,-1,-1,-1,-1,-1,-1,-1,-1,-1,-1,-1,-1,-1,-1,-1,-1,-1,-1,-1,-1,-1,-1,-1,-1,-1,-1,-1,-1,-1,-1,-1,-1,-1,-1,-1,-1,-1,-1,-1,-1,-1,-1,-1,-1,-1,-1,-1,-1,-1,-1,-1,-1,-1,-1,-1,-1,-1,-1,-1,-1,-1,-1,-1,-1,-1,-1,-1,-1,-1,-1,-1,-1,-1,-1,-1,-1,-1,-1,-1,-1,-1,-1,-1,-1,-1,-1,-1,-1,-1,-1,-1,-1,-1,-1,-1,-1,-1,-1,-1,-1,-1],"loss_changes":[6.820189E2,7.5776294E2,3.6618536E2,4.3040247E2,2.6516367E2,3.9294882E2,1.197854E2,2.4046078E2,1.4994275E2,2.683022E2,2.2400055E2,1.7832884E2,1.383327E2,1.5081503E2,2.7322266E1,1.8454597E2,2.8981006E2,1.3311157E1,2.1564813E2,1.903673E2,1.4502176E2,6.996765E1,2.438918E2,1.8479234E2,1.7456104E2,3.118472E2,9.3321106E1,6.063965E0,1.3306271E2,1.7841583E1,1.263855E0,1.25983574E2,5.9830353E1,1.5809381E2,1.8845847E2,4.498291E0,1.8283503E1,1.3401315E2,9.25242E1,1.9260146E2,1.2134706E2,2.1376259E2,8.003729E1,1.4860107E1,9.357704E1,1.5558095E2,3.7806763E1,1.2691644E2,4.908418E1,8.784447E1,1.7352295E2,7.953693E1,6.1112885E1,8.736816E0,7.8760864E1,9.260766E0,2.9359741E0,3.7758636E1,1.4816742E2,3.548689E1,1.3117641E1,1.0229797E0,0E0,1.8516956E2,3.0972038E1,9.564775E1,9.383301E0,3.2593546E2,2.927824E2,8.795581E1,9.628869E1,1.4821879E1,3.2496338E0,0E0,0E0,1.2424553E1,1.5045087E2,3.2288063E1,0E0,1.8824736E2,3.0048413E2,1.7450453E2,4.63602E1,2.2379008E2,9.026219E1,2.2526062E1,7.15008E1,9.979736E0,3.113519E-1,2.4353311E2,6.3886597E1,1.4898447E2,2.760666E0,2.7464993E1,1.6049774E1,6.1452118E1,4.354346E1,2.5236115E1,5.8410606E0,1.8581276E1,9.935769E1,1.26618256E2,2.9418732E1,7.7223755E1,2.0808346E1,6.0309753E1,5.1403885E1,8.3889065E0,6.299011E0,2.1091795E2,5.978116E1,0E0,0E0,0E0,8.080048E0,5.0892334E0,2.7537241E1,1.05553375E2,3.897032E1,0E0,1.7263474E1,2.8105617E-1,1.547966E0,4.9832153E-1,5.025917E0,1.0008087E2,3.3729782E1,2.5250587E1,2.8782913E1,8.473093E1,9.393524E0,2.229152E1,0E0,9.748273E1,1.3374274E2,7.230005E1,1.1466733E2,4.928119E1,1.2813495E2,9.666706E1,1.15306015E2,0E0,0E0,3.193221E0,1.0032959E0,3.9317398E1,0E0,8.844983E1,2.9139038E1,7.323831E1,6.8928223E0,1.2774649E2,5.5530125E1,4.8086218E2,8.961319E1,6.124106E1,8.205756E1,1.4904327E1,8.610014E1,8.842033E1,9.954002E1,1.06865135E2,1.2647644E1,2.9617516E1,1.0446167E1,1.0835047E2,2.1324326E1,2.2256592E1,6.2781677E0,0E0,0E0,4.5281555E1,2.9607056E1,3.258396E1,2.4013763E1,1.23802185E2,9.714227E1,4.1746287E0,0E0,0E0,8.89654E0,1.6278687E1,2.1270752E-2,1.0579639E1,6.759216E1,3.9696842E1,1.0320274E1,4.9856438E1,1.6345657E1,1.2580741E1,0E0,3.0475777E1,0E0,8.023372E1,7.611586E1,3.710974E1,1.2530802E1,1.5831451E1,1.1852152E1,2.3181671E1,3.1389023E1,0E0,0E0,5.7640686E0,8.399807E1,4.6638073E1,3.431432E1,8.7073E0,0E0,3.460751E0,0E0,5.056211E1,7.196765E1,1.2886737E1,6.3131317E1,9.536877E0,1.22995E0,0E0,2.2224285E1,1.5155958E1,2.642126E0,7.020256E1,8.413327E1,6.401665E1,2.2152603E1,0E0,0E0,0E0,0E0,0E0,1.4476374E0,0E0,0E0,1.6189575E-2,7.8282056E0,0E0,0E0,0E0,0E0,0E0,0E0,0E0,0E0,0E0,0E0,0E0,0E0,0E0,0E0,0E0,0E0,0E0,0E0,0E0,0E0,0E0,0E0,0E0,0E0,0E0,0E0,0E0,0E0,0E0,0E0,0E0,0E0,0E0,0E0,0E0,0E0,0E0,0E0,0E0,0E0,0E0,0E0,0E0,0E0,0E0,0E0,0E0,0E0,0E0,0E0,0E0,0E0,0E0,0E0,0E0,0E0,0E0,0E0,0E0,0E0,0E0,0E0,0E0,0E0,0E0,0E0,0E0,0E0,0E0,0E0,0E0,0E0,0E0,0E0,0E0,0E0,0E0,0E0,0E0,0E0,0E0,0E0,0E0,0E0,0E0,0E0,0E0,0E0,0E0,0E0,0E0,0E0,0E0,0E0,0E0,0E0,0E0,0E0,0E0,0E0,0E0,0E0,0E0,0E0,0E0,0E0,0E0,0E0,0E0,0E0,0E0,0E0,0E0,0E0,0E0,0E0,0E0,0E0,0E0,0E0,0E0,0E0,0E0,0E0,0E0,0E0,0E0,0E0,0E0,0E0,0E0,0E0,0E0,0E0,0E0,0E0,0E0,0E0,0E0,0E0,0E0,0E0,0E0,0E0,0E0,0E0,0E0,0E0,0E0,0E0,0E0,0E0,0E0,0E0,0E0,0E0,0E0,0E0,0E0,0E0,0E0,0E0,0E0,0E0,0E0,0E0,0E0,0E0,0E0,0E0,0E0,0E0,0E0,0E0,0E0,0E0],"parents":[2147483647,0,0,1,1,2,2,3,3,4,4,5,5,6,6,7,7,8,8,9,9,10,10,11,11,12,12,13,13,14,14,15,15,16,16,17,17,18,18,19,19,20,20,21,21,22,22,23,23,24,24,25,25,26,26,27,27,28,28,29,29,30,30,31,31,32,32,33,33,34,34,35,35,36,36,37,37,38,38,39,39,40,40,41,41,42,42,43,43,44,44,45,45,46,46,47,47,48,48,49,49,50,50,51,51,52,52,53,53,54,54,55,55,56,56,57,57,58,58,59,59,60,60,61,61,63,63,64,64,65,65,66,66,67,67,68,68,69,69,70,70,71,71,72,72,75,75,76,76,77,77,79,79,80,80,81,81,82,82,83,83,84,84,85,85,86,86,87,87,88,88,89,89,90,90,91,91,92,92,93,93,94,94,95,95,96,96,97,97,98,98,99,99,100,100,101,101,102,102,103,103,104,104,105,105,106,106,107,107,108,108,109,109,110,110,114,114,115,115,116,116,117,117,118,118,120,120,121,121,122,122,123,123,124,124,125,125,126,126,127,127,128,128,129,129,130,130,131,131,133,133,134,134,135,135,136,136,137,137,138,138,139,139,140,140,143,143,144,144,145,145,147,147,148,148,149,149,150,150,151,151,152,152,153,153,154,154,155,155,156,156,157,157,158,158,159,159,160,160,161,161,162,162,163,163,164,164,165,165,166,166,167,167,168,168,171,171,172,172,173,173,174,174,175,175,176,176,177,177,180,180,181,181,182,182,183,183,184,184,185,185,186,186,187,187,188,188,189,189,191,191,193,193,194,194,195,195,196,196,197,197,198,198,199,199,200,200,203,203,204,204,205,205,206,206,207,207,209,209,211,211,212,212,213,213,214,214,215,215,216,216,218,218,219,219,220,220,221,221,222,222,223,223,224,224,230,230,233,233,234,234],"right_children":[2,4,6,8,10,12,14,16,18,20,22,24,26,28,30,32,34,36,38,40,42,44,46,48,50,52,54,56,58,60,62,64,66,68,70,72,74,76,78,80,82,84,86,88,90,92,94,96,98,100,102,104,106,108,110,112,114,116,118,120,122,124,-1,126,128,130,132,134,136,138,140,142,144,-1,-1,146,148,150,-1,152,154,156,158,160,162,164,166,168,170,172,174,176,178,180,182,184,186,188,190,192,194,196,198,200,202,204,206,208,210,212,214,-1,-1,-1,216,218,220,222,224,-1,226,228,230,232,234,236,238,240,242,244,246,248,-1,250,252,254,256,258,260,262,264,-1,-1,266,268,270,-1,272,274,276,278,280,282,284,286,288,290,292,294,296,298,300,302,304,306,308,310,312,314,-1,-1,316,318,320,322,324,326,328,-1,-1,330,332,334,336,338,340,342,344,346,348,-1,350,-1,352,354,356,358,360,362,364,366,-1,-1,368,370,372,374,376,-1,378,-1,380,382,384,386,388,390,-1,392,394,396,398,400,402,404,-1,-1,-1,-1,-1,406,-1,-1,408,410,-1,-1,-1,-1,-1,-1,-1,-1,-1,-1,-1,-1,-1,-1,-1,-1,-1,-1,-1,-1,-1,-1,-1,-1,-1,-1,-1,-1,-1,-1,-1,-1,-1,-1,-1,-1,-1,-1,-1,-1,-1,-1,-1,-1,-1,-1,-1,-1,-1,-1,-1,-1,-1,-1,-1,-1,-1,-1,-1,-1,-1,-1,-1,-1,-1,-1,-1,-1,-1,-1,-1,-1,-1,-1,-1,-1,-1,-1,-1,-1,-1,-1,-1,-1,-1,-1,-1,-1,-1,-1,-1,-1,-1,-1,-1,-1,-1,-1,-1,-1,-1,-1,-1,-1,-1,-1,-1,-1,-1,-1,-1,-1,-1,-1,-1,-1,-1,-1,-1,-1,-1,-1,-1,-1,-1,-1,-1,-1,-1,-1,-1,-1,-1,-1,-1,-1,-1,-1,-1,-1,-1,-1,-1,-1,-1,-1,-1,-1,-1,-1,-1,-1,-1,-1,-1,-1,-1,-1,-1,-1,-1,-1,-1,-1,-1,-1,-1,-1,-1,-1,-1,-1,-1,-1,-1,-1],"split_conditions":[2.5507407E0,7.207594E-1,-2.5907472E-2,-2.870832E-2,3.271863E-1,4.1410666E0,3.0566275E-2,-1.6439854E0,3.271863E-1,1.8228892E0,-3.9935836E-1,-7.32095E-1,-1.1558075E0,-1.300922E-1,-1.3793288E-1,-3.7900123E-1,-8.0479406E-2,2.6788574E-1,2.5516805E-1,4.275796E-1,-9.4395125E-1,-6.6807806E-1,1.7107986E0,-4.3405365E-2,3.213378E0,5.789204E0,-3.1593833E0,-2.0304214E-2,-1.8602638E0,3.271863E-1,2.894423E0,-1.4301554E-2,1.8406327E-1,-6.989438E-1,-2.7284512E-2,-2.8961942E-2,-2.5907472E-2,-2.8980628E-2,-1.0571882E0,-7.32095E-1,-1.1558075E0,3.639008E0,-3.901221E-1,-1.9835055E-1,1.0333738E0,1.1244094E0,-5.1329774E-1,1.4142758E0,-7.0642225E-2,-2.6327136E-1,-2.9650291E-2,1.82692E0,-1.2634492E-1,4.6445007E0,-9.4395125E-1,3.271863E-1,1.4411144E0,-7.035485E-2,1.6930608E0,-1.8938687E0,1.1023116E-1,-9.266861E-2,2.7093843E-1,-2.37194E0,1.1186962E-1,3.271863E-1,2.2457135E-1,3.271863E-1,-7.361991E-2,1.0333738E0,-2.7062602E-2,-2.5907472E-2,-1.24951236E-1,-2.2975211E-1,3.652216E-1,1.0333738E0,-1.4309907E0,1.0333738E0,-2.8077003E-1,2.7572253E-1,2.0404568E0,-4.231167E0,-2.9073126E0,-1.56724E0,5.4755287E0,3.341829E-1,-3.7900123E-1,9.602198E-1,-1.126306E0,1.1274713E0,7.8570014E-1,1.7395613E0,2.9723784E-1,1.0333738E0,-5.9852686E-2,-3.531153E-1,-1.1558075E0,-1.1558075E0,-3.7288943E-1,-3.7900123E-1,-6.2224865E-2,-3.9237075E-2,7.158495E-2,-6.2233055E-1,-3.4887806E-2,-1.4879669E-2,3.848346E0,-9.4395125E-1,-2.5353001E-2,3.077018E-1,-2.6771182E-2,-1.8799177E-1,2.4208155E-1,3.156387E-1,1.729821E0,-1.9698375E0,3.109247E-1,1.0333738E0,3.271863E-1,2.571458E-1,-1.9628732E-1,6.042501E-2,-1.6335945E0,